{"learner":{"attributes":{},"feature_names":[],"feature_types":[],"gradient_booster":{"model":{"cats":{"enc":[],"feature_segments":[],"sorted_idx":[]},"gbtree_model_param":{"num_parallel_tree":"1","num_trees":"200"},"iteration_indptr":[0,1,2,3,4,5,6,7,8,9,10,11,12,13,14,15,16,17,18,19,20,21,22,23,24,25,26,27,28,29,30,31,32,33,34,35,36,37,38,39,40,41,42,43,44,45,46,47,48,49,50,51,52,53,54,55,56,57,58,59,60,61,62,63,64,65,66,67,68,69,70,71,72,73,74,75,76,77,78,79,80,81,82,83,84,85,86,87,88,89,90,91,92,93,94,95,96,97,98,99,100,101,102,103,104,105,106,107,108,109,110,111,112,113,114,115,116,117,118,119,120,121,122,123,124,125,126,127,128,129,130,131,132,133,134,135,136,137,138,139,140,141,142,143,144,145,146,147,148,149,150,151,152,153,154,155,156,157,158,159,160,161,162,163,164,165,166,167,168,169,170,171,172,173,174,175,176,177,178,179,180,181,182,183,184,185,186,187,188,189,190,191,192,193,194,195,196,197,198,199,200],"tree_info":[0,0,0,0,0,0,0,0,0,0,0,0,0,0,0,0,0,0,0,0,0,0,0,0,0,0,0,0,0,0,0,0,0,0,0,0,0,0,0,0,0,0,0,0,0,0,0,0,0,0,0,0,0,0,0,0,0,0,0,0,0,0,0,0,0,0,0,0,0,0,0,0,0,0,0,0,0,0,0,0,0,0,0,0,0,0,0,0,0,0,0,0,0,0,0,0,0,0,0,0,0,0,0,0,0,0,0,0,0,0,0,0,0,0,0,0,0,0,0,0,0,0,0,0,0,0,0,0,0,0,0,0,0,0,0,0,0,0,0,0,0,0,0,0,0,0,0,0,0,0,0,0,0,0,0,0,0,0,0,0,0,0,0,0,0,0,0,0,0,0,0,0,0,0,0,0,0,0,0,0,0,0,0,0,0,0,0,0,0,0,0,0,0,0,0,0,0,0,0,0],"trees":[{"base_weights":[-3.5042453E-5,1.4593376E0,-1.0106739E0,1.616084E0,-1.0370828E-1,-1.2614568E0,4.6379116E-1,2.025281E0,1.2011831E0,-4.8632935E-1,1.0695777E0,8.389973E-1,-1.3391646E0,1.5165231E0,-8.856215E-2,2.0410132E-1,4.74298E-2,6.197535E-2,1.6592553E-1,4.990262E-2,-7.741806E-2,1.648864E-1,6.2405873E-2,1.2128192E-1,-4.051691E-2,-4.6067797E-2,-1.4612819E-1,1.6651635E-1,-1.7895304E-2,6.728224E-2,-6.229755E-2],"categories":[],"categories_nodes":[],"categories_segments":[],"categories_sizes":[],"default_left":[0,0,0,0,0,0,0,0,0,0,0,0,0,0,0,0,0,0,0,0,0,0,0,0,0,0,0,0,0,0,0],"id":0,"left_children":[1,3,5,7,9,11,13,15,17,19,21,23,25,27,29,-1,-1,-1,-1,-1,-1,-1,-1,-1,-1,-1,-1,-1,-1,-1,-1],"loss_changes":[1.8397975E5,1.250557E4,2.7255508E4,7.8633906E3,2.093041E3,1.0286844E4,6.232343E3,5.648281E2,6.132754E3,9.988766E2,2.9079382E2,1.0490514E3,6.513172E3,9.309912E2,2.864049E3,0E0,0E0,0E0,0E0,0E0,0E0,0E0,0E0,0E0,0E0,0E0,0E0,0E0,0E0,0E0,0E0],"parents":[2147483647,0,0,1,1,2,2,3,3,4,4,5,5,6,6,7,7,8,8,9,9,10,10,11,11,12,12,13,13,14,14],"right_children":[2,4,6,8,10,12,14,16,18,20,22,24,26,28,30,-1,-1,-1,-1,-1,-1,-1,-1,-1,-1,-1,-1,-1,-1,-1,-1],"split_conditions":[1E0,9.587054E-3,1.5994416E-1,1E0,1.0196798E-1,-2.5201622E-1,1E0,4.2815226E-1,1.1071551E0,1E0,1E0,1E0,1E0,9.587054E-3,-7.348805E-2,2.0410132E-1,4.74298E-2,6.197535E-2,1.6592553E-1,4.990262E-2,-7.741806E-2,1.648864E-1,6.2405873E-2,1.2128192E-1,-4.051691E-2,-4.6067797E-2,-1.4612819E-1,1.6651635E-1,-1.7895304E-2,6.728224E-2,-6.229755E-2],"split_indices":[23,43,64,22,64,55,22,40,0,22,22,14,22,43,66,0,0,0,0,0,0,0,0,0,0,0,0,0,0,0,0],"split_type":[0,0,0,0,0,0,0,0,0,0,0,0,0,0,0,0,0,0,0,0,0,0,0,0,0,0,0,0,0,0,0],"sum_hessian":[1.2473061E5,5.103432E4,7.369629E4,4.638276E4,4.651558E3,6.2984375E4,1.0711914E4,2.3342129E4,2.3040633E4,3.5098772E3,1.1416808E3,2.2452727E3,6.07391E4,3.6832563E3,7.028658E3,2.3106176E4,2.3595396E2,1.0158387E4,1.2882246E4,7.926965E2,2.7171807E3,4.9045776E2,6.512231E2,1.7266191E3,5.186535E2,7.4157314E3,5.332337E4,3.3864587E3,2.9679745E2,2.898227E3,4.130431E3],"tree_param":{"num_deleted":"0","num_feature":"68","num_nodes":"31","size_leaf_vector":"1"}},{"base_weights":[2.2143108E-4,1.303952E0,-9.234488E-1,8.158826E-1,1.7271549E0,-1.1530738E0,4.2639008E-1,1.5075434E0,4.0890202E-1,1.7746046E0,6.725502E-1,-3.9791855E-1,-1.3494322E0,1.3441837E0,-6.294973E-2,1.5956607E-1,2.7889732E-2,1.1428513E-1,4.6154545E-4,1.7985697E-1,4.8484974E-2,1.3338664E-1,2.3622049E-2,8.189716E-2,-7.083239E-2,-1.4291747E-1,-6.141453E-2,1.4816533E-1,-2.2902975E-2,8.531716E-2,-5.0361186E-2],"categories":[],"categories_nodes":[],"categories_segments":[],"categories_sizes":[],"default_left":[0,0,0,0,0,0,0,0,0,0,0,0,0,0,0,0,0,0,0,0,0,0,0,0,0,0,0,0,0,0,0],"id":1,"left_children":[1,3,5,7,9,11,13,15,17,19,21,23,25,27,29,-1,-1,-1,-1,-1,-1,-1,-1,-1,-1,-1,-1,-1,-1,-1,-1],"loss_changes":[1.4941203E5,1.0620406E4,2.2512227E4,6.7257363E3,1.3727969E3,9.2005E3,4.7437754E3,9.562617E2,4.467453E3,8.105E2,3.4305603E2,4.8435923E3,2.8836406E3,7.960708E2,2.7850593E3,0E0,0E0,0E0,0E0,0E0,0E0,0E0,0E0,0E0,0E0,0E0,0E0,0E0,0E0,0E0,0E0],"parents":[2147483647,0,0,1,1,2,2,3,3,4,4,5,5,6,6,7,7,8,8,9,9,10,10,11,11,12,12,13,13,14,14],"right_children":[2,4,6,8,10,12,14,16,18,20,22,24,26,28,30,-1,-1,-1,-1,-1,-1,-1,-1,-1,-1,-1,-1,-1,-1,-1,-1],"split_conditions":[1E0,1.8284127E-1,3.0056515E-1,1E0,2.1886967E-1,-2.5201622E-1,1E0,2.7119032E-1,-2.5201622E-1,9.587054E-3,1E0,1E0,9.19116E-5,9.587054E-3,-2.5201622E-1,1.5956607E-1,2.7889732E-2,1.1428513E-1,4.6154545E-4,1.7985697E-1,4.8484974E-2,1.3338664E-1,2.3622049E-2,8.189716E-2,-7.083239E-2,-1.4291747E-1,-6.141453E-2,1.4816533E-1,-2.2902975E-2,8.531716E-2,-5.0361186E-2],"split_indices":[23,9,64,22,43,4,22,43,4,40,22,22,56,43,4,0,0,0,0,0,0,0,0,0,0,0,0,0,0,0,0],"split_type":[0,0,0,0,0,0,0,0,0,0,0,0,0,0,0,0,0,0,0,0,0,0,0,0,0,0,0,0,0,0,0],"sum_hessian":[1.2406399E5,5.1446652E4,7.2617336E4,2.389908E4,2.7547574E4,6.206074E4,1.0556602E4,8.848163E3,1.5050916E4,2.6358225E4,1.1893485E3,1.2810246E4,4.9250492E4,3.668089E3,6.888512E3,8.254654E3,5.935084E2,5.342646E3,9.7082705E3,2.5875457E4,4.827673E2,4.6869434E2,7.2065424E2,2.6018706E3,1.0208375E4,4.4427566E4,4.8229224E3,3.3735916E3,2.9449777E2,2.2357612E3,4.6527505E3],"tree_param":{"num_deleted":"0","num_feature":"68","num_nodes":"31","size_leaf_vector":"1"}},{"base_weights":[-5.010699E-3,-8.0835164E-1,1.1982329E0,-9.6779716E-1,1.1066582E0,6.819053E-1,1.5180174E0,2.285305E-2,-1.1421965E0,1.2839366E0,-4.6838567E-1,2.6959342E-1,1.3957579E0,1.5630859E0,2.8230757E-1,8.771171E-2,-4.3784585E-2,-4.857927E-2,-1.2888333E-1,1.3675366E-1,-6.6435955E-2,5.3197294E-2,-7.806562E-2,9.613021E-2,-1.4283321E-2,1.4792703E-1,1.909528E-2,1.251702E-1,1.690156E-1,-5.666717E-3,1.0147592E-1],"categories":[],"categories_nodes":[],"categories_segments":[],"categories_sizes":[],"default_left":[0,0,0,0,0,0,0,0,0,0,0,0,0,0,0,0,0,0,0,0,0,0,0,0,0,0,0,0,0,0,0],"id":2,"left_children":[1,3,5,7,9,11,13,15,17,19,21,23,25,27,29,-1,-1,-1,-1,-1,-1,-1,-1,-1,-1,-1,-1,-1,-1,-1,-1],"loss_changes":[1.1846014E5,2.2444082E4,8.095922E3,1.1721113E4,1.5808027E3,5.523964E3,1.6849453E3,4.000615E3,5.549383E3,8.320215E2,1.8180011E2,3.397463E3,6.9006836E2,1.145875E3,2.664748E2,0E0,0E0,0E0,0E0,0E0,0E0,0E0,0E0,0E0,0E0,0E0,0E0,0E0,0E0,0E0,0E0],"parents":[2147483647,0,0,1,1,2,2,3,3,4,4,5,5,6,6,7,7,8,8,9,9,10,10,11,11,12,12,13,13,14,14],"right_children":[2,4,6,8,10,12,14,16,18,20,22,24,26,28,30,-1,-1,-1,-1,-1,-1,-1,-1,-1,-1,-1,-1,-1,-1,-1,-1],"split_conditions":[1E0,1.2257923E0,1.1071551E0,1E0,9.587054E-3,1E0,4.2815226E-1,-2.5201622E-1,-3.0433688E-1,9.587054E-3,1E0,-2.5201622E-1,2.1886967E-1,8.30991E-1,1E0,8.771171E-2,-4.3784585E-2,-4.857927E-2,-1.2888333E-1,1.3675366E-1,-6.6435955E-2,5.3197294E-2,-7.806562E-2,9.613021E-2,-1.4283321E-2,1.4792703E-1,1.909528E-2,1.251702E-1,1.690156E-1,-5.666717E-3,1.0147592E-1],"split_indices":[24,59,0,22,43,19,43,4,4,40,22,4,43,11,19,0,0,0,0,0,0,0,0,0,0,0,0,0,0,0,0],"split_type":[0,0,0,0,0,0,0,0,0,0,0,0,0,0,0,0,0,0,0,0,0,0,0,0,0,0,0,0,0,0,0],"sum_hessian":[1.2254154E5,7.348273E4,4.9058812E4,6.783702E4,5.6457017E3,1.8769322E4,3.0289492E4,1.0155357E4,5.7681664E4,5.0753696E3,5.7033203E2,1.19018545E4,6.867467E3,2.9222377E4,1.067114E3,3.556359E3,6.5989985E3,1.0536715E4,4.714495E4,4.8679785E3,2.0739105E2,1.348434E2,4.3548862E2,4.443203E3,7.4586514E3,6.421233E3,4.4623404E2,8.484774E3,2.0737604E4,7.326573E2,3.3445676E2],"tree_param":{"num_deleted":"0","num_feature":"68","num_nodes":"31","size_leaf_vector":"1"}},{"base_weights":[-1.5726591E-3,-7.4223614E-1,1.0927435E0,-9.68956E-1,4.8150685E-1,6.7700917E-1,1.4524992E0,6.195919E-1,-1.0564266E0,8.2419544E-1,-5.688967E-1,3.2842198E-1,1.2926179E0,1.5240946E0,9.808176E-1,9.618863E-2,-4.618008E-2,-1.2215962E-1,-5.6309164E-2,1.03484474E-1,-7.914233E-2,-8.2335405E-2,3.9680626E-2,6.82065E-2,-2.8764982E-2,1.408944E-1,6.8023995E-2,1.547759E-1,3.713867E-2,6.421517E-2,1.3886201E-1],"categories":[],"categories_nodes":[],"categories_segments":[],"categories_sizes":[],"default_left":[0,0,0,0,0,0,0,0,0,0,0,0,0,0,0,0,0,0,0,0,0,0,0,0,0,0,0,0,0,0,0],"id":3,"left_children":[1,3,5,7,9,11,13,15,17,19,21,23,25,27,29,-1,-1,-1,-1,-1,-1,-1,-1,-1,-1,-1,-1,-1,-1,-1,-1],"loss_changes":[9.741906E4,1.9889438E4,7.2510234E3,8.40657E3,4.0365679E3,4.8295576E3,8.706797E2,1.1716864E3,4.6674062E3,2.8807275E3,6.798186E2,3.1344136E3,5.7494824E2,6.127383E2,4.7076318E2,0E0,0E0,0E0,0E0,0E0,0E0,0E0,0E0,0E0,0E0,0E0,0E0,0E0,0E0,0E0,0E0],"parents":[2147483647,0,0,1,1,2,2,3,3,4,4,5,5,6,6,7,7,8,8,9,9,10,10,11,11,12,12,13,13,14,14],"right_children":[2,4,6,8,10,12,14,16,18,20,22,24,26,28,30,-1,-1,-1,-1,-1,-1,-1,-1,-1,-1,-1,-1,-1,-1,-1,-1],"split_conditions":[1E0,3.0056515E-1,1.8284127E-1,-0E0,1E0,1E0,1E0,1E0,1.0456188E-1,1E0,1E0,4.2815226E-1,1E0,9.587054E-3,1E0,9.618863E-2,-4.618008E-2,-1.2215962E-1,-5.6309164E-2,1.03484474E-1,-7.914233E-2,-8.2335405E-2,3.9680626E-2,6.82065E-2,-2.8764982E-2,1.408944E-1,6.8023995E-2,1.547759E-1,3.713867E-2,6.421517E-2,1.3886201E-1],"split_indices":[24,64,9,55,14,19,14,14,36,49,19,4,14,40,19,0,0,0,0,0,0,0,0,0,0,0,0,0,0,0,0],"split_type":[0,0,0,0,0,0,0,0,0,0,0,0,0,0,0,0,0,0,0,0,0,0,0,0,0,0,0,0,0,0,0],"sum_hessian":[1.2018329E5,7.167397E4,4.8509316E4,6.0471586E4,1.1202381E4,2.2510521E4,2.5998795E4,3.1543977E3,5.731719E4,8.447504E3,2.7548767E3,1.4377155E4,8.1333667E3,2.2562873E4,3.4359224E3,2.3964116E3,7.5798615E2,4.293506E4,1.4382131E4,7.474724E3,9.727803E2,2.1809465E3,5.739302E2,9.133645E3,5.243511E3,6.829538E3,1.3038286E3,2.2107309E4,4.5556378E2,1.8841084E3,1.5518141E3],"tree_param":{"num_deleted":"0","num_feature":"68","num_nodes":"31","size_leaf_vector":"1"}},{"base_weights":[-2.2600759E-3,9.907046E-1,-7.339384E-1,1.3992932E0,6.1898893E-1,-9.635545E-1,2.2819588E-1,1.4312379E0,4.2000479E-1,2.6920828E-1,1.201796E0,-1.7423029E-1,-1.0854236E0,5.9546185E-1,-7.202496E-1,1.4469664E-1,3.9901152E-2,-8.677395E-3,9.269019E-2,-1.7265454E-2,7.691713E-2,1.3487177E-1,7.176812E-2,2.2398971E-2,-9.64276E-2,2.3759872E-2,-1.1224798E-1,8.307602E-2,-8.403044E-2,1.1976546E-2,-9.3772545E-2],"categories":[],"categories_nodes":[],"categories_segments":[],"categories_sizes":[],"default_left":[0,0,0,0,0,0,0,0,0,0,0,0,0,0,0,0,0,0,0,0,0,0,0,0,0,0,0,0,0,0,0],"id":4,"left_children":[1,3,5,7,9,11,13,15,17,19,21,23,25,27,29,-1,-1,-1,-1,-1,-1,-1,-1,-1,-1,-1,-1,-1,-1,-1,-1],"loss_changes":[8.541259E4,7.5707344E3,1.495452E4,7.401328E2,5.324133E3,5.255707E3,4.546237E3,3.7058203E2,1.9499423E2,3.6088757E3,6.9200586E2,2.3023765E3,2.3220703E3,3.1813518E3,6.662057E2,0E0,0E0,0E0,0E0,0E0,0E0,0E0,0E0,0E0,0E0,0E0,0E0,0E0,0E0,0E0,0E0],"parents":[2147483647,0,0,1,1,2,2,3,3,4,4,5,5,6,6,7,7,8,8,9,9,10,10,11,11,12,12,13,13,14,14],"right_children":[2,4,6,8,10,12,14,16,18,20,22,24,26,28,30,-1,-1,-1,-1,-1,-1,-1,-1,-1,-1,-1,-1,-1,-1,-1,-1],"split_conditions":[1E0,1E0,3.72505E-1,4.2815226E-1,1E0,1E0,1E0,2.1886967E-1,1.5665617E-2,1.1071551E0,4.2815226E-1,1E0,-2.5201622E-1,1E0,1E0,1.4469664E-1,3.9901152E-2,-8.677395E-3,9.269019E-2,-1.7265454E-2,7.691713E-2,1.3487177E-1,7.176812E-2,2.2398971E-2,-9.64276E-2,2.3759872E-2,-1.1224798E-1,8.307602E-2,-8.403044E-2,1.1976546E-2,-9.3772545E-2],"split_indices":[23,22,9,43,19,22,14,40,62,0,55,14,55,13,22,0,0,0,0,0,0,0,0,0,0,0,0,0,0,0,0],"split_type":[0,0,0,0,0,0,0,0,0,0,0,0,0,0,0,0,0,0,0,0,0,0,0,0,0,0,0,0,0,0,0],"sum_hessian":[1.1755226E5,4.9870695E4,6.768156E4,2.3750455E4,2.6120238E4,5.464126E4,1.3040301E4,2.2997947E4,7.525074E2,1.632803E4,9.792208E3,7.3097134E3,4.733155E4,9.40159E3,3.638711E3,2.2650797E4,3.4715027E2,3.7836993E2,3.7413745E2,8.669382E3,7.658649E3,7.505479E3,2.286729E3,4.8624126E3,2.447301E3,1.2888419E3,4.6042707E4,8.0795854E3,1.3220039E3,7.487726E2,2.8899382E3],"tree_param":{"num_deleted":"0","num_feature":"68","num_nodes":"31","size_leaf_vector":"1"}},{"base_weights":[-1.3418958E-3,-6.375675E-1,9.242842E-1,-7.783281E-1,9.4861335E-1,1.0403762E0,-2.1644662E-1,-7.498608E-2,-9.8981243E-1,1.1467521E0,-2.4164118E-2,1.349678E0,7.38981E-1,5.7575387E-1,-5.2034634E-1,3.1030575E-2,-8.618354E-2,-3.276368E-2,-1.0912769E-1,1.2487451E-1,-1.6045494E-2,9.0587825E-2,-3.9028604E-2,1.367142E-1,4.2771142E-2,8.625884E-2,-4.872041E-2,1.124645E-2,9.287586E-2,-6.596668E-2,6.650107E-2],"categories":[],"categories_nodes":[],"categories_segments":[],"categories_sizes":[],"default_left":[0,0,0,0,0,0,0,0,0,0,0,0,0,0,0,0,0,0,0,0,0,0,0,0,0,0,0,0,0,0,0],"id":5,"left_children":[1,3,5,7,9,11,13,15,17,19,21,23,25,27,29,-1,-1,-1,-1,-1,-1,-1,-1,-1,-1,-1,-1,-1,-1,-1,-1],"loss_changes":[6.737997E4,1.5143275E4,6.17334E3,9.2640625E3,1.0658594E3,3.9386055E3,1.0389463E3,4.368083E3,3.2154648E3,6.134541E2,3.2202557E2,3.331328E2,3.2511367E3,1.9526111E2,5.1696655E2,0E0,0E0,0E0,0E0,0E0,0E0,0E0,0E0,0E0,0E0,0E0,0E0,0E0,0E0,0E0,0E0],"parents":[2147483647,0,0,1,1,2,2,3,3,4,4,5,5,6,6,7,7,8,8,9,9,10,10,11,11,12,12,13,13,14,14],"right_children":[2,4,6,8,10,12,14,16,18,20,22,24,26,28,30,-1,-1,-1,-1,-1,-1,-1,-1,-1,-1,-1,-1,-1,-1,-1,-1],"split_conditions":[1E0,1.1071551E0,9.587054E-3,-2.5201622E-1,1E0,1E0,1E0,1E0,1E0,1E0,1E0,9.587054E-3,1E0,-8.067568E-3,1.1071551E0,3.1030575E-2,-8.618354E-2,-3.276368E-2,-1.0912769E-1,1.2487451E-1,-1.6045494E-2,9.0587825E-2,-3.9028604E-2,1.367142E-1,4.2771142E-2,8.625884E-2,-4.872041E-2,1.124645E-2,9.287586E-2,-6.596668E-2,6.650107E-2],"split_indices":[24,58,43,4,51,22,22,51,22,49,22,40,13,62,58,0,0,0,0,0,0,0,0,0,0,0,0,0,0,0,0],"split_type":[0,0,0,0,0,0,0,0,0,0,0,0,0,0,0,0,0,0,0,0,0,0,0,0,0,0,0,0,0,0,0],"sum_hessian":[1.1440528E5,6.780283E4,4.660246E4,6.227865E4,5.524177E3,4.2298215E4,4.3042437E3,1.4398783E4,4.7879863E4,4.58865E3,9.3552704E2,2.086671E4,2.1431504E4,1.1921348E3,3.112109E3,9.667825E3,4.7309585E3,6.3645815E3,4.151528E4,4.256747E3,3.3190298E2,2.6217215E2,6.733549E2,2.0476434E4,3.9027814E2,1.9470258E4,1.9612457E3,5.183873E2,6.7374744E2,2.786783E3,3.2532587E2],"tree_param":{"num_deleted":"0","num_feature":"68","num_nodes":"31","size_leaf_vector":"1"}},{"base_weights":[-1.0949863E-3,-5.91657E-1,8.557343E-1,-8.0196923E-1,3.967731E-1,4.742857E-1,1.1963576E0,2.005947E-1,-9.1920024E-1,7.7666026E-1,-3.4465882E-1,7.0072484E-1,-2.6650053E-1,1.2301574E0,1.8652773E-1,-6.474119E-2,5.541272E-2,-1.016845E-1,-1.6185915E-2,-1.693775E-2,1.0126084E-1,-6.860353E-2,3.0786172E-2,8.503053E-2,-5.078567E-2,4.9866077E-2,-5.295486E-2,1.0519772E-1,1.3719492E-1,-3.7395135E-2,4.4866726E-2],"categories":[],"categories_nodes":[],"categories_segments":[],"categories_sizes":[],"default_left":[0,0,0,0,0,0,0,0,0,0,0,0,0,0,0,0,0,0,0,0,0,0,0,0,0,0,0,0,0,0,0],"id":6,"left_children":[1,3,5,7,9,11,13,15,17,19,21,23,25,27,29,-1,-1,-1,-1,-1,-1,-1,-1,-1,-1,-1,-1,-1,-1,-1,-1],"loss_changes":[5.6304445E4,1.36946875E4,5.89609E3,6.3847227E3,3.2573164E3,3.5948574E3,8.1735547E2,1.7077603E3,3.5954023E3,1.7073721E3,8.7421375E2,2.9688804E3,1.011619E3,5.789961E2,1.158132E2,0E0,0E0,0E0,0E0,0E0,0E0,0E0,0E0,0E0,0E0,0E0,0E0,0E0,0E0,0E0,0E0],"parents":[2147483647,0,0,1,1,2,2,3,3,4,4,5,5,6,6,7,7,8,8,9,9,10,10,11,11,12,12,13,13,14,14],"right_children":[2,4,6,8,10,12,14,16,18,20,22,24,26,28,30,-1,-1,-1,-1,-1,-1,-1,-1,-1,-1,-1,-1,-1,-1,-1,-1],"split_conditions":[1E0,1.0196798E-1,1.6081122E-1,-8.275434E-1,4.2815226E-1,9.19116E-5,4.2815226E-1,1E0,1E0,1E0,1.0456188E-1,9.19116E-5,1E0,1E0,1.2257923E0,-6.474119E-2,5.541272E-2,-1.016845E-1,-1.6185915E-2,-1.693775E-2,1.0126084E-1,-6.860353E-2,3.0786172E-2,8.503053E-2,-5.078567E-2,4.9866077E-2,-5.295486E-2,1.0519772E-1,1.3719492E-1,-3.7395135E-2,4.4866726E-2],"split_indices":[24,64,9,4,4,44,43,12,19,12,36,41,22,19,35,0,0,0,0,0,0,0,0,0,0,0,0,0,0,0,0],"split_type":[0,0,0,0,0,0,0,0,0,0,0,0,0,0,0,0,0,0,0,0,0,0,0,0,0,0,0,0,0,0,0],"sum_hessian":[1.1126123E5,6.586554E4,4.539569E4,5.4310594E4,1.1554941E4,2.1420174E4,2.3975518E4,5.6853887E3,4.8625207E4,7.6401323E3,3.9148088E3,1.6405658E4,5.0145146E3,2.3197973E4,7.775441E2,1.6716063E3,4.0137822E3,4.3070387E4,5.554819E3,1.5254054E3,6.114727E3,2.5700103E3,1.3447985E3,1.4600149E4,1.8055096E3,1.2817236E3,3.732791E3,1.0298562E4,1.2899412E4,2.4709628E2,5.304479E2],"tree_param":{"num_deleted":"0","num_feature":"68","num_nodes":"31","size_leaf_vector":"1"}},{"base_weights":[-3.0412544E-3,7.8843546E-1,-5.937056E-1,3.5609686E-1,1.078193E0,2.921341E-1,-7.8868264E-1,6.518155E-1,-2.8623205E-1,1.1960715E0,6.4986837E-1,6.32003E-1,-6.106964E-1,-8.756165E-1,3.2048073E-1,8.585468E-2,-8.610818E-3,-5.291852E-2,4.1565444E-2,1.257124E-1,8.09426E-2,1.0722401E-1,3.276562E-2,8.656927E-2,-7.877788E-2,-9.3155935E-2,-1.9795427E-3,-1.1698864E-1,-6.6775024E-2,-5.2863594E-2,6.234243E-2],"categories":[],"categories_nodes":[],"categories_segments":[],"categories_sizes":[],"default_left":[0,0,0,0,0,0,0,0,0,0,0,0,0,0,0,0,0,0,0,0,0,0,0,0,0,0,0,0,0,0,0],"id":7,"left_children":[1,3,5,7,9,11,13,15,17,19,21,23,25,27,29,-1,-1,-1,-1,-1,-1,-1,-1,-1,-1,-1,-1,-1,-1,-1,-1],"loss_changes":[5.0584477E4,5.7908438E3,1.0703096E4,3.5268926E3,1.3938496E3,3.4328833E3,4.8983223E3,1.9396641E3,9.995862E2,5.072207E2,8.1281616E2,2.6994707E3,5.801881E2,2.876875E3,9.52079E2,0E0,0E0,0E0,0E0,0E0,0E0,0E0,0E0,0E0,0E0,0E0,0E0,0E0,0E0,0E0,0E0],"parents":[2147483647,0,0,1,1,2,2,3,3,4,4,5,5,6,6,7,7,8,8,9,9,10,10,11,11,12,12,13,13,14,14],"right_children":[2,4,6,8,10,12,14,16,18,20,22,24,26,28,30,-1,-1,-1,-1,-1,-1,-1,-1,-1,-1,-1,-1,-1,-1,-1,-1],"split_conditions":[1E0,1.1071551E0,1E0,4.2815226E-1,4.2815226E-1,1E0,9.244606E-1,1E0,1E0,1E0,1E0,1E0,2.1936375E-4,1E0,1E0,8.585468E-2,-8.610818E-3,-5.291852E-2,4.1565444E-2,1.257124E-1,8.09426E-2,1.0722401E-1,3.276562E-2,8.656927E-2,-7.877788E-2,-9.3155935E-2,-1.9795427E-3,-1.1698864E-1,-6.6775024E-2,-5.2863594E-2,6.234243E-2],"split_indices":[23,0,22,4,4,14,9,14,19,14,22,13,62,12,12,0,0,0,0,0,0,0,0,0,0,0,0,0,0,0,0],"split_type":[0,0,0,0,0,0,0,0,0,0,0,0,0,0,0,0,0,0,0,0,0,0,0,0,0,0,0,0,0,0,0],"sum_hessian":[1.08192766E5,4.6235965E4,6.1956805E4,1.8557705E4,2.7678258E4,1.1176427E4,5.078038E4,1.2707356E4,5.8503496E3,2.1697861E4,5.980397E3,8.1208477E3,3.0555789E3,4.7090574E4,3.6898054E3,9.925799E3,2.7815571E3,4.346923E3,1.5034266E3,1.8729209E4,2.9686519E3,2.5829277E3,3.397469E3,6.9747817E3,1.146066E3,1.9784081E3,1.0771707E3,1.9484225E4,2.7606348E4,9.692847E2,2.7205205E3],"tree_param":{"num_deleted":"0","num_feature":"68","num_nodes":"31","size_leaf_vector":"1"}},{"base_weights":[-1.214854E-3,-5.119851E-1,7.3906195E-1,-8.140364E-1,9.201563E-2,1.1206653E0,4.184202E-1,-6.481942E-2,-9.244504E-1,5.032527E-1,-5.297776E-1,1.1640563E0,4.3150616E-1,1.16648056E-1,9.462354E-1,-4.226938E-2,6.305953E-2,-1.0043599E-1,-2.6961809E-2,7.764697E-2,-3.6170278E-2,-7.763844E-2,4.35818E-3,1.1736067E-1,-5.966964E-2,1.1091625E-2,8.970013E-2,6.455671E-2,-1.982148E-2,6.509142E-2,1.12775646E-1],"categories":[],"categories_nodes":[],"categories_segments":[],"categories_sizes":[],"default_left":[0,0,0,0,0,0,0,0,0,0,0,0,0,0,0,0,0,0,0,0,0,0,0,0,0,0,0,0,0,0,0],"id":8,"left_children":[1,3,5,7,9,11,13,15,17,19,21,23,25,27,29,-1,-1,-1,-1,-1,-1,-1,-1,-1,-1,-1,-1,-1,-1,-1,-1],"loss_changes":[3.973677E4,1.1345558E4,5.247627E3,3.4290723E3,5.3034985E3,5.832344E2,3.714441E3,1.3278344E3,1.8892539E3,2.9515164E3,1.1676621E3,3.1332617E2,1.7383614E2,2.4729001E3,4.511079E2,0E0,0E0,0E0,0E0,0E0,0E0,0E0,0E0,0E0,0E0,0E0,0E0,0E0,0E0,0E0,0E0],"parents":[2147483647,0,0,1,1,2,2,3,3,4,4,5,5,6,6,7,7,8,8,9,9,10,10,11,11,12,12,13,13,14,14],"right_children":[2,4,6,8,10,12,14,16,18,20,22,24,26,28,30,-1,-1,-1,-1,-1,-1,-1,-1,-1,-1,-1,-1,-1,-1,-1,-1],"split_conditions":[1E0,1.398493E-4,1E0,-6.182608E-1,4.2815226E-1,9.587054E-3,1E0,1.0456188E-1,1E0,1E0,1.0456188E-1,1.6654901E-1,7.299423E-1,-2.5201622E-1,-4.989142E-3,-4.226938E-2,6.305953E-2,-1.0043599E-1,-2.6961809E-2,7.764697E-2,-3.6170278E-2,-7.763844E-2,4.35818E-3,1.1736067E-1,-5.966964E-2,1.1091625E-2,8.970013E-2,6.455671E-2,-1.982148E-2,6.509142E-2,1.12775646E-1],"split_indices":[24,62,22,4,4,43,19,36,19,51,36,46,67,4,62,0,0,0,0,0,0,0,0,0,0,0,0,0,0,0,0],"split_type":[0,0,0,0,0,0,0,0,0,0,0,0,0,0,0,0,0,0,0,0,0,0,0,0,0,0,0,0,0,0,0],"sum_hessian":[1.05082766E5,6.2181094E4,4.2901668E4,4.145057E4,2.0730523E4,1.9583E4,2.331867E4,5.3250747E3,3.6125496E4,1.2478521E4,8.252001E3,1.8419803E4,1.1631969E3,1.4840114E4,8.478556E3,3.517077E3,1.8079977E3,3.2194164E4,3.931333E3,9.483456E3,2.9950662E3,5.768954E3,2.4830466E3,1.8322092E4,9.771094E1,6.9247546E2,4.7072147E2,5.535728E3,9.304387E3,3.2362866E3,5.2422686E3],"tree_param":{"num_deleted":"0","num_feature":"68","num_nodes":"31","size_leaf_vector":"1"}},{"base_weights":[-1.5961357E-3,6.8552077E-1,-5.154068E-1,3.3026087E-1,1.022778E0,-6.781116E-1,4.147153E-1,8.526566E-1,6.298184E-2,7.3517996E-1,1.1453257E0,-4.2334992E-1,-1.0409198E0,-4.0432346E-1,6.703832E-1,6.414013E-2,1.1222004E-1,-6.972469E-2,2.5383506E-2,8.657465E-2,1.7200366E-2,1.1663278E-1,3.9754484E-2,-1.5865443E-2,-1.0993465E-1,1.0824002E-1,-1.05138175E-1,9.227385E-2,-5.5880208E-2,8.869262E-2,-8.831615E-3],"categories":[],"categories_nodes":[],"categories_segments":[],"categories_sizes":[],"default_left":[0,0,0,0,0,0,0,0,0,0,0,0,0,0,0,0,0,0,0,0,0,0,0,0,0,0,0,0,0,0,0],"id":9,"left_children":[1,3,5,7,9,11,13,15,17,19,21,23,25,27,29,-1,-1,-1,-1,-1,-1,-1,-1,-1,-1,-1,-1,-1,-1,-1,-1],"loss_changes":[3.5959242E4,5.2195156E3,8.820641E3,2.9639446E3,7.836035E2,4.582453E3,1.8188602E3,4.0554395E2,2.0393676E3,4.9138818E2,2.4369922E2,5.2147163E3,4.6015625E2,4.265102E2,1.0874346E3,0E0,0E0,0E0,0E0,0E0,0E0,0E0,0E0,0E0,0E0,0E0,0E0,0E0,0E0,0E0,0E0],"parents":[2147483647,0,0,1,1,2,2,3,3,4,4,5,5,6,6,7,7,8,8,9,9,10,10,11,11,12,12,13,13,14,14],"right_children":[2,4,6,8,10,12,14,16,18,20,22,24,26,28,30,-1,-1,-1,-1,-1,-1,-1,-1,-1,-1,-1,-1,-1,-1,-1,-1],"split_conditions":[1E0,1.34723E-1,6.658399E-1,1E0,8.30991E-1,1E0,1E0,1.8261605E-3,1E0,1E0,4.2815226E-1,1E0,-2.240201E0,-2.5201622E-1,1E0,6.414013E-2,1.1222004E-1,-6.972469E-2,2.5383506E-2,8.657465E-2,1.7200366E-2,1.1663278E-1,3.9754484E-2,-1.5865443E-2,-1.0993465E-1,1.0824002E-1,-1.05138175E-1,9.227385E-2,-5.5880208E-2,8.869262E-2,-8.831615E-3],"split_indices":[23,9,9,22,11,14,12,56,12,14,43,13,43,55,14,0,0,0,0,0,0,0,0,0,0,0,0,0,0,0,0],"split_type":[0,0,0,0,0,0,0,0,0,0,0,0,0,0,0,0,0,0,0,0,0,0,0,0,0,0,0,0,0,0,0],"sum_hessian":[1.0184369E5,4.3572582E4,5.827111E4,2.1224754E4,2.2347826E4,4.9596605E4,8.674504E3,7.1801772E3,1.4044577E4,6.687774E3,1.5660053E4,2.9143238E4,2.045337E4,2.062934E3,6.6115693E3,4.0347976E3,3.1453796E3,2.8156572E3,1.1228919E4,5.4269146E3,1.2608597E3,1.5229519E4,4.305348E2,2.094724E4,8.195998E3,9.7771164E1,2.0355598E4,2.125071E2,1.850427E3,5.142878E3,1.4686914E3],"tree_param":{"num_deleted":"0","num_feature":"68","num_nodes":"31","size_leaf_vector":"1"}},{"base_weights":[-1.5584433E-3,6.3718337E-1,-4.7828314E-1,3.452729E-1,1.0248337E0,-7.4795204E-1,5.3893477E-2,-3.3219375E-2,7.0645565E-1,1.1152784E0,6.755753E-1,-9.138205E-1,-2.7748546E-1,4.2289847E-1,-4.9981618E-1,-3.547586E-2,4.0214177E-2,8.769282E-2,2.2946E-2,1.16520725E-1,7.82675E-2,2.7412692E-2,9.24164E-2,-1.0487032E-2,-9.6688814E-2,1.3298442E-2,-7.367007E-2,-3.6054492E-2,6.7991324E-2,-7.2424024E-2,1.1222623E-3],"categories":[],"categories_nodes":[],"categories_segments":[],"categories_sizes":[],"default_left":[0,0,0,0,0,0,0,0,0,0,0,0,0,0,0,0,0,0,0,0,0,0,0,0,0,0,0,0,0,0,0],"id":10,"left_children":[1,3,5,7,9,11,13,15,17,19,21,23,25,27,29,-1,-1,-1,-1,-1,-1,-1,-1,-1,-1,-1,-1,-1,-1,-1,-1],"loss_changes":[3.0099078E4,4.7785957E3,8.1231855E3,3.2954792E3,5.6937305E2,2.9302383E3,3.891417E3,1.649122E3,1.00201953E3,2.3464258E2,3.724474E2,1.1917188E3,1.8475955E3,2.3024492E3,8.73604E2,0E0,0E0,0E0,0E0,0E0,0E0,0E0,0E0,0E0,0E0,0E0,0E0,0E0,0E0,0E0,0E0],"parents":[2147483647,0,0,1,1,2,2,3,3,4,4,5,5,6,6,7,7,8,8,9,9,10,10,11,11,12,12,13,13,14,14],"right_children":[2,4,6,8,10,12,14,16,18,20,22,24,26,28,30,-1,-1,-1,-1,-1,-1,-1,-1,-1,-1,-1,-1,-1,-1,-1,-1],"split_conditions":[1E0,1.8261605E-3,1.1071551E0,2.1936375E-4,4.2815226E-1,1.0456188E-1,4.2815226E-1,1.0456188E-1,4.2815226E-1,1E0,1.1071551E0,-1.1414673E0,4.2815226E-1,1E0,1.0456188E-1,-3.547586E-2,4.0214177E-2,8.769282E-2,2.2946E-2,1.16520725E-1,7.82675E-2,2.7412692E-2,9.24164E-2,-1.0487032E-2,-9.6688814E-2,1.3298442E-2,-7.367007E-2,-3.6054492E-2,6.7991324E-2,-7.2424024E-2,1.1222623E-3],"split_indices":[23,56,0,62,4,36,4,36,4,14,0,4,4,12,36,0,0,0,0,0,0,0,0,0,0,0,0,0,0,0,0],"split_type":[0,0,0,0,0,0,0,0,0,0,0,0,0,0,0,0,0,0,0,0,0,0,0,0,0,0,0,0,0,0,0],"sum_hessian":[9.883624E4,4.2239617E4,5.659663E4,2.4100664E4,1.8138953E4,3.7561254E4,1.9035375E4,1.1770553E4,1.2330111E4,1.4399154E4,3.7397983E3,2.7766975E4,9.794279E3,1.1423602E4,7.611773E3,6.7708306E3,4.999722E3,9.080615E3,3.2494956E3,1.2508862E4,1.8902915E3,1.4342026E3,2.3055957E3,1.7103103E3,2.6056664E4,5.173497E3,4.620782E3,2.821369E3,8.602232E3,5.2876157E3,2.3241567E3],"tree_param":{"num_deleted":"0","num_feature":"68","num_nodes":"31","size_leaf_vector":"1"}},{"base_weights":[-3.1434793E-3,-3.6874828E-1,7.9112446E-1,2.2961296E-1,-6.086653E-1,8.84196E-1,-1.2939124E-1,4.5721218E-1,-6.101722E-1,-8.1346875E-1,-1.2984954E-1,9.5321184E-1,-8.6005345E-2,-4.4495946E-1,3.3832067E-1,6.3541815E-2,-6.535014E-2,1.1571076E-1,-6.720003E-2,-9.570521E-2,-4.76969E-2,1.1176302E-2,-8.221638E-2,9.922203E-2,-7.0221595E-2,-5.2182343E-2,4.0271934E-2,-6.269635E-2,3.40919E-2,2.0351347E-4,7.244012E-2],"categories":[],"categories_nodes":[],"categories_segments":[],"categories_sizes":[],"default_left":[0,0,0,0,0,0,0,0,0,0,0,0,0,0,0,0,0,0,0,0,0,0,0,0,0,0,0,0,0,0,0],"id":11,"left_children":[1,3,5,7,9,11,13,15,17,19,21,23,25,27,29,-1,-1,-1,-1,-1,-1,-1,-1,-1,-1,-1,-1,-1,-1,-1,-1],"loss_changes":[2.7835623E4,9.423999E3,2.5892148E3,3.5928818E3,4.59433E3,1.8378535E3,4.10894E2,2.9288618E3,4.4192175E2,1.5833301E3,2.349532E3,1.6578652E3,3.9019214E2,2.387114E2,1.457144E2,0E0,0E0,0E0,0E0,0E0,0E0,0E0,0E0,0E0,0E0,0E0,0E0,0E0,0E0,0E0,0E0],"parents":[2147483647,0,0,1,1,2,2,3,3,4,4,5,5,6,6,7,7,8,8,9,9,10,10,11,11,12,12,13,13,14,14],"right_children":[2,4,6,8,10,12,14,16,18,20,22,24,26,28,30,-1,-1,-1,-1,-1,-1,-1,-1,-1,-1,-1,-1,-1,-1,-1,-1],"split_conditions":[8.30991E-1,-2.5201622E-1,9.587054E-3,1E0,1.0456188E-1,1E0,1.0456188E-1,1E0,-2.240201E0,1.1071551E0,1E0,1E0,1.1071551E0,6.026787E-1,1.5665617E-2,6.3541815E-2,-6.535014E-2,1.1571076E-1,-6.720003E-2,-9.570521E-2,-4.76969E-2,1.1176302E-2,-8.221638E-2,9.922203E-2,-7.0221595E-2,-5.2182343E-2,4.0271934E-2,-6.269635E-2,3.40919E-2,2.0351347E-4,7.244012E-2],"split_indices":[11,4,43,51,36,13,36,13,4,0,51,15,0,65,62,0,0,0,0,0,0,0,0,0,0,0,0,0,0,0,0],"split_type":[0,0,0,0,0,0,0,0,0,0,0,0,0,0,0,0,0,0,0,0,0,0,0,0,0,0,0,0,0,0,0],"sum_hessian":[9.5846586E4,6.563651E4,3.0210078E4,1.8785371E4,4.685114E4,2.7436248E4,2.773829E3,1.4781544E4,4.0038274E3,3.28127E4,1.4038442E4,2.5614252E4,1.8219972E3,1.6564529E3,1.1173761E3,1.2739692E4,2.0418514E3,1.3234439E2,3.871483E3,2.2992607E4,9.820091E3,1.040972E4,3.6287224E3,2.5026531E4,5.8772034E2,9.629512E2,8.590461E2,1.3457886E3,3.1066428E2,5.9988666E2,5.174895E2],"tree_param":{"num_deleted":"0","num_feature":"68","num_nodes":"31","size_leaf_vector":"1"}},{"base_weights":[-2.0185248E-3,5.614125E-1,-4.2092273E-1,9.470864E-1,2.7401114E-1,3.5025564E-1,-6.071585E-1,1.0372001E0,5.9806097E-1,4.6712843E-1,-3.2851616E-1,-4.3417493E-1,6.1908704E-1,-7.8827924E-1,-1.509834E-1,1.09139696E-1,6.9135725E-2,3.2244503E-2,9.122783E-2,6.0433924E-2,-5.7646513E-2,-4.87622E-2,4.1094687E-2,-6.283212E-2,4.4776123E-2,8.909967E-2,3.2500129E-3,-1.573598E-2,-8.611553E-2,2.0530017E-2,-5.912317E-2],"categories":[],"categories_nodes":[],"categories_segments":[],"categories_sizes":[],"default_left":[0,0,0,0,0,0,0,0,0,0,0,0,0,0,0,0,0,0,0,0,0,0,0,0,0,0,0,0,0,0,0],"id":12,"left_children":[1,3,5,7,9,11,13,15,17,19,21,23,25,27,29,-1,-1,-1,-1,-1,-1,-1,-1,-1,-1,-1,-1,-1,-1,-1,-1],"loss_changes":[2.1965812E4,4.3977217E3,7.6674463E3,5.298252E2,2.6476567E3,2.1916414E3,3.552004E3,2.4852246E2,3.0067456E2,2.4687305E3,6.509418E2,4.558288E2,1.2339812E3,1.4143965E3,1.918333E3,0E0,0E0,0E0,0E0,0E0,0E0,0E0,0E0,0E0,0E0,0E0,0E0,0E0,0E0,0E0,0E0],"parents":[2147483647,0,0,1,1,2,2,3,3,4,4,5,5,6,6,7,7,8,8,9,9,10,10,11,11,12,12,13,13,14,14],"right_children":[2,4,6,8,10,12,14,16,18,20,22,24,26,28,30,-1,-1,-1,-1,-1,-1,-1,-1,-1,-1,-1,-1,-1,-1,-1,-1],"split_conditions":[1E0,1E0,1E0,4.2815226E-1,9.19116E-5,1E0,1.0456188E-1,9.19116E-5,5.8176345E-1,1E0,9.1045487E-1,1E0,4.2815226E-1,-7.752227E-1,4.2815226E-1,1.09139696E-1,6.9135725E-2,3.2244503E-2,9.122783E-2,6.0433924E-2,-5.7646513E-2,-4.87622E-2,4.1094687E-2,-6.283212E-2,4.4776123E-2,8.909967E-2,3.2500129E-3,-1.573598E-2,-8.611553E-2,2.0530017E-2,-5.912317E-2],"split_indices":[23,22,22,4,44,12,36,44,67,13,61,19,4,4,4,0,0,0,0,0,0,0,0,0,0,0,0,0,0,0,0],"split_type":[0,0,0,0,0,0,0,0,0,0,0,0,0,0,0,0,0,0,0,0,0,0,0,0,0,0,0,0,0,0,0],"sum_hessian":[9.305616E4,3.968187E4,5.337428E4,1.6939154E4,2.2742719E4,1.0381484E4,4.2992797E4,1.34553125E4,3.4838416E3,1.72235E4,5.5192173E3,2.6489539E3,7.7325303E3,3.077155E4,1.2221246E4,1.1623086E4,1.8322266E3,1.861317E3,1.6225245E3,1.5223971E4,1.9995303E3,4.543354E3,9.758633E2,2.1722092E3,4.7674448E2,5.281651E3,2.4508794E3,3.1879458E3,2.7583605E4,6.7562363E3,5.46501E3],"tree_param":{"num_deleted":"0","num_feature":"68","num_nodes":"31","size_leaf_vector":"1"}},{"base_weights":[-5.422813E-4,-3.184167E-1,7.0548576E-1,-5.8748275E-1,1.409158E-1,4.0462562E-1,9.707439E-1,-9.574249E-1,-3.7917703E-1,-5.185519E-1,3.6191833E-1,-3.3057535E-1,5.6621164E-1,1.0069141E0,2.9315385E-1,-9.703553E-2,6.0243823E-2,-1.2905982E-2,-8.06727E-2,-6.356081E-2,2.4720903E-2,5.1018156E-2,-4.80465E-2,5.092736E-2,-4.7966633E-2,7.171445E-2,3.4698823E-3,1.0238632E-1,6.7544393E-3,-2.2986857E-2,5.475053E-2],"categories":[],"categories_nodes":[],"categories_segments":[],"categories_sizes":[],"default_left":[0,0,0,0,0,0,0,0,0,0,0,0,0,0,0,0,0,0,0,0,0,0,0,0,0,0,0,0,0,0,0],"id":13,"left_children":[1,3,5,7,9,11,13,15,17,19,21,23,25,27,29,-1,-1,-1,-1,-1,-1,-1,-1,-1,-1,-1,-1,-1,-1,-1,-1],"loss_changes":[2.0282312E4,7.702162E3,2.2371182E3,3.02654E3,3.3564587E3,1.5636931E3,3.63875E2,2.8839062E2,2.6889404E3,5.189812E2,2.1553235E3,2.9840622E2,8.651824E2,2.2493457E2,1.02062485E2,0E0,0E0,0E0,0E0,0E0,0E0,0E0,0E0,0E0,0E0,0E0,0E0,0E0,0E0,0E0,0E0],"parents":[2147483647,0,0,1,1,2,2,3,3,4,4,5,5,6,6,7,7,8,8,9,9,10,10,11,11,12,12,13,13,14,14],"right_children":[2,4,6,8,10,12,14,16,18,20,22,24,26,28,30,-1,-1,-1,-1,-1,-1,-1,-1,-1,-1,-1,-1,-1,-1,-1,-1],"split_conditions":[8.30991E-1,1.1071551E0,1.772324E-1,1E0,1E0,1E0,2.1886967E-1,5.018501E0,1E0,1.1008588E0,9.587054E-3,-3.566575E-1,1E0,2.7119032E-1,1.2464097E0,-9.703553E-2,6.0243823E-2,-1.2905982E-2,-8.06727E-2,-6.356081E-2,2.4720903E-2,5.1018156E-2,-4.80465E-2,5.092736E-2,-4.7966633E-2,7.171445E-2,3.4698823E-3,1.0238632E-1,6.7544393E-3,-2.2986857E-2,5.475053E-2],"split_indices":[11,0,9,12,12,12,43,28,14,9,43,55,14,40,67,0,0,0,0,0,0,0,0,0,0,0,0,0,0,0,0],"split_type":[0,0,0,0,0,0,0,0,0,0,0,0,0,0,0,0,0,0,0,0,0,0,0,0,0,0,0,0,0,0,0],"sum_hessian":[9.036325E4,6.2311523E4,2.8051723E4,3.9293145E4,2.301838E4,1.3149721E4,1.4902003E4,1.4148328E4,2.5144816E4,5.7760415E3,1.724234E4,2.3684172E3,1.0781303E4,1.4144527E4,7.574752E2,1.4033885E4,1.1444314E2,1.5868332E4,9.276483E3,5.0109106E3,7.65131E2,1.4663474E4,2.5788652E3,3.552377E2,2.0131796E3,8.395499E3,2.3858037E3,1.3893398E4,2.511292E2,2.4799818E2,5.0947705E2],"tree_param":{"num_deleted":"0","num_feature":"68","num_nodes":"31","size_leaf_vector":"1"}},{"base_weights":[-4.933332E-4,-5.391531E-1,3.7052384E-1,-7.0274405E-2,-7.023402E-1,4.7929842E-2,7.8878164E-1,-3.3536747E-1,4.0822774E-1,-5.250269E-1,-9.6182644E-1,-5.90623E-1,2.4951631E-1,8.9602333E-1,2.7630755E-1,1.2207154E-1,-4.1066784E-2,7.27971E-2,3.0561527E-3,-3.241635E-2,-1.0294858E-1,-1.0290506E-1,-7.5663954E-2,1.8462136E-2,-7.053874E-2,4.5290243E-2,-3.0736336E-2,9.324116E-2,-6.984134E-2,-2.9888484E-3,6.504053E-2],"categories":[],"categories_nodes":[],"categories_segments":[],"categories_sizes":[],"default_left":[0,0,0,0,0,0,0,0,0,0,0,0,0,0,0,0,0,0,0,0,0,0,0,0,0,0,0,0,0,0,0],"id":14,"left_children":[1,3,5,7,9,11,13,15,17,19,21,23,25,27,29,-1,-1,-1,-1,-1,-1,-1,-1,-1,-1,-1,-1,-1,-1,-1,-1],"loss_changes":[1.757612E4,2.7442793E3,7.026362E3,1.1760891E3,1.2217148E3,3.785959E3,1.2449854E3,7.015144E2,3.990724E2,1.601103E3,1.4500977E2,6.285364E2,2.5324973E3,1.0910762E3,4.5041153E2,0E0,0E0,0E0,0E0,0E0,0E0,0E0,0E0,0E0,0E0,0E0,0E0,0E0,0E0,0E0,0E0],"parents":[2147483647,0,0,1,1,2,2,3,3,4,4,5,5,6,6,7,7,8,8,9,9,10,10,11,11,12,12,13,13,14,14],"right_children":[2,4,6,8,10,12,14,16,18,20,22,24,26,28,30,-1,-1,-1,-1,-1,-1,-1,-1,-1,-1,-1,-1,-1,-1,-1,-1],"split_conditions":[6.822295E-2,-2.5201622E-1,1.8284127E-1,1.0456188E-1,1E0,1E0,1E0,-2.240201E0,4.6862474E-1,9.19116E-5,1.0456188E-1,-8.275434E-1,1E0,1E0,1.0456188E-1,1.2207154E-1,-4.1066784E-2,7.27971E-2,3.0561527E-3,-3.241635E-2,-1.0294858E-1,-1.0290506E-1,-7.5663954E-2,1.8462136E-2,-7.053874E-2,4.5290243E-2,-3.0736336E-2,9.324116E-2,-6.984134E-2,-2.9888484E-3,6.504053E-2],"split_indices":[11,4,9,36,14,12,14,4,33,41,36,4,14,15,36,0,0,0,0,0,0,0,0,0,0,0,0,0,0,0,0],"split_type":[0,0,0,0,0,0,0,0,0,0,0,0,0,0,0,0,0,0,0,0,0,0,0,0,0,0,0,0,0,0,0],"sum_hessian":[8.7935664E4,3.586416E4,5.2071504E4,9.261273E3,2.6602887E4,2.940081E4,2.2670691E4,5.9605747E3,3.3006987E3,1.5812758E4,1.0790128E4,7.052236E3,2.2348576E4,1.8744438E4,3.9262544E3,2.7161392E2,5.688961E3,1.7849069E3,1.5157919E3,1.1315437E4,4.4973213E3,8.112275E3,2.677853E3,9.0897516E2,6.1432603E3,1.6370574E4,5.978001E3,1.8328227E4,4.1621118E2,2.1616013E3,1.764653E3],"tree_param":{"num_deleted":"0","num_feature":"68","num_nodes":"31","size_leaf_vector":"1"}},{"base_weights":[-3.2192061E-3,-2.5776064E-1,6.8037546E-1,-6.1204027E-2,-8.493901E-1,7.760434E-1,-2.8043187E-1,1.14409834E-1,-8.600711E-1,-8.831099E-1,-2.4755716E-2,8.5033685E-1,-1.7306235E-1,-5.1326716E-1,3.4402883E-1,2.436832E-2,-1.1816368E-1,-3.6793128E-2,-9.398057E-2,-9.642455E-2,-6.450976E-2,-3.1748768E-2,5.0832193E-2,8.9797005E-2,-8.035466E-2,-4.424268E-2,5.1429566E-2,1.439088E-2,-6.625063E-2,9.304706E-2,1.3769229E-2],"categories":[],"categories_nodes":[],"categories_segments":[],"categories_sizes":[],"default_left":[0,0,0,0,0,0,0,0,0,0,0,0,0,0,0,0,0,0,0,0,0,0,0,0,0,0,0,0,0,0,0],"id":15,"left_children":[1,3,5,7,9,11,13,15,17,19,21,23,25,27,29,-1,-1,-1,-1,-1,-1,-1,-1,-1,-1,-1,-1,-1,-1,-1,-1],"loss_changes":[1.4909636E4,7.2604634E3,2.1380938E3,6.576263E3,4.3283984E2,1.4917158E3,3.0751718E2,6.4400776E3,3.2975635E2,2.8575293E2,9.70585E1,1.54854E3,2.8611447E2,1.5133618E2,6.903004E1,0E0,0E0,0E0,0E0,0E0,0E0,0E0,0E0,0E0,0E0,0E0,0E0,0E0,0E0,0E0,0E0],"parents":[2147483647,0,0,1,1,2,2,3,3,4,4,5,5,6,6,7,7,8,8,9,9,10,10,11,11,12,12,13,13,14,14],"right_children":[2,4,6,8,10,12,14,16,18,20,22,24,26,28,30,-1,-1,-1,-1,-1,-1,-1,-1,-1,-1,-1,-1,-1,-1,-1,-1],"split_conditions":[1E0,1E0,1E0,9.19116E-5,1.1345224E0,9.19116E-5,3.72505E-1,1E0,-6.182608E-1,1.0456188E-1,1.0456188E-1,1E0,1.0196798E-1,1E0,-8.275434E-1,2.436832E-2,-1.1816368E-1,-3.6793128E-2,-9.398057E-2,-9.642455E-2,-6.450976E-2,-3.1748768E-2,5.0832193E-2,8.9797005E-2,-8.035466E-2,-4.424268E-2,5.1429566E-2,1.439088E-2,-6.625063E-2,9.304706E-2,1.3769229E-2],"split_indices":[19,51,51,41,9,41,9,15,4,36,36,15,64,22,4,0,0,0,0,0,0,0,0,0,0,0,0,0,0,0,0],"split_type":[0,0,0,0,0,0,0,0,0,0,0,0,0,0,0,0,0,0,0,0,0,0,0,0,0,0,0,0,0,0,0],"sum_hessian":[8.567597E4,6.243205E4,2.3243914E4,4.6866984E4,1.5565067E4,2.113996E4,2.103953E3,3.842447E4,8.442515E3,1.4953264E4,6.118041E2,1.9605793E4,1.5341687E3,1.5331832E3,5.7076953E2,3.494315E4,3.4813223E3,1.181027E3,7.261488E3,1.1140384E4,3.8128794E3,3.9623785E2,2.1556622E2,1.9059158E4,5.4663354E2,1.1035048E3,4.3066394E2,2.837715E2,1.2494117E3,1.4398721E2,4.2678232E2],"tree_param":{"num_deleted":"0","num_feature":"68","num_nodes":"31","size_leaf_vector":"1"}},{"base_weights":[-1.8884607E-3,-2.690024E-1,6.048932E-1,-5.145588E-1,1.3576871E-1,2.6728323E-1,8.393115E-1,-8.739649E-1,-3.2612535E-1,-4.366772E-1,3.2134122E-1,-3.792893E-1,4.121848E-1,4.050973E-1,9.0008974E-1,-7.056666E-2,-9.854871E-2,-1.5133156E-2,-7.922012E-2,-1.6064253E-2,-7.3235154E-2,4.5481283E-2,-3.2709673E-2,-4.8158314E-2,4.4889014E-2,5.600316E-2,-7.2471793E-3,5.6241345E-2,-1.7732235E-2,9.154056E-2,-1.2929431E-2],"categories":[],"categories_nodes":[],"categories_segments":[],"categories_sizes":[],"default_left":[0,0,0,0,0,0,0,0,0,0,0,0,0,0,0,0,0,0,0,0,0,0,0,0,0,0,0,0,0,0,0],"id":16,"left_children":[1,3,5,7,9,11,13,15,17,19,21,23,25,27,29,-1,-1,-1,-1,-1,-1,-1,-1,-1,-1,-1,-1,-1,-1,-1,-1],"loss_changes":[1.3546438E4,5.7684067E3,2.0206875E3,2.444834E3,2.32887E3,9.8230774E2,3.9602344E2,2.2965332E2,1.9305667E3,4.3748743E2,1.4334396E3,1.6378964E2,6.136251E2,1.7093057E2,2.0901758E2,0E0,0E0,0E0,0E0,0E0,0E0,0E0,0E0,0E0,0E0,0E0,0E0,0E0,0E0,0E0,0E0],"parents":[2147483647,0,0,1,1,2,2,3,3,4,4,5,5,6,6,7,7,8,8,9,9,10,10,11,11,12,12,13,13,14,14],"right_children":[2,4,6,8,10,12,14,16,18,20,22,24,26,28,30,-1,-1,-1,-1,-1,-1,-1,-1,-1,-1,-1,-1,-1,-1,-1,-1],"split_conditions":[8.30991E-1,1.1071551E0,1.1071551E0,1E0,1E0,1E0,1E0,1.6557833E-2,1E0,1.3767755E-1,1E0,1E0,1E0,1E0,4.2815226E-1,-7.056666E-2,-9.854871E-2,-1.5133156E-2,-7.922012E-2,-1.6064253E-2,-7.3235154E-2,4.5481283E-2,-3.2709673E-2,-4.8158314E-2,4.4889014E-2,5.600316E-2,-7.2471793E-3,5.6241345E-2,-1.7732235E-2,9.154056E-2,-1.2929431E-2],"split_indices":[11,0,0,12,12,12,12,6,51,6,51,21,14,14,40,0,0,0,0,0,0,0,0,0,0,0,0,0,0,0,0],"split_type":[0,0,0,0,0,0,0,0,0,0,0,0,0,0,0,0,0,0,0,0,0,0,0,0,0,0,0,0,0,0,0],"sum_hessian":[8.356878E4,5.8027176E4,2.5541607E4,3.6115918E4,2.1911258E4,1.0471384E4,1.5070223E4,1.2416079E4,2.369984E4,5.362497E3,1.654876E4,1.9156006E3,8.555783E3,1.8551227E3,1.32151E4,4.9630186E3,7.4530605E3,1.7240652E4,6.459188E3,2.7773472E3,2.5851497E3,1.3725133E4,2.823628E3,1.7068668E3,2.0873372E2,6.5552856E3,2.0004979E3,1.4607375E3,3.943851E2,1.3021905E4,1.9319472E2],"tree_param":{"num_deleted":"0","num_feature":"68","num_nodes":"31","size_leaf_vector":"1"}},{"base_weights":[-3.3005034E-3,5.9087354E-1,-2.4207492E-1,7.853263E-1,7.9508245E-2,4.0787566E-2,-6.2107897E-1,5.918607E-1,1.0294776E0,-1.5818092E-1,6.33098E-1,2.0289189E-1,-6.2425286E-1,-6.87442E-1,2.304573E-1,7.290592E-2,9.47317E-3,7.629387E-2,1.060841E-1,-4.1194655E-2,2.6254406E-2,7.097704E-2,-2.1287197E-2,3.4736756E-2,-6.334659E-2,-7.602572E-2,-2.8607333E-2,-8.1885874E-2,-3.8586076E-2,3.0100936E-2,-9.587965E-2],"categories":[],"categories_nodes":[],"categories_segments":[],"categories_sizes":[],"default_left":[0,0,0,0,0,0,0,0,0,0,0,0,0,0,0,0,0,0,0,0,0,0,0,0,0,0,0,0,0,0,0],"id":17,"left_children":[1,3,5,7,9,11,13,15,17,19,21,23,25,27,29,-1,-1,-1,-1,-1,-1,-1,-1,-1,-1,-1,-1,-1,-1,-1,-1],"loss_changes":[1.155567E4,2.3214023E3,6.2289795E3,7.9595996E2,8.4764575E2,3.5879202E3,1.4040215E3,6.441384E2,5.8411133E1,4.8186246E2,1.2625964E2,3.2343413E3,2.989104E2,9.114512E2,1.523883E2,0E0,0E0,0E0,0E0,0E0,0E0,0E0,0E0,0E0,0E0,0E0,0E0,0E0,0E0,0E0,0E0],"parents":[2147483647,0,0,1,1,2,2,3,3,4,4,5,5,6,6,7,7,8,8,9,9,10,10,11,11,12,12,13,13,14,14],"right_children":[2,4,6,8,10,12,14,16,18,20,22,24,26,28,30,-1,-1,-1,-1,-1,-1,-1,-1,-1,-1,-1,-1,-1,-1,-1,-1],"split_conditions":[1E0,4.2815226E-1,4.2815226E-1,1.8261605E-3,1E0,1E0,1.1071551E0,9.19116E-5,1E0,1.0456188E-1,1E0,1E0,1.0456188E-1,1.0456188E-1,1.4222447E0,7.290592E-2,9.47317E-3,7.629387E-2,1.060841E-1,-4.1194655E-2,2.6254406E-2,7.097704E-2,-2.1287197E-2,3.4736756E-2,-6.334659E-2,-7.602572E-2,-2.8607333E-2,-8.1885874E-2,-3.8586076E-2,3.0100936E-2,-9.587965E-2],"split_indices":[22,4,4,56,19,51,58,44,12,36,51,13,36,36,4,0,0,0,0,0,0,0,0,0,0,0,0,0,0,0,0],"split_type":[0,0,0,0,0,0,0,0,0,0,0,0,0,0,0,0,0,0,0,0,0,0,0,0,0,0,0,0,0,0,0],"sum_hessian":[8.1440445E4,2.3343742E4,5.8096703E4,1.6910604E4,6.433138E3,3.3270418E4,2.4826283E4,9.444163E3,7.466441E3,4.503212E3,1.9299266E3,2.6752855E4,6.517563E3,2.3032266E4,1.7940176E3,7.3996597E3,2.0445033E3,7.994041E2,6.6670366E3,2.80902E3,1.6941918E3,1.7702861E3,1.596405E2,2.2814684E4,3.9381729E3,4.6437603E3,1.873803E3,1.6035902E4,6.9963643E3,1.6970737E3,9.6943794E1],"tree_param":{"num_deleted":"0","num_feature":"68","num_nodes":"31","size_leaf_vector":"1"}},{"base_weights":[-1.0066772E-3,-2.1513936E-1,5.925133E-1,4.1361353E-1,-3.686834E-1,7.6711196E-1,1.3188028E-1,7.031359E-1,6.0478635E-2,1.2278534E-2,-5.588272E-1,9.913275E-1,5.736878E-1,-8.434551E-2,5.964401E-1,1.1848908E-1,5.5847425E-2,2.6707038E-2,-4.2335324E-2,-1.5787743E-2,4.7578093E-2,-7.02781E-2,-2.2407718E-2,9.9878594E-2,-4.4292804E-2,6.135716E-2,-8.751523E-2,-3.3197235E-2,2.7554473E-2,1.452614E-3,6.956234E-2],"categories":[],"categories_nodes":[],"categories_segments":[],"categories_sizes":[],"default_left":[0,0,0,0,0,0,0,0,0,0,0,0,0,0,0,0,0,0,0,0,0,0,0,0,0,0,0,0,0,0,0],"id":18,"left_children":[1,3,5,7,9,11,13,15,17,19,21,23,25,27,29,-1,-1,-1,-1,-1,-1,-1,-1,-1,-1,-1,-1,-1,-1,-1,-1],"loss_changes":[1.0099333E4,5.638409E3,1.6939429E3,1.1718702E3,3.4000557E3,6.596826E2,5.825465E2,4.356704E2,5.1734503E2,1.2332494E3,1.507999E3,7.782324E1,4.7729297E2,3.533752E2,1.0624982E2,0E0,0E0,0E0,0E0,0E0,0E0,0E0,0E0,0E0,0E0,0E0,0E0,0E0,0E0,0E0,0E0],"parents":[2147483647,0,0,1,1,2,2,3,3,4,4,5,5,6,6,7,7,8,8,9,9,10,10,11,11,12,12,13,13,14,14],"right_children":[2,4,6,8,10,12,14,16,18,20,22,24,26,28,30,-1,-1,-1,-1,-1,-1,-1,-1,-1,-1,-1,-1,-1,-1,-1,-1],"split_conditions":[1E0,-6.182608E-1,4.2815226E-1,3.453586E-1,1E0,1E0,7.957214E-1,-2.1878803E0,1E0,1.0196798E-1,1.0456188E-1,1E0,9.19116E-5,1.0456188E-1,1E0,1.1848908E-1,5.5847425E-2,2.6707038E-2,-4.2335324E-2,-1.5787743E-2,4.7578093E-2,-7.02781E-2,-2.2407718E-2,9.9878594E-2,-4.4292804E-2,6.135716E-2,-8.751523E-2,-3.3197235E-2,2.7554473E-2,1.452614E-3,6.956234E-2],"split_indices":[19,4,4,33,23,22,67,4,14,64,36,53,47,36,12,0,0,0,0,0,0,0,0,0,0,0,0,0,0,0,0],"split_type":[0,0,0,0,0,0,0,0,0,0,0,0,0,0,0,0,0,0,0,0,0,0,0,0,0,0,0,0,0,0,0],"sum_hessian":[7.94547E4,5.839125E4,2.1063455E4,1.1458983E4,4.6932266E4,1.5271581E4,5.791875E3,6.2938945E3,5.165089E3,1.5627176E4,3.130509E4,7.063273E3,8.208308E3,3.9550974E3,1.8367777E3,1.4451791E3,4.848716E3,3.621137E3,1.543952E3,1.14332295E4,4.193946E3,2.1887314E4,9.417774E3,7.0282427E3,3.503013E1,7.9912075E3,2.1710017E2,2.3432107E3,1.6118866E3,2.6831143E2,1.5684662E3],"tree_param":{"num_deleted":"0","num_feature":"68","num_nodes":"31","size_leaf_vector":"1"}},{"base_weights":[-2.5844334E-3,-2.2609584E-1,5.138566E-1,-6.698792E-2,-7.6327425E-1,5.1967364E-2,6.842759E-1,8.227864E-2,-7.806261E-1,-4.5672378E-1,-8.485613E-1,-1.7224368E-1,5.114439E-1,7.910612E-1,2.5400037E-1,1.9827306E-2,-1.12994336E-1,-4.6724714E-2,-8.8899314E-2,8.8310555E-2,-5.045414E-2,-1.0000207E-1,-7.414534E-2,-3.6336396E-2,1.5343541E-2,2.7756054E-2,8.162083E-2,8.718634E-2,3.831953E-2,-6.313366E-3,4.9372543E-2],"categories":[],"categories_nodes":[],"categories_segments":[],"categories_sizes":[],"default_left":[0,0,0,0,0,0,0,0,0,0,0,0,0,0,0,0,0,0,0,0,0,0,0,0,0,0,0,0,0,0,0],"id":19,"left_children":[1,3,5,7,9,11,13,15,17,19,21,23,25,27,29,-1,-1,-1,-1,-1,-1,-1,-1,-1,-1,-1,-1,-1,-1,-1,-1],"loss_changes":[8.947692E3,4.623742E3,1.8428984E3,4.446998E3,3.2126807E2,6.511227E2,7.8485156E2,4.8560874E3,2.431626E2,1.7531018E2,1.5309229E2,2.647226E2,1.4659955E2,4.498457E2,2.592567E2,0E0,0E0,0E0,0E0,0E0,0E0,0E0,0E0,0E0,0E0,0E0,0E0,0E0,0E0,0E0,0E0],"parents":[2147483647,0,0,1,1,2,2,3,3,4,4,5,5,6,6,7,7,8,8,9,9,10,10,11,11,12,12,13,13,14,14],"right_children":[2,4,6,8,10,12,14,16,18,20,22,24,26,28,30,-1,-1,-1,-1,-1,-1,-1,-1,-1,-1,-1,-1,-1,-1,-1,-1],"split_conditions":[3.72505E-1,1E0,6.822295E-2,1E0,-2.5201622E-1,1.1345224E0,4.8047292E-1,1E0,1E0,-2.240201E0,1E0,1.0456188E-1,1.0456188E-1,1E0,1.5171723E0,1.9827306E-2,-1.12994336E-1,-4.6724714E-2,-8.8899314E-2,8.8310555E-2,-5.045414E-2,-1.0000207E-1,-7.414534E-2,-3.6336396E-2,1.5343541E-2,2.7756054E-2,8.162083E-2,8.718634E-2,3.831953E-2,-6.313366E-3,4.9372543E-2],"split_indices":[9,51,11,13,4,9,4,15,49,4,38,36,36,14,67,0,0,0,0,0,0,0,0,0,0,0,0,0,0,0,0],"split_type":[0,0,0,0,0,0,0,0,0,0,0,0,0,0,0,0,0,0,0,0,0,0,0,0,0,0,0,0,0,0,0],"sum_hessian":[7.7505836E4,5.4096242E4,2.3409594E4,4.1739086E4,1.2357157E4,6.311094E3,1.70985E4,3.4522656E4,7.216431E3,2.696566E3,9.660592E3,4.2435107E3,2.067583E3,1.3695398E4,3.4031018E3,3.1511574E4,3.0110798E3,1.8610758E3,5.3553555E3,8.9912575E1,2.6066536E3,3.9844993E3,5.6760923E3,2.6738313E3,1.5696796E3,1.1752343E3,8.923488E2,1.1426093E4,2.2693054E3,1.4666041E3,1.9364978E3],"tree_param":{"num_deleted":"0","num_feature":"68","num_nodes":"31","size_leaf_vector":"1"}},{"base_weights":[-3.7003374E-3,5.2728873E-1,-2.116721E-1,2.2234151E-1,7.5759906E-1,-3.5422412E-1,3.1818897E-1,3.412677E-1,-4.541394E-1,6.006629E-1,9.501281E-1,-2.164201E-1,-7.71961E-1,5.2163184E-1,-9.529936E-2,4.6188638E-2,-5.8066215E-2,-8.252006E-2,-2.5684476E-2,4.665782E-2,9.219057E-2,9.812183E-2,5.110407E-2,-8.309511E-3,-7.9007804E-2,-9.4442494E-2,-6.555419E-2,6.5055005E-2,5.0496417E-3,2.3287698E-3,-6.814738E-2],"categories":[],"categories_nodes":[],"categories_segments":[],"categories_sizes":[],"default_left":[0,0,0,0,0,0,0,0,0,0,0,0,0,0,0,0,0,0,0,0,0,0,0,0,0,0,0,0,0,0,0],"id":20,"left_children":[1,3,5,7,9,11,13,15,17,19,21,23,25,27,29,-1,-1,-1,-1,-1,-1,-1,-1,-1,-1,-1,-1,-1,-1,-1,-1],"loss_changes":[8.351646E3,1.4940278E3,4.105261E3,7.3814325E2,3.6347656E2,2.4644116E3,9.6961523E2,8.684804E2,9.94202E1,2.8614697E2,7.170215E1,2.4631045E3,2.1015234E2,4.6898608E2,2.6452423E2,0E0,0E0,0E0,0E0,0E0,0E0,0E0,0E0,0E0,0E0,0E0,0E0,0E0,0E0,0E0,0E0],"parents":[2147483647,0,0,1,1,2,2,3,3,4,4,5,5,6,6,7,7,8,8,9,9,10,10,11,11,12,12,13,13,14,14],"right_children":[2,4,6,8,10,12,14,16,18,20,22,24,26,28,30,-1,-1,-1,-1,-1,-1,-1,-1,-1,-1,-1,-1,-1,-1,-1,-1],"split_conditions":[1E0,1.1071551E0,1.8261605E-3,1E0,1.8261605E-3,1E0,4.2815226E-1,1E0,1E0,1E0,9.513588E-1,1E0,1E0,1E0,1E0,4.6188638E-2,-5.8066215E-2,-8.252006E-2,-2.5684476E-2,4.665782E-2,9.219057E-2,9.812183E-2,5.110407E-2,-8.309511E-3,-7.9007804E-2,-9.4442494E-2,-6.555419E-2,6.5055005E-2,5.0496417E-3,2.3287698E-3,-6.814738E-2],"split_indices":[22,0,56,51,56,51,55,13,38,21,55,13,38,14,51,0,0,0,0,0,0,0,0,0,0,0,0,0,0,0,0],"split_type":[0,0,0,0,0,0,0,0,0,0,0,0,0,0,0,0,0,0,0,0,0,0,0,0,0,0,0,0,0,0,0],"sum_hessian":[7.561787E4,2.1279592E4,5.4338277E4,9.160398E3,1.2119192E4,4.2819832E4,1.1518444E4,7.7928784E3,1.3675203E3,6.688112E3,5.4310806E3,3.2203918E4,1.0615914E4,7.7191777E3,3.7992668E3,6.89348E3,8.9939844E2,4.6918655E2,8.9833374E2,4.72725E3,1.9608617E3,5.066189E3,3.648916E2,2.6135451E4,6.0684673E3,4.2638555E3,6.352058E3,6.0592607E3,1.6599169E3,3.1639746E3,6.352921E2],"tree_param":{"num_deleted":"0","num_feature":"68","num_nodes":"31","size_leaf_vector":"1"}},{"base_weights":[-1.6306601E-4,2.4691455E-1,-3.997467E-1,-3.1954595E-1,4.0434358E-1,-5.2998054E-1,1.3996078E-1,-6.2349755E-1,-5.2284002E-2,7.667256E-1,2.1384573E-1,-6.787737E-1,-2.3018488E-1,-4.134712E-1,2.9147288E-1,-6.972584E-2,1.6873993E-2,-3.1173054E-2,3.1009426E-2,6.257093E-2,9.541585E-2,3.7174407E-2,-2.2784587E-2,-7.0972115E-2,2.2819404E-2,-5.092418E-2,-2.506197E-6,-7.23887E-2,-1.5593317E-2,6.300204E-2,1.0722285E-2],"categories":[],"categories_nodes":[],"categories_segments":[],"categories_sizes":[],"default_left":[0,0,0,0,0,0,0,0,0,0,0,0,0,0,0,0,0,0,0,0,0,0,0,0,0,0,0,0,0,0,0],"id":21,"left_children":[1,3,5,7,9,11,13,15,17,19,21,23,25,27,29,-1,-1,-1,-1,-1,-1,-1,-1,-1,-1,-1,-1,-1,-1,-1,-1],"loss_changes":[7.3040938E3,4.0773625E3,1.9872158E3,8.0768976E2,2.4688389E3,1.0150742E3,4.6170032E2,2.7246216E2,4.9851187E2,3.227671E2,1.6362649E3,4.2792383E2,4.8564038E2,9.4085144E1,2.6913406E2,0E0,0E0,0E0,0E0,0E0,0E0,0E0,0E0,0E0,0E0,0E0,0E0,0E0,0E0,0E0,0E0],"parents":[2147483647,0,0,1,1,2,2,3,3,4,4,5,5,6,6,7,7,8,8,9,9,10,10,11,11,12,12,13,13,14,14],"right_children":[2,4,6,8,10,12,14,16,18,20,22,24,26,28,30,-1,-1,-1,-1,-1,-1,-1,-1,-1,-1,-1,-1,-1,-1,-1,-1],"split_conditions":[4.2815226E-1,1E0,7.957214E-1,-1.6557833E-2,1E0,1.0456188E-1,1E0,1.1493313E0,1.1071551E0,1.8261605E-3,1E0,1E0,6.822295E-2,-1.6557833E-2,1E0,-6.972584E-2,1.6873993E-2,-3.1173054E-2,3.1009426E-2,6.257093E-2,9.541585E-2,3.7174407E-2,-2.2784587E-2,-7.0972115E-2,2.2819404E-2,-5.092418E-2,-2.506197E-6,-7.23887E-2,-1.5593317E-2,6.300204E-2,1.0722285E-2],"split_indices":[4,12,67,1,22,36,12,9,0,56,14,21,11,1,22,0,0,0,0,0,0,0,0,0,0,0,0,0,0,0,0],"split_type":[0,0,0,0,0,0,0,0,0,0,0,0,0,0,0,0,0,0,0,0,0,0,0,0,0,0,0,0,0,0,0],"sum_hessian":[7.397186E4,4.5709723E4,2.8262135E4,9.939675E3,3.5770047E4,2.2768164E4,5.4939717E3,4.647501E3,5.2921743E3,1.231956E4,2.3450488E4,1.5211931E4,7.556233E3,1.1789495E3,4.3150225E3,4.2522017E3,3.9529956E2,3.0845059E3,2.2076685E3,7.0426626E3,5.276897E3,1.727553E4,6.17496E3,1.4711049E4,5.0088177E2,3.412586E3,4.143647E3,5.3048773E2,6.484617E2,1.5164839E3,2.7985386E3],"tree_param":{"num_deleted":"0","num_feature":"68","num_nodes":"31","size_leaf_vector":"1"}},{"base_weights":[-2.7283318E-3,-2.6722553E-1,3.362643E-1,3.3713728E-1,-3.848784E-1,6.698775E-1,1.101816E-1,1.1111823E0,2.0611754E-1,-7.463063E-1,-2.3037912E-1,7.336073E-1,2.0240746E-2,-1.1798919E-1,4.255995E-1,1.1643262E-1,6.1346944E-2,5.364691E-2,-6.107676E-3,-8.813913E-2,-5.5743206E-2,1.9253155E-2,-3.526668E-2,7.689979E-2,-6.3368335E-2,6.510403E-2,-1.2456957E-2,2.9149467E-2,-2.7426971E-2,4.6494663E-2,-8.451159E-2],"categories":[],"categories_nodes":[],"categories_segments":[],"categories_sizes":[],"default_left":[0,0,0,0,0,0,0,0,0,0,0,0,0,0,0,0,0,0,0,0,0,0,0,0,0,0,0,0,0,0,0],"id":22,"left_children":[1,3,5,7,9,11,13,15,17,19,21,23,25,27,29,-1,-1,-1,-1,-1,-1,-1,-1,-1,-1,-1,-1,-1,-1,-1,-1],"loss_changes":[6.5008687E3,2.8965264E3,2.3963762E3,6.721621E2,1.9028862E3,5.3130664E2,1.3638477E3,2.1819824E1,5.0189337E2,2.5796924E2,1.2358795E3,5.680171E2,1.0561554E2,7.0420374E2,3.996599E2,0E0,0E0,0E0,0E0,0E0,0E0,0E0,0E0,0E0,0E0,0E0,0E0,0E0,0E0,0E0,0E0],"parents":[2147483647,0,0,1,1,2,2,3,3,4,4,5,5,6,6,7,7,8,8,9,9,10,10,11,11,12,12,13,13,14,14],"right_children":[2,4,6,8,10,12,14,16,18,20,22,24,26,28,30,-1,-1,-1,-1,-1,-1,-1,-1,-1,-1,-1,-1,-1,-1,-1,-1],"split_conditions":[1.2257923E0,-8.275434E-1,-2.5201622E-1,-2.240201E0,1E0,2.0488616E-2,1.0456188E-1,1.0401785E0,1E0,1.0456188E-1,1E0,1E0,-6.182608E-1,1E0,1E0,1.1643262E-1,6.1346944E-2,5.364691E-2,-6.107676E-3,-8.813913E-2,-5.5743206E-2,1.9253155E-2,-3.526668E-2,7.689979E-2,-6.3368335E-2,6.510403E-2,-1.2456957E-2,2.9149467E-2,-2.7426971E-2,4.6494663E-2,-8.451159E-2],"split_indices":[35,4,4,4,12,45,36,45,23,1,22,15,55,22,15,0,0,0,0,0,0,0,0,0,0,0,0,0,0,0,0],"split_type":[0,0,0,0,0,0,0,0,0,0,0,0,0,0,0,0,0,0,0,0,0,0,0,0,0,0,0,0,0,0,0],"sum_hessian":[7.249366E4,4.0721773E4,3.1771885E4,6.6341167E3,3.4087656E4,1.2829923E4,1.8941963E4,9.5495856E2,5.6791577E3,1.0202136E4,2.3885521E4,1.1683151E4,1.1467715E3,1.0992908E4,7.949053E3,8.567784E2,9.818022E1,2.537198E3,3.14196E3,5.937347E3,4.264788E3,5.356864E3,1.8528658E4,1.1390511E4,2.9264087E2,2.1084467E2,9.359268E2,3.035365E3,7.9575435E3,7.7133823E3,2.3567111E2],"tree_param":{"num_deleted":"0","num_feature":"68","num_nodes":"31","size_leaf_vector":"1"}},{"base_weights":[1.1682414E-3,-1.6709355E-1,4.8592523E-1,-5.7719505E-1,-1.2783978E-2,8.4836435E-1,3.3251625E-1,-7.740031E-1,-3.8590783E-1,-2.2167633E-1,2.7567747E-1,9.3199384E-1,5.7297647E-1,1.1323236E-1,5.896664E-1,-8.424756E-2,-4.0277325E-2,-2.114845E-2,-7.086351E-2,-1.1533654E-2,-6.943808E-2,3.621953E-2,-3.276439E-2,9.415163E-2,-4.3965667E-2,2.2590145E-2,7.414488E-2,-1.0798679E-2,4.1001644E-2,6.4510666E-2,-1.1841683E-2],"categories":[],"categories_nodes":[],"categories_segments":[],"categories_sizes":[],"default_left":[0,0,0,0,0,0,0,0,0,0,0,0,0,0,0,0,0,0,0,0,0,0,0,0,0,0,0,0,0,0,0],"id":23,"left_children":[1,3,5,7,9,11,13,15,17,19,21,23,25,27,29,-1,-1,-1,-1,-1,-1,-1,-1,-1,-1,-1,-1,-1,-1,-1,-1],"loss_changes":[5.8059917E3,3.343835E3,1.0183828E3,5.4236816E2,2.3141252E3,1.2287622E2,7.2679333E2,1.7917139E2,4.1219812E2,1.1192462E3,8.425513E2,5.6581543E1,7.41712E1,4.5757294E2,2.3332178E2,0E0,0E0,0E0,0E0,0E0,0E0,0E0,0E0,0E0,0E0,0E0,0E0,0E0,0E0,0E0,0E0],"parents":[2147483647,0,0,1,1,2,2,3,3,4,4,5,5,6,6,7,7,8,8,9,9,10,10,11,11,12,12,13,13,14,14],"right_children":[2,4,6,8,10,12,14,16,18,20,22,24,26,28,30,-1,-1,-1,-1,-1,-1,-1,-1,-1,-1,-1,-1,-1,-1,-1,-1],"split_conditions":[1E0,1E0,-6.182608E-1,-1.6557833E-2,1.1071551E0,4.7460198E-1,1.0456188E-1,8.423433E-1,1E0,2.1886967E-1,2.1886967E-1,1E0,-1.3767755E-1,2.7147523E-1,1.8261605E-3,-8.424756E-2,-4.0277325E-2,-2.114845E-2,-7.086351E-2,-1.1533654E-2,-6.943808E-2,3.621953E-2,-3.276439E-2,9.415163E-2,-4.3965667E-2,2.2590145E-2,7.414488E-2,-1.0798679E-2,4.1001644E-2,6.4510666E-2,-1.1841683E-2],"split_indices":[19,12,55,1,0,33,36,34,14,43,43,53,1,31,41,0,0,0,0,0,0,0,0,0,0,0,0,0,0,0,0],"split_type":[0,0,0,0,0,0,0,0,0,0,0,0,0,0,0,0,0,0,0,0,0,0,0,0,0,0,0,0,0,0,0],"sum_hessian":[7.117148E4,5.2835324E4,1.833615E4,1.4441393E4,3.839393E4,5.446284E3,1.2889867E4,7.11047E3,7.330922E3,2.2268861E4,1.6125069E4,4.168483E3,1.2778013E3,6.961054E3,5.9288125E3,5.9978364E3,1.1126339E3,4.7642695E3,2.5666526E3,1.8184328E4,4.0845342E3,1.4104454E4,2.0206154E3,4.1413003E3,2.7182215E1,4.2138913E2,8.564122E2,3.9900796E3,2.9709749E3,5.4987275E3,4.3008505E2],"tree_param":{"num_deleted":"0","num_feature":"68","num_nodes":"31","size_leaf_vector":"1"}},{"base_weights":[-2.558548E-3,-1.204974E-1,6.459886E-1,1.8097432E-1,-3.2267106E-1,8.693707E-1,4.779032E-1,3.251604E-1,-2.4270889E-1,-1.1963903E-1,-5.9258395E-1,8.7997323E-1,-6.669404E-1,5.160412E-1,-7.610302E-1,3.824192E-2,-1.0102989E-1,-4.4279452E-2,4.350915E-3,-3.1079138E-2,2.2011852E-2,-6.618991E-2,-1.7968668E-2,8.954833E-2,1.5556568E-2,4.566717E-3,-9.066296E-2,6.427322E-2,8.472057E-3,5.514967E-2,-8.3156385E-2],"categories":[],"categories_nodes":[],"categories_segments":[],"categories_sizes":[],"default_left":[0,0,0,0,0,0,0,0,0,0,0,0,0,0,0,0,0,0,0,0,0,0,0,0,0,0,0,0,0,0,0],"id":24,"left_children":[1,3,5,7,9,11,13,15,17,19,21,23,25,27,29,-1,-1,-1,-1,-1,-1,-1,-1,-1,-1,-1,-1,-1,-1,-1,-1],"loss_changes":[5.335452E3,3.5976248E3,4.0092188E2,1.4479413E3,1.9358071E3,7.790234E1,2.9187866E2,1.3539607E3,3.4481317E2,1.3102777E3,4.3345605E2,5.0683594E1,6.080819E0,3.2516052E2,1.944345E1,0E0,0E0,0E0,0E0,0E0,0E0,0E0,0E0,0E0,0E0,0E0,0E0,0E0,0E0,0E0,0E0],"parents":[2147483647,0,0,1,1,2,2,3,3,4,4,5,5,6,6,7,7,8,8,9,9,10,10,11,11,12,12,13,13,14,14],"right_children":[2,4,6,8,10,12,14,16,18,20,22,24,26,28,30,-1,-1,-1,-1,-1,-1,-1,-1,-1,-1,-1,-1,-1,-1,-1,-1],"split_conditions":[9.452891E-1,1E0,1E0,9.19116E-5,4.8047292E-1,1E0,1E0,1E0,1.0456188E-1,1.0456188E-1,9.587054E-3,1E0,-8.7986404E-1,9.19116E-5,-2.240201E0,3.824192E-2,-1.0102989E-1,-4.4279452E-2,4.350915E-3,-3.1079138E-2,2.2011852E-2,-6.618991E-2,-1.7968668E-2,8.954833E-2,1.5556568E-2,4.566717E-3,-9.066296E-2,6.427322E-2,8.472057E-3,5.514967E-2,-8.3156385E-2],"split_indices":[9,23,22,44,4,53,15,15,36,36,55,49,4,44,4,0,0,0,0,0,0,0,0,0,0,0,0,0,0,0,0],"split_type":[0,0,0,0,0,0,0,0,0,0,0,0,0,0,0,0,0,0,0,0,0,0,0,0,0,0,0,0,0,0,0],"sum_hessian":[6.974451E4,5.9016395E4,1.0728111E4,2.3690611E4,3.5325785E4,4.5973994E3,6.1307114E3,1.7676262E4,6.0143496E3,2.0164785E4,1.5161E4,4.5680103E3,2.938907E1,5.9504565E3,1.802552E2,1.695296E4,7.233022E2,3.538185E3,2.4761643E3,1.2904794E4,7.2599907E3,1.2979117E4,2.1818823E3,4.4711006E3,9.690975E1,8.415815E0,2.0973255E1,4.59757E3,1.3528864E3,7.4539332E0,1.7280127E2],"tree_param":{"num_deleted":"0","num_feature":"68","num_nodes":"31","size_leaf_vector":"1"}},{"base_weights":[-1.7190203E-3,4.3209827E-1,-1.6535255E-1,7.1094525E-1,2.21768E-1,3.5491621E-1,-2.7049404E-1,8.06728E-1,3.823658E-1,7.0778064E-2,6.655186E-1,1.056858E0,2.3715377E-1,-1.5625359E-1,-6.858538E-1,8.309609E-2,-1.9991415E-2,5.186246E-2,-6.161404E-3,-4.953113E-3,6.401529E-2,7.270712E-2,-7.770592E-3,8.142907E-2,1.1165023E-1,1.8950336E-3,5.355322E-2,-3.6725865E-3,-7.3936634E-2,-8.672037E-2,-5.799037E-2],"categories":[],"categories_nodes":[],"categories_segments":[],"categories_sizes":[],"default_left":[0,0,0,0,0,0,0,0,0,0,0,0,0,0,0,0,0,0,0,0,0,0,0,0,0,0,0,0,0,0,0],"id":25,"left_children":[1,3,5,7,9,11,13,15,17,19,21,23,25,27,29,-1,-1,-1,-1,-1,-1,-1,-1,-1,-1,-1,-1,-1,-1,-1,-1],"loss_changes":[4.8518335E3,1.0971165E3,2.7152495E3,2.5170117E2,7.1521454E2,6.886062E2,1.9586152E3,1.5270288E2,1.1060721E2,5.463006E2,1.24271484E2,1.2779419E1,4.6566107E2,2.2572607E3,1.6858252E2,0E0,0E0,0E0,0E0,0E0,0E0,0E0,0E0,0E0,0E0,0E0,0E0,0E0,0E0,0E0,0E0],"parents":[2147483647,0,0,1,1,2,2,3,3,4,4,5,5,6,6,7,7,8,8,9,9,10,10,11,11,12,12,13,13,14,14],"right_children":[2,4,6,8,10,12,14,16,18,20,22,24,26,28,30,-1,-1,-1,-1,-1,-1,-1,-1,-1,-1,-1,-1,-1,-1,-1,-1],"split_conditions":[1E0,-2.5201622E-1,-7.752227E-1,6.4914864E-1,1E0,-2.1878803E0,1E0,1.52323E-1,1E0,1.1071551E0,1.1606414E0,-5.010367E-1,1.0456188E-1,1E0,1E0,8.309609E-2,-1.9991415E-2,5.186246E-2,-6.161404E-3,-4.953113E-3,6.401529E-2,7.270712E-2,-7.770592E-3,8.142907E-2,1.1165023E-1,1.8950336E-3,5.355322E-2,-3.6725865E-3,-7.3936634E-2,-8.672037E-2,-5.799037E-2],"split_indices":[22,4,4,33,21,4,51,42,14,58,4,1,36,13,38,0,0,0,0,0,0,0,0,0,0,0,0,0,0,0,0],"split_type":[0,0,0,0,0,0,0,0,0,0,0,0,0,0,0,0,0,0,0,0,0,0,0,0,0,0,0,0,0,0,0],"sum_hessian":[6.833811E4,1.8714617E4,4.9623492E4,8.0415586E3,1.0673059E4,8.340507E3,4.1282984E4,6.220865E3,1.8206935E3,7.967758E3,2.7053005E3,1.1925071E3,7.148E3,3.2383197E4,8.899787E3,6.0754834E3,1.4538219E2,1.3924926E3,4.2820093E2,6.5816226E3,1.3861353E3,2.4984888E3,2.0681198E2,2.4981142E2,9.426957E2,4.1317666E3,3.0162336E3,2.687883E4,5.504367E3,3.2688035E3,5.6309834E3],"tree_param":{"num_deleted":"0","num_feature":"68","num_nodes":"31","size_leaf_vector":"1"}},{"base_weights":[1.570502E-3,-3.047666E-1,2.0649607E-1,-1.3159943E-1,-5.5524623E-1,5.1592344E-1,1.2306514E-2,-7.063151E-2,-1.0823683E0,-6.2450385E-1,-1.0172823E-1,6.824183E-1,2.2754669E-1,2.4982613E-1,-2.3253481E-1,1.0383145E-2,-4.383203E-2,-3.313781E-3,-1.0936715E-1,-8.238473E-2,-5.1558044E-2,-3.3637916E-3,-1.09622896E-1,7.3806725E-2,1.2020702E-2,7.123889E-4,5.1767778E-2,3.7795167E-2,-1.3694889E-2,-4.110363E-2,3.8200524E-3],"categories":[],"categories_nodes":[],"categories_segments":[],"categories_sizes":[],"default_left":[0,0,0,0,0,0,0,0,0,0,0,0,0,0,0,0,0,0,0,0,0,0,0,0,0,0,0,0,0,0,0],"id":26,"left_children":[1,3,5,7,9,11,13,15,17,19,21,23,25,27,29,-1,-1,-1,-1,-1,-1,-1,-1,-1,-1,-1,-1,-1,-1,-1,-1],"loss_changes":[4.215464E3,1.1670886E3,2.4175962E3,9.224556E2,3.4519556E2,7.4410645E2,1.4382196E3,9.60281E2,1.1192383E1,2.0506201E2,9.890365E1,3.0719775E2,3.6361447E2,6.223345E2,5.885966E2,0E0,0E0,0E0,0E0,0E0,0E0,0E0,0E0,0E0,0E0,0E0,0E0,0E0,0E0,0E0,0E0],"parents":[2147483647,0,0,1,1,2,2,3,3,4,4,5,5,6,6,7,7,8,8,9,9,10,10,11,11,12,12,13,13,14,14],"right_children":[2,4,6,8,10,12,14,16,18,20,22,24,26,28,30,-1,-1,-1,-1,-1,-1,-1,-1,-1,-1,-1,-1,-1,-1,-1,-1],"split_conditions":[6.822295E-2,4.8047292E-1,-2.5201622E-1,1E0,9.071172E-1,4.6862474E-1,1E0,9.19116E-5,-2.240201E0,1E0,1E0,2.0488616E-2,1.0456188E-1,9.19116E-5,1.0456188E-1,1.0383145E-2,-4.383203E-2,-3.313781E-3,-1.0936715E-1,-8.238473E-2,-5.1558044E-2,-3.3637916E-3,-1.09622896E-1,7.3806725E-2,1.2020702E-2,7.123889E-4,5.1767778E-2,3.7795167E-2,-1.3694889E-2,-4.110363E-2,3.8200524E-3],"split_indices":[11,4,4,15,67,33,17,44,4,12,15,45,36,44,36,0,0,0,0,0,0,0,0,0,0,0,0,0,0,0,0],"split_type":[0,0,0,0,0,0,0,0,0,0,0,0,0,0,0,0,0,0,0,0,0,0,0,0,0,0,0,0,0,0,0],"sum_hessian":[6.714055E4,2.6910465E4,4.0230086E4,1.5915224E4,1.0995241E4,1.5509117E4,2.4720967E4,1.496121E4,9.5401404E2,9.536949E3,1.4582913E3,9.828045E3,5.6810728E3,1.2548051E4,1.2172917E4,1.0149166E4,4.8120435E3,1.0377413E1,9.4363666E2,3.3582026E3,6.178747E3,1.3696825E3,8.860871E1,8.941437E3,8.866082E2,3.2312788E3,2.4497937E3,9.425736E3,3.1223142E3,7.3345215E3,4.8383955E3],"tree_param":{"num_deleted":"0","num_feature":"68","num_nodes":"31","size_leaf_vector":"1"}},{"base_weights":[-1.2412261E-3,-1.03111506E-1,5.8048886E-1,1.2986554E-1,-3.1569776E-1,6.2156725E-1,-4.1049674E-1,-2.8341237E-1,2.535058E-1,-4.6894053E-1,-5.3978186E-2,7.1923524E-1,2.5566402E-1,-6.560344E-1,-9.97874E-2,-5.352685E-2,-7.0080273E-3,2.9980851E-2,-8.7442175E-2,-5.06499E-2,3.4634996E-2,3.345793E-2,-1.7777031E-2,7.478721E-2,-7.431029E-2,-2.5053208E-3,4.3457266E-2,-7.414574E-2,-3.4908962E-3,4.1961085E-2,-3.2143086E-2],"categories":[],"categories_nodes":[],"categories_segments":[],"categories_sizes":[],"default_left":[0,0,0,0,0,0,0,0,0,0,0,0,0,0,0,0,0,0,0,0,0,0,0,0,0,0,0,0,0,0,0],"id":27,"left_children":[1,3,5,7,9,11,13,15,17,19,21,23,25,27,29,-1,-1,-1,-1,-1,-1,-1,-1,-1,-1,-1,-1,-1,-1,-1,-1],"loss_changes":[3.9094463E3,2.7806436E3,4.014712E2,1.3691918E3,1.1772256E3,3.3649365E2,2.9754234E1,3.313822E2,1.0783351E3,5.677988E2,5.220158E2,3.147434E2,1.00347336E2,1.1509064E1,2.139029E1,0E0,0E0,0E0,0E0,0E0,0E0,0E0,0E0,0E0,0E0,0E0,0E0,0E0,0E0,0E0,0E0],"parents":[2147483647,0,0,1,1,2,2,3,3,4,4,5,5,6,6,7,7,8,8,9,9,10,10,11,11,12,12,13,13,14,14],"right_children":[2,4,6,8,10,12,14,16,18,20,22,24,26,28,30,-1,-1,-1,-1,-1,-1,-1,-1,-1,-1,-1,-1,-1,-1,-1,-1],"split_conditions":[9.452891E-1,1E0,1E0,1E0,1.0456188E-1,1E0,2.2568159E-1,-1.6557833E-2,1E0,1E0,1E0,1E0,-1.6557833E-2,1.1071551E0,1E0,-5.352685E-2,-7.0080273E-3,2.9980851E-2,-8.7442175E-2,-5.06499E-2,3.4634996E-2,3.345793E-2,-1.7777031E-2,7.478721E-2,-7.431029E-2,-2.5053208E-3,4.3457266E-2,-7.414574E-2,-3.4908962E-3,4.1961085E-2,-3.2143086E-2],"split_indices":[9,17,49,12,36,14,1,1,39,21,22,53,1,58,22,0,0,0,0,0,0,0,0,0,0,0,0,0,0,0,0],"split_type":[0,0,0,0,0,0,0,0,0,0,0,0,0,0,0,0,0,0,0,0,0,0,0,0,0,0,0,0,0,0,0],"sum_hessian":[6.59599E4,5.6134043E4,9.825858E3,2.678349E4,2.9350555E4,9.436558E3,3.8930096E2,6.166152E3,2.0617338E4,1.8509098E4,1.0841456E4,7.444596E3,1.9919615E3,2.143523E2,1.7494867E2,2.8242942E3,3.3418574E3,1.9807873E4,8.0946484E2,1.769579E4,8.133083E2,2.6174175E3,8.224039E3,7.3040054E3,1.4059084E2,7.7704156E2,1.2149199E3,1.8758516E2,2.6767124E1,5.0990913E1,1.2395775E2],"tree_param":{"num_deleted":"0","num_feature":"68","num_nodes":"31","size_leaf_vector":"1"}},{"base_weights":[-5.4928527E-4,-1.3736053E-1,4.089049E-1,2.8779527E-2,-4.1474658E-1,4.9047813E-1,-1.6674852E-1,7.688993E-2,-9.5348096E-1,-3.0730247E-1,-7.6477027E-1,5.890719E-1,1.1950307E-1,-3.666013E-2,-9.146145E-1,2.3963684E-2,-3.120174E-2,-9.793728E-2,-1.5771328E-2,-2.3972156E-2,-1.0455916E-1,-8.310441E-2,-5.9851892E-2,6.431716E-2,-4.2287495E-2,-9.866144E-3,3.5708074E-2,9.945973E-3,-4.290697E-2,-7.887905E-2,-1.2926346E-1],"categories":[],"categories_nodes":[],"categories_segments":[],"categories_sizes":[],"default_left":[0,0,0,0,0,0,0,0,0,0,0,0,0,0,0,0,0,0,0,0,0,0,0,0,0,0,0,0,0,0,0],"id":28,"left_children":[1,3,5,7,9,11,13,15,17,19,21,23,25,27,29,-1,-1,-1,-1,-1,-1,-1,-1,-1,-1,-1,-1,-1,-1,-1,-1],"loss_changes":[3.6508066E3,2.2513013E3,7.668672E2,1.4443452E3,6.870117E2,5.225962E2,1.9728992E2,1.8443533E3,2.863147E1,6.977395E2,4.4829834E1,6.196797E2,1.5609937E2,9.283892E1,9.195908E0,0E0,0E0,0E0,0E0,0E0,0E0,0E0,0E0,0E0,0E0,0E0,0E0,0E0,0E0,0E0,0E0],"parents":[2147483647,0,0,1,1,2,2,3,3,4,4,5,5,6,6,7,7,8,8,9,9,10,10,11,11,12,12,13,13,14,14],"right_children":[2,4,6,8,10,12,14,16,18,20,22,24,26,28,30,-1,-1,-1,-1,-1,-1,-1,-1,-1,-1,-1,-1,-1,-1,-1,-1],"split_conditions":[1.8261605E-3,4.8047292E-1,9.513588E-1,1E0,1E0,1E0,1.4222447E0,1E0,1E0,1E0,-1.0949104E-4,1E0,-4.989142E-3,1E0,1.6315273E0,2.3963684E-2,-3.120174E-2,-9.793728E-2,-1.5771328E-2,-2.3972156E-2,-1.0455916E-1,-8.310441E-2,-5.9851892E-2,6.431716E-2,-4.2287495E-2,-9.866144E-3,3.5708074E-2,9.945973E-3,-4.290697E-2,-7.887905E-2,-1.2926346E-1],"split_indices":[56,4,4,15,51,14,4,14,21,15,62,49,62,14,4,0,0,0,0,0,0,0,0,0,0,0,0,0,0,0,0],"split_type":[0,0,0,0,0,0,0,0,0,0,0,0,0,0,0,0,0,0,0,0,0,0,0,0,0,0,0,0,0,0,0],"sum_hessian":[6.5162086E4,4.8844844E4,1.6317242E4,3.05509E4,1.8293945E4,1.4292638E4,2.0246045E3,2.9128803E4,1.4220989E3,1.4004484E4,4.2894604E3,1.1289338E4,3.0033E3,1.7290824E3,2.955221E2,2.0536688E4,8.592114E3,1.376169E3,4.592996E1,1.2836125E4,1.1683593E3,3.0525935E3,1.2368668E3,1.0718157E4,5.711808E2,1.5671395E3,1.4361605E3,1.2865381E3,4.4254434E2,2.3330106E2,6.2221046E1],"tree_param":{"num_deleted":"0","num_feature":"68","num_nodes":"31","size_leaf_vector":"1"}},{"base_weights":[-1.184777E-3,-2.0139849E-1,2.5804344E-1,-4.043038E-2,-4.6477506E-1,3.2990634E-1,-4.4344592E-1,-2.1112981E-1,2.1989383E-1,-7.3582214E-1,-3.4933922E-1,4.7192377E-1,-7.231295E-2,-6.0393035E-1,-1.5247668E-1,-1.3683493E-2,-6.960398E-2,3.4908693E-2,-1.2764721E-2,-8.379737E-2,-5.6575384E-2,-2.9044127E-2,-9.1610245E-2,5.4178037E-2,-8.06722E-2,-4.7711473E-2,5.6793997E-3,3.1890403E-2,-6.42279E-2,-4.9982574E-2,4.7671716E-3],"categories":[],"categories_nodes":[],"categories_segments":[],"categories_sizes":[],"default_left":[0,0,0,0,0,0,0,0,0,0,0,0,0,0,0,0,0,0,0,0,0,0,0,0,0,0,0,0,0,0,0],"id":29,"left_children":[1,3,5,7,9,11,13,15,17,19,21,23,25,27,29,-1,-1,-1,-1,-1,-1,-1,-1,-1,-1,-1,-1,-1,-1,-1,-1],"loss_changes":[3.3226248E3,1.5312533E3,1.4070851E3,9.967102E2,4.2740918E2,1.4458301E3,1.2069235E2,4.8754236E2,3.9907977E2,6.8646484E1,3.1974646E2,1.6729282E3,3.455116E2,6.0142334E1,6.470381E1,0E0,0E0,0E0,0E0,0E0,0E0,0E0,0E0,0E0,0E0,0E0,0E0,0E0,0E0,0E0,0E0],"parents":[2147483647,0,0,1,1,2,2,3,3,4,4,5,5,6,6,7,7,8,8,9,9,10,10,11,11,12,12,13,13,14,14],"right_children":[2,4,6,8,10,12,14,16,18,20,22,24,26,28,30,-1,-1,-1,-1,-1,-1,-1,-1,-1,-1,-1,-1,-1,-1,-1,-1],"split_conditions":[1.1071551E0,4.8047292E-1,1E0,1.0456188E-1,1E0,9.19116E-5,1E0,1E0,1E0,3.468013E-1,1.4222447E0,9.19116E-5,1E0,-1.6646738E0,-1.3767755E-1,-1.3683493E-2,-6.960398E-2,3.4908693E-2,-1.2764721E-2,-8.379737E-2,-5.6575384E-2,-2.9044127E-2,-9.1610245E-2,5.4178037E-2,-8.06722E-2,-4.7711473E-2,5.6793997E-3,3.1890403E-2,-6.42279E-2,-4.9982574E-2,4.7671716E-3],"split_indices":[0,4,13,36,12,44,24,13,38,1,4,47,12,4,1,0,0,0,0,0,0,0,0,0,0,0,0,0,0,0,0],"split_type":[0,0,0,0,0,0,0,0,0,0,0,0,0,0,0,0,0,0,0,0,0,0,0,0,0,0,0,0,0,0,0],"sum_hessian":[6.4008453E4,3.6115742E4,2.7892713E4,2.2419414E4,1.3696328E4,2.5303215E4,2.5894978E3,1.3541165E4,8.878249E3,4.082832E3,9.613496E3,1.8699754E4,6.6034604E3,1.6655072E3,9.239905E2,1.1747671E4,1.7934939E3,6.472262E3,2.4059868E3,2.5384663E3,1.5443658E3,8.715359E3,8.9813666E2,1.7733781E4,9.6597284E2,1.5935543E3,5.009906E3,6.498982E1,1.6005175E3,3.35046E2,5.889445E2],"tree_param":{"num_deleted":"0","num_feature":"68","num_nodes":"31","size_leaf_vector":"1"}},{"base_weights":[1.8065097E-4,3.622539E-1,-1.3372545E-1,4.2657933E-1,-3.434373E-1,-4.7380182E-1,-1.8352585E-2,5.626441E-1,2.5944853E-2,-4.3828252E-1,4.6731496E-1,-6.807628E-1,-2.8503677E-1,5.441533E-2,-5.575896E-1,6.080336E-2,-9.064649E-2,-1.0580632E-2,4.7273092E-2,-5.7559866E-2,3.5224352E-3,-9.668051E-3,5.862511E-2,-5.1620126E-2,-7.956778E-2,-4.328497E-2,-3.0648818E-3,2.1998687E-2,-2.9719312E-2,-3.0582359E-2,-6.837287E-2],"categories":[],"categories_nodes":[],"categories_segments":[],"categories_sizes":[],"default_left":[0,0,0,0,0,0,0,0,0,0,0,0,0,0,0,0,0,0,0,0,0,0,0,0,0,0,0,0,0,0,0],"id":30,"left_children":[1,3,5,7,9,11,13,15,17,19,21,23,25,27,29,-1,-1,-1,-1,-1,-1,-1,-1,-1,-1,-1,-1,-1,-1,-1,-1],"loss_changes":[3.0633096E3,7.7506616E2,1.8096587E3,8.522444E2,1.1081343E2,4.5547974E2,1.3517529E3,7.810166E2,2.338916E2,8.337993E1,1.0476299E1,1.0327222E2,2.3002328E2,1.7674384E3,1.2903369E2,0E0,0E0,0E0,0E0,0E0,0E0,0E0,0E0,0E0,0E0,0E0,0E0,0E0,0E0,0E0,0E0],"parents":[2147483647,0,0,1,1,2,2,3,3,4,4,5,5,6,6,7,7,8,8,9,9,10,10,11,11,12,12,13,13,14,14],"right_children":[2,4,6,8,10,12,14,16,18,20,22,24,26,28,30,-1,-1,-1,-1,-1,-1,-1,-1,-1,-1,-1,-1,-1,-1,-1,-1],"split_conditions":[1E0,1E0,1E0,1E0,1.1699814E0,-1.6557833E-2,1E0,1E0,1E0,1.8261605E-3,1E0,1E0,1.1071551E0,1E0,1E0,6.080336E-2,-9.064649E-2,-1.0580632E-2,4.7273092E-2,-5.7559866E-2,3.5224352E-3,-9.668051E-3,5.862511E-2,-5.1620126E-2,-7.956778E-2,-4.328497E-2,-3.0648818E-3,2.1998687E-2,-2.9719312E-2,-3.0582359E-2,-6.837287E-2],"split_indices":[22,13,12,14,9,1,13,53,21,56,12,17,0,14,49,0,0,0,0,0,0,0,0,0,0,0,0,0,0,0,0],"split_type":[0,0,0,0,0,0,0,0,0,0,0,0,0,0,0,0,0,0,0,0,0,0,0,0,0,0,0,0,0,0,0],"sum_hessian":[6.31721E4,1.7053105E4,4.6118996E4,1.563034E4,1.4227645E3,1.1678773E4,3.4440223E4,1.1666204E4,3.9641357E3,1.2758118E3,1.4695274E2,5.5646685E3,6.1141055E3,3.034921E4,4.0910112E3,1.1319411E4,3.467931E2,3.064324E3,8.998118E2,9.8816705E2,2.876447E2,2.5755535E1,1.2119721E2,2.2993672E3,3.2653013E3,3.8648904E3,2.2492148E3,2.0634396E4,9.714814E3,1.3712334E3,2.7197778E3],"tree_param":{"num_deleted":"0","num_feature":"68","num_nodes":"31","size_leaf_vector":"1"}},{"base_weights":[-2.883547E-3,-8.305871E-2,5.7755065E-1,1.2500826E-1,-2.7676323E-1,7.268286E-1,3.839983E-1,2.1327595E-1,-3.292941E-1,-2.3397592E-1,-1.002886E0,7.412928E-1,-6.484183E-2,-7.157277E-4,5.108334E-1,2.5424143E-2,-7.5444154E-2,-2.1837277E-2,-8.2227185E-2,-9.837604E-3,-5.147898E-2,3.1737385E-3,-1.0101117E-1,8.967953E-2,6.6933215E-2,-1.1227204E-1,1.2840326E-2,-3.730816E-2,1.2595536E-2,1.631294E-2,6.0478907E-2],"categories":[],"categories_nodes":[],"categories_segments":[],"categories_sizes":[],"default_left":[0,0,0,0,0,0,0,0,0,0,0,0,0,0,0,0,0,0,0,0,0,0,0,0,0,0,0,0,0,0,0],"id":31,"left_children":[1,3,5,7,9,11,13,15,17,19,21,23,25,27,29,-1,-1,-1,-1,-1,-1,-1,-1,-1,-1,-1,-1,-1,-1,-1,-1],"loss_changes":[2.8921777E3,2.2009805E3,2.1653662E2,1.0562041E3,8.77469E2,4.893872E1,1.6077768E2,8.7508124E2,2.3344101E2,1.01694434E3,1.1913696E1,4.3738525E1,1.7260061E1,3.900435E1,8.045874E1,0E0,0E0,0E0,0E0,0E0,0E0,0E0,0E0,0E0,0E0,0E0,0E0,0E0,0E0,0E0,0E0],"parents":[2147483647,0,0,1,1,2,2,3,3,4,4,5,5,6,6,7,7,8,8,9,9,10,10,11,11,12,12,13,13,14,14],"right_children":[2,4,6,8,10,12,14,16,18,20,22,24,26,28,30,-1,-1,-1,-1,-1,-1,-1,-1,-1,-1,-1,-1,-1,-1,-1,-1],"split_conditions":[1.0775476E0,1E0,1E0,9.513588E-1,9.19116E-5,9.19116E-5,-5.010367E-1,9.19116E-5,1.4222447E0,1E0,-2.240201E0,-0E0,1.1493313E0,1E0,1E0,2.5424143E-2,-7.5444154E-2,-2.1837277E-2,-8.2227185E-2,-9.837604E-3,-5.147898E-2,3.1737385E-3,-1.0101117E-1,8.967953E-2,6.6933215E-2,-1.1227204E-1,1.2840326E-2,-3.730816E-2,1.2595536E-2,1.631294E-2,6.0478907E-2],"split_indices":[9,17,23,4,47,47,1,47,4,14,4,55,9,12,12,0,0,0,0,0,0,0,0,0,0,0,0,0,0,0,0],"split_type":[0,0,0,0,0,0,0,0,0,0,0,0,0,0,0,0,0,0,0,0,0,0,0,0,0,0,0,0,0,0,0],"sum_hessian":[6.213856E4,5.4600848E4,7.53771E3,2.632535E4,2.8275498E4,4.2478022E3,3.289908E3,2.2044846E4,4.2805034E3,2.6708303E4,1.5671947E3,4.171898E3,7.590432E1,8.169428E2,2.472965E3,2.1153078E4,8.917669E2,3.5001707E3,7.8033307E2,1.8015635E4,8.69267E3,1.0751484E1,1.5564432E3,1.3016978E3,2.8702E3,8.009408E0,6.7894905E1,2.0489662E2,6.120462E2,5.289921E2,1.9439729E3],"tree_param":{"num_deleted":"0","num_feature":"68","num_nodes":"31","size_leaf_vector":"1"}},{"base_weights":[1.2114972E-3,-1.1809146E-1,3.6494252E-1,4.2709702E-1,-1.8768097E-1,6.36507E-1,2.1462953E-1,9.383938E-1,2.9232508E-1,-3.2952142E-1,4.23883E-2,8.1246895E-1,4.8294833E-1,2.5530863E-1,-8.330106E-1,9.571564E-2,3.9693933E-2,3.4985285E-2,-4.901133E-2,-3.6761582E-2,3.964598E-2,2.4242664E-2,-1.5346857E-2,8.6244725E-2,5.6421038E-2,2.8035793E-2,6.3719295E-2,3.2197606E-2,-3.737783E-2,-3.0297035E-2,-9.486928E-2],"categories":[],"categories_nodes":[],"categories_segments":[],"categories_sizes":[],"default_left":[0,0,0,0,0,0,0,0,0,0,0,0,0,0,0,0,0,0,0,0,0,0,0,0,0,0,0,0,0,0,0],"id":32,"left_children":[1,3,5,7,9,11,13,15,17,19,21,23,25,27,29,-1,-1,-1,-1,-1,-1,-1,-1,-1,-1,-1,-1,-1,-1,-1,-1],"loss_changes":[2.669791E3,1.7580786E3,6.1959814E2,3.6009912E2,1.340896E3,1.4426196E2,4.1824368E2,9.194092E0,1.8804694E2,7.0368994E2,6.14303E2,2.8765625E1,8.979266E1,3.9596582E2,2.1070053E1,0E0,0E0,0E0,0E0,0E0,0E0,0E0,0E0,0E0,0E0,0E0,0E0,0E0,0E0,0E0,0E0],"parents":[2147483647,0,0,1,1,2,2,3,3,4,4,5,5,6,6,7,7,8,8,9,9,10,10,11,11,12,12,13,13,14,14],"right_children":[2,4,6,8,10,12,14,16,18,20,22,24,26,28,30,-1,-1,-1,-1,-1,-1,-1,-1,-1,-1,-1,-1,-1,-1,-1,-1],"split_conditions":[1.8261605E-3,-1.1937879E0,1E0,-2.1878803E0,1.0456188E-1,-2.5201622E-1,1E0,1.6275706E-2,1E0,1E0,1E0,1E0,-6.0263045E-2,1E0,-6.182608E-1,9.571564E-2,3.9693933E-2,3.4985285E-2,-4.901133E-2,-3.6761582E-2,3.964598E-2,2.4242664E-2,-1.5346857E-2,8.6244725E-2,5.6421038E-2,2.8035793E-2,6.3719295E-2,3.2197606E-2,-3.737783E-2,-3.0297035E-2,-9.486928E-2],"split_indices":[56,4,22,4,36,4,15,42,49,21,17,14,10,13,4,0,0,0,0,0,0,0,0,0,0,0,0,0,0,0,0],"split_type":[0,0,0,0,0,0,0,0,0,0,0,0,0,0,0,0,0,0,0,0,0,0,0,0,0,0,0,0,0,0,0],"sum_hessian":[6.15142E4,4.6323555E4,1.5190644E4,5.2406665E3,4.1082887E4,5.406594E3,9.78405E3,1.0869999E3,4.1536665E3,2.5413193E4,1.5669694E4,2.5095085E3,2.897086E3,9.421982E3,3.6206708E2,1.0468842E3,4.01157E1,3.8717646E3,2.819021E2,2.4148516E4,1.2646764E3,7.751507E3,7.9181875E3,2.0786707E3,4.3083804E2,1.2583768E3,1.638709E3,8.521371E3,9.006109E2,6.8106606E1,2.9396048E2],"tree_param":{"num_deleted":"0","num_feature":"68","num_nodes":"31","size_leaf_vector":"1"}},{"base_weights":[2.2629797E-4,2.262027E-1,-1.7088386E-1,5.754234E-1,1.11051604E-1,-9.497189E-2,-6.601251E-1,6.750693E-1,2.309925E-1,2.5485376E-2,5.4182833E-1,7.372186E-2,-4.177153E-1,7.47837E-1,-6.7611283E-1,7.281596E-2,1.5142624E-2,7.8458786E-2,1.3758785E-2,-1.9845039E-2,1.7005863E-2,7.2200775E-2,4.0793568E-2,1.8237103E-2,-9.150267E-2,-2.530018E-2,-6.327941E-2,8.77241E-2,-1.7546492E-2,-7.0827894E-2,-1.4124671E-2],"categories":[],"categories_nodes":[],"categories_segments":[],"categories_sizes":[],"default_left":[0,0,0,0,0,0,0,0,0,0,0,0,0,0,0,0,0,0,0,0,0,0,0,0,0,0,0,0,0,0,0],"id":33,"left_children":[1,3,5,7,9,11,13,15,17,19,21,23,25,27,29,-1,-1,-1,-1,-1,-1,-1,-1,-1,-1,-1,-1,-1,-1,-1,-1],"loss_changes":[2.3477234E3,1.051804E3,1.2829604E3,2.2184961E2,7.254087E2,1.6290149E3,1.0698303E2,1.3924341E2,7.511655E1,5.3195074E2,7.720703E1,2.1120042E3,3.6304517E2,7.278225E0,7.848389E1,0E0,0E0,0E0,0E0,0E0,0E0,0E0,0E0,0E0,0E0,0E0,0E0,0E0,0E0,0E0,0E0],"parents":[2147483647,0,0,1,1,2,2,3,3,4,4,5,5,6,6,7,7,8,8,9,9,10,10,11,11,12,12,13,13,14,14],"right_children":[2,4,6,8,10,12,14,16,18,20,22,24,26,28,30,-1,-1,-1,-1,-1,-1,-1,-1,-1,-1,-1,-1,-1,-1,-1,-1],"split_conditions":[1E0,-6.182608E-1,1E0,1E0,1.1071551E0,1E0,-2.240201E0,1E0,-2.1878803E0,-1.6557833E-2,1E0,1E0,4.2815226E-1,2.6664996E0,1.1071551E0,7.281596E-2,1.5142624E-2,7.8458786E-2,1.3758785E-2,-1.9845039E-2,1.7005863E-2,7.2200775E-2,4.0793568E-2,1.8237103E-2,-9.150267E-2,-2.530018E-2,-6.327941E-2,8.77241E-2,-1.7546492E-2,-7.0827894E-2,-1.4124671E-2],"split_indices":[23,4,13,14,58,14,4,13,4,1,22,15,4,32,58,0,0,0,0,0,0,0,0,0,0,0,0,0,0,0,0],"split_type":[0,0,0,0,0,0,0,0,0,0,0,0,0,0,0,0,0,0,0,0,0,0,0,0,0,0,0,0,0,0,0],"sum_hessian":[6.0706684E4,2.6158666E4,3.4548016E4,6.481655E3,1.9677012E4,2.9912658E4,4.635358E3,5.023521E3,1.458134E3,1.6420637E4,3.2563748E3,1.964719E4,1.026547E4,4.9474888E1,4.5858833E3,4.5593154E3,4.642058E2,2.0516318E2,1.2529708E3,6.441404E3,9.979232E3,1.3788688E3,1.8775061E3,1.770567E4,1.941519E3,5.8195625E3,4.4459067E3,4.3611958E1,5.86293E0,4.3242104E3,2.6167285E2],"tree_param":{"num_deleted":"0","num_feature":"68","num_nodes":"31","size_leaf_vector":"1"}},{"base_weights":[-3.962944E-3,-1.6995974E-1,2.1299225E-1,-8.3967574E-2,-5.3284144E-1,4.8534966E-1,8.8233046E-2,1.40061155E-2,-6.05776E-1,-3.9629936E-1,-7.049313E-1,8.568848E-1,4.0357772E-1,-1.7025293E-1,2.1781316E-1,8.667474E-3,-8.7827995E-2,-4.8085388E-2,-7.850091E-2,-6.485259E-2,-2.7941985E-2,-8.372656E-2,-6.2786736E-2,8.715507E-2,8.796967E-3,2.9319113E-2,6.834807E-2,-2.410574E-2,2.9689804E-2,2.7476275E-2,-3.0043155E-2],"categories":[],"categories_nodes":[],"categories_segments":[],"categories_sizes":[],"default_left":[0,0,0,0,0,0,0,0,0,0,0,0,0,0,0,0,0,0,0,0,0,0,0,0,0,0,0,0,0,0,0],"id":34,"left_children":[1,3,5,7,9,11,13,15,17,19,21,23,25,27,29,-1,-1,-1,-1,-1,-1,-1,-1,-1,-1,-1,-1,-1,-1,-1,-1],"loss_changes":[2.1503665E3,1.0553574E3,8.7923474E2,1.3984158E3,1.5085449E2,2.4527148E2,5.949495E2,1.493924E3,9.492749E1,1.0593878E2,2.6540161E1,1.6104614E1,2.051753E2,1.9656984E2,3.4955847E2,0E0,0E0,0E0,0E0,0E0,0E0,0E0,0E0,0E0,0E0,0E0,0E0,0E0,0E0,0E0,0E0],"parents":[2147483647,0,0,1,1,2,2,3,3,4,4,5,5,6,6,7,7,8,8,9,9,10,10,11,11,12,12,13,13,14,14],"right_children":[2,4,6,8,10,12,14,16,18,20,22,24,26,28,30,-1,-1,-1,-1,-1,-1,-1,-1,-1,-1,-1,-1,-1,-1,-1,-1],"split_conditions":[1.2257923E0,1E0,1E0,1E0,4.2815226E-1,-1.9969556E-1,-2.5879726E-1,1E0,4.8047292E-1,1E0,1E0,1.8320984E-1,1E0,1.2073901E0,1E0,8.667474E-3,-8.7827995E-2,-4.8085388E-2,-7.850091E-2,-6.485259E-2,-2.7941985E-2,-8.372656E-2,-6.2786736E-2,8.715507E-2,8.796967E-3,2.9319113E-2,6.834807E-2,-2.410574E-2,2.9689804E-2,2.7476275E-2,-3.0043155E-2],"split_indices":[35,51,22,13,43,55,1,15,40,12,12,42,21,34,13,0,0,0,0,0,0,0,0,0,0,0,0,0,0,0,0],"split_type":[0,0,0,0,0,0,0,0,0,0,0,0,0,0,0,0,0,0,0,0,0,0,0,0,0,0,0,0,0,0,0],"sum_hessian":[5.9699375E4,3.382232E4,2.5877057E4,2.734785E4,6.474469E3,8.1250645E3,1.7751992E4,2.3028863E4,4.318987E3,3.6193025E3,2.8551667E3,1.4571288E3,6.6679355E3,5.9270884E3,1.1824904E4,2.1298785E4,1.7300789E3,2.5559502E3,1.7630365E3,1.1388708E3,2.4804316E3,1.0326237E3,1.8225431E3,1.4292018E3,2.7927101E1,4.789368E3,1.878567E3,5.14908E3,7.780085E2,1.0656245E4,1.1686587E3],"tree_param":{"num_deleted":"0","num_feature":"68","num_nodes":"31","size_leaf_vector":"1"}},{"base_weights":[-4.2810603E-3,-7.173849E-2,4.994654E-1,6.6580228E-3,-4.384222E-1,6.517986E-1,3.1950557E-1,-1.9828904E-1,1.5108785E-1,-3.398348E-1,-8.633628E-1,7.9459196E-1,5.407357E-1,1.4867842E-2,4.204921E-1,-8.202218E-3,-5.325247E-2,4.3217447E-2,4.9115145E-3,-2.8110126E-2,-7.256465E-2,-7.836148E-2,-1.1011528E-1,8.0350846E-2,-2.4311945E-2,4.1433036E-2,6.682542E-2,-2.181787E-2,1.9197544E-2,1.05345786E-1,3.7666522E-2],"categories":[],"categories_nodes":[],"categories_segments":[],"categories_sizes":[],"default_left":[0,0,0,0,0,0,0,0,0,0,0,0,0,0,0,0,0,0,0,0,0,0,0,0,0,0,0,0,0,0,0],"id":35,"left_children":[1,3,5,7,9,11,13,15,17,19,21,23,25,27,29,-1,-1,-1,-1,-1,-1,-1,-1,-1,-1,-1,-1,-1,-1,-1,-1],"loss_changes":[2.0049249E3,1.4957793E3,1.899729E2,1.2691937E3,3.824934E2,5.7620117E1,9.853937E1,6.8859656E2,7.208332E2,1.6773944E2,2.8353027E1,1.61344E1,3.3038635E1,3.334789E1,6.476544E1,0E0,0E0,0E0,0E0,0E0,0E0,0E0,0E0,0E0,0E0,0E0,0E0,0E0,0E0,0E0,0E0],"parents":[2147483647,0,0,1,1,2,2,3,3,4,4,5,5,6,6,7,7,8,8,9,9,10,10,11,11,12,12,13,13,14,14],"right_children":[2,4,6,8,10,12,14,16,18,20,22,24,26,28,30,-1,-1,-1,-1,-1,-1,-1,-1,-1,-1,-1,-1,-1,-1,-1,-1],"split_conditions":[1.0716487E0,9.513588E-1,1E0,-1.6557833E-2,1.4222447E0,1E0,-5.010367E-1,-1.6557833E-2,1E0,9.587054E-3,1.6315273E0,9.513588E-1,1.0456188E-1,1.4702004E0,-2.1878803E0,-8.202218E-3,-5.325247E-2,4.3217447E-2,4.9115145E-3,-2.8110126E-2,-7.256465E-2,-7.836148E-2,-1.1011528E-1,8.0350846E-2,-2.4311945E-2,4.1433036E-2,6.682542E-2,-2.181787E-2,1.9197544E-2,1.05345786E-1,3.7666522E-2],"split_indices":[9,4,23,1,4,22,1,36,22,40,4,43,36,9,4,0,0,0,0,0,0,0,0,0,0,0,0,0,0,0,0],"split_type":[0,0,0,0,0,0,0,0,0,0,0,0,0,0,0,0,0,0,0,0,0,0,0,0,0,0,0,0,0,0,0],"sum_hessian":[5.8990312E4,5.202752E4,6.9627935E3,4.2867426E4,9.160092E3,3.763738E3,3.1990554E3,1.7720307E4,2.514712E4,7.442427E3,1.7176653E3,1.6331844E3,2.1305537E3,7.9788336E2,2.4011719E3,1.3151625E4,4.568682E3,6.6900044E3,1.8457115E4,6.4666304E3,9.757963E2,1.302366E3,4.1529926E2,1.6203898E3,1.2794664E1,1.0806165E3,1.0499373E3,3.4403128E2,4.5385208E2,1.4803325E2,2.2531387E3],"tree_param":{"num_deleted":"0","num_feature":"68","num_nodes":"31","size_leaf_vector":"1"}},{"base_weights":[-2.8205712E-4,4.777893E-1,-6.699097E-2,9.06971E-1,3.603694E-1,-2.1128413E-1,1.2700889E-1,9.172462E-1,-1.8778604E-2,6.438125E-1,2.3165293E-1,-1.3423404E-1,-5.3943056E-1,1.8225949E-1,-3.8439262E-1,9.313892E-2,4.8987176E-2,-2.5471602E-2,3.7690125E-2,2.7840659E-2,7.206129E-2,3.4029142E-4,3.8623657E-2,-4.7241123E-3,-6.0112864E-2,-7.189364E-2,-4.507334E-2,2.1952258E-2,-6.952744E-2,-5.1662423E-2,-1.6800033E-2],"categories":[],"categories_nodes":[],"categories_segments":[],"categories_sizes":[],"default_left":[0,0,0,0,0,0,0,0,0,0,0,0,0,0,0,0,0,0,0,0,0,0,0,0,0,0,0,0,0,0,0],"id":36,"left_children":[1,3,5,7,9,11,13,15,17,19,21,23,25,27,29,-1,-1,-1,-1,-1,-1,-1,-1,-1,-1,-1,-1,-1,-1,-1,-1],"loss_changes":[1.8625199E3,3.5875317E2,1.4347732E3,1.4667969E1,2.0441693E2,7.4278125E2,6.180952E2,6.8831787E0,2.50841E0,4.820215E1,1.367189E2,9.6692773E2,8.7340576E1,6.460805E2,6.060898E1,0E0,0E0,0E0,0E0,0E0,0E0,0E0,0E0,0E0,0E0,0E0,0E0,0E0,0E0,0E0,0E0],"parents":[2147483647,0,0,1,1,2,2,3,3,4,4,5,5,6,6,7,7,8,8,9,9,10,10,11,11,12,12,13,13,14,14],"right_children":[2,4,6,8,10,12,14,16,18,20,22,24,26,28,30,-1,-1,-1,-1,-1,-1,-1,-1,-1,-1,-1,-1,-1,-1,-1,-1],"split_conditions":[-1.1937879E0,-2.1878803E0,1.0304439E-2,8.4015274E-1,1E0,1E0,1E0,1.1386399E0,-2.4494836E0,-8.6439586E-1,-1.6557833E-2,1E0,1E0,1E0,1.0456188E-1,9.313892E-2,4.8987176E-2,-2.5471602E-2,3.7690125E-2,2.7840659E-2,7.206129E-2,3.4029142E-4,3.8623657E-2,-4.7241123E-3,-6.0112864E-2,-7.189364E-2,-4.507334E-2,2.1952258E-2,-6.952744E-2,-5.1662423E-2,-1.6800033E-2],"split_indices":[4,4,62,48,22,51,13,42,4,1,1,13,38,15,36,0,0,0,0,0,0,0,0,0,0,0,0,0,0,0,0],"split_type":[0,0,0,0,0,0,0,0,0,0,0,0,0,0,0,0,0,0,0,0,0,0,0,0,0,0,0,0,0,0,0],"sum_hessian":[5.839152E4,7.14633E3,5.124519E4,1.5279385E3,5.6183916E3,2.9387168E4,2.1858023E4,1.5112109E3,1.6727613E1,1.7483622E3,3.8700295E3,2.380476E4,5.5824077E3,1.9729693E4,2.1283306E3,1.4570952E3,5.4115627E1,1.1594995E1,5.132619E0,3.0766434E2,1.4406979E3,1.5647351E3,2.3052944E3,2.0070654E4,3.734106E3,1.8344037E3,3.748004E3,1.8929625E4,8.000678E2,1.3167576E3,8.11573E2],"tree_param":{"num_deleted":"0","num_feature":"68","num_nodes":"31","size_leaf_vector":"1"}},{"base_weights":[-4.557919E-3,1.7535803E-1,-1.8332376E-1,5.20764E-1,9.072666E-2,-4.6683416E-1,-9.012262E-2,7.602286E-1,3.941377E-1,1.2425808E-1,-7.085999E-1,-6.4909375E-1,-3.232603E-1,4.2573723E-1,-1.3996838E-1,9.195831E-2,6.324069E-2,6.515223E-2,2.699664E-2,2.3998173E-2,-1.7829122E-2,-8.073314E-2,-4.9622066E-2,-6.715395E-2,-9.9992845E-3,8.203083E-2,-3.4375694E-2,5.990081E-2,1.9959763E-2,-1.0574868E-2,-8.32442E-2],"categories":[],"categories_nodes":[],"categories_segments":[],"categories_sizes":[],"default_left":[0,0,0,0,0,0,0,0,0,0,0,0,0,0,0,0,0,0,0,0,0,0,0,0,0,0,0,0,0,0,0],"id":37,"left_children":[1,3,5,7,9,11,13,15,17,19,21,23,25,27,29,-1,-1,-1,-1,-1,-1,-1,-1,-1,-1,-1,-1,-1,-1,-1,-1],"loss_changes":[1.8585374E3,8.4165216E2,7.6568024E2,1.7033325E2,6.2060455E2,1.8657214E2,5.613716E2,3.6907227E1,1.1791846E2,7.778662E2,1.7546051E1,3.8541992E1,9.564938E1,7.4786224E1,4.7114764E2,0E0,0E0,0E0,0E0,0E0,0E0,0E0,0E0,0E0,0E0,0E0,0E0,0E0,0E0,0E0,0E0],"parents":[2147483647,0,0,1,1,2,2,3,3,4,4,5,5,6,6,7,7,8,8,9,9,10,10,11,11,12,12,13,13,14,14],"right_children":[2,4,6,8,10,12,14,16,18,20,22,24,26,28,30,-1,-1,-1,-1,-1,-1,-1,-1,-1,-1,-1,-1,-1,-1,-1,-1],"split_conditions":[1E0,-8.275434E-1,1E0,-1.6123532E0,1E0,-1.3767755E-1,-1.9969556E-1,-2.1878803E0,1E0,1E0,1E0,1E0,-2.240201E0,3.453586E-1,1E0,9.195831E-2,6.324069E-2,6.515223E-2,2.699664E-2,2.3998173E-2,-1.7829122E-2,-8.073314E-2,-4.9622066E-2,-6.715395E-2,-9.9992845E-3,8.203083E-2,-3.4375694E-2,5.990081E-2,1.9959763E-2,-1.0574868E-2,-8.32442E-2],"split_indices":[17,4,12,4,15,1,55,4,22,14,24,21,4,33,15,0,0,0,0,0,0,0,0,0,0,0,0,0,0,0,0],"split_type":[0,0,0,0,0,0,0,0,0,0,0,0,0,0,0,0,0,0,0,0,0,0,0,0,0,0,0,0,0,0,0],"sum_hessian":[5.777527E4,2.8795055E4,2.8980215E4,5.661797E3,2.3133258E4,7.164954E3,2.181526E4,1.9496917E3,3.7121052E3,2.220595E4,9.273076E2,3.1493772E3,4.015577E3,1.9188756E3,1.9896385E4,8.5401965E2,1.095672E3,1.2011353E3,2.51097E3,1.6062973E4,6.1429766E3,6.234633E2,3.0384427E2,3.0246238E3,1.2475343E2,6.727002E1,3.948307E3,1.081768E3,8.371077E2,1.8964965E4,9.314207E2],"tree_param":{"num_deleted":"0","num_feature":"68","num_nodes":"31","size_leaf_vector":"1"}},{"base_weights":[-3.9199006E-4,-9.5701784E-2,2.9573396E-1,-2.5282308E-2,-4.3360153E-1,5.905547E-1,1.9827494E-1,2.0638553E-2,-5.7471776E-1,-3.4808716E-1,-8.0293816E-1,7.032106E-1,3.9817247E-1,-1.15985684E-1,2.8700563E-1,1.4116593E-2,-2.509643E-2,4.7014277E-2,-5.907287E-2,-2.7544653E-2,-6.322051E-2,-7.285287E-2,-1.02157846E-1,9.532568E-2,6.3042395E-2,1.5652323E-2,5.3396244E-2,-1.7393572E-2,5.3011548E-2,3.167401E-2,-6.2476296E-2],"categories":[],"categories_nodes":[],"categories_segments":[],"categories_sizes":[],"default_left":[0,0,0,0,0,0,0,0,0,0,0,0,0,0,0,0,0,0,0,0,0,0,0,0,0,0,0,0,0,0,0],"id":38,"left_children":[1,3,5,7,9,11,13,15,17,19,21,23,25,27,29,-1,-1,-1,-1,-1,-1,-1,-1,-1,-1,-1,-1,-1,-1,-1,-1],"loss_changes":[1.6131007E3,1.0287759E3,3.9927136E2,9.029652E2,2.341073E2,7.347766E1,2.920186E2,1.0814591E3,4.7568237E1,1.2427118E2,1.9023376E1,3.653308E1,4.182869E1,8.6878624E1,2.2230603E2,0E0,0E0,0E0,0E0,0E0,0E0,0E0,0E0,0E0,0E0,0E0,0E0,0E0,0E0,0E0,0E0],"parents":[2147483647,0,0,1,1,2,2,3,3,4,4,5,5,6,6,7,7,8,8,9,9,10,10,11,11,12,12,13,13,14,14],"right_children":[2,4,6,8,10,12,14,16,18,20,22,24,26,28,30,-1,-1,-1,-1,-1,-1,-1,-1,-1,-1,-1,-1,-1,-1,-1,-1],"split_conditions":[7.5136924E-1,9.513588E-1,-6.182608E-1,1E0,1.4222447E0,3.453586E-1,-6.221564E-1,1E0,-2.240201E0,1E0,1.6315273E0,-2.1878803E0,-1.3767755E-1,1E0,1E0,1.4116593E-2,-2.509643E-2,4.7014277E-2,-5.907287E-2,-2.7544653E-2,-6.322051E-2,-7.285287E-2,-1.02157846E-1,9.532568E-2,6.3042395E-2,1.5652323E-2,5.3396244E-2,-1.7393572E-2,5.3011548E-2,3.167401E-2,-6.2476296E-2],"split_indices":[59,4,4,49,4,33,1,14,4,51,4,4,1,21,15,0,0,0,0,0,0,0,0,0,0,0,0,0,0,0,0],"split_type":[0,0,0,0,0,0,0,0,0,0,0,0,0,0,0,0,0,0,0,0,0,0,0,0,0,0,0,0,0,0,0],"sum_hessian":[5.7144094E4,4.323277E4,1.3911324E4,3.5781215E4,7.4515547E3,3.4498813E3,1.0461443E4,3.302579E4,2.755426E3,6.0585103E3,1.3930447E3,2.167407E3,1.2824744E3,2.3030642E3,8.158379E3,2.2876457E4,1.0149331E4,3.9445164E1,2.715981E3,4.8327617E3,1.2257483E3,1.0554915E3,3.3755328E2,4.750319E2,1.6923751E3,4.652636E2,8.172108E2,2.1168535E3,1.8621068E2,7.9038823E3,2.5449687E2],"tree_param":{"num_deleted":"0","num_feature":"68","num_nodes":"31","size_leaf_vector":"1"}},{"base_weights":[-6.5186166E-4,1.6404335E-1,-1.6398218E-1,-1.4486435E-1,2.4860804E-1,-2.6505303E-1,6.313902E-2,-3.3206668E-1,5.3954877E-2,2.9741022E-1,-2.1248122E-1,-3.637707E-1,-7.1868114E-2,-1.5414741E-2,4.2645803E-1,-2.2632143E-2,-5.881492E-2,1.0235929E-2,-5.3611066E-2,4.0086593E-2,2.7180782E-3,1.7381316E-2,-2.9831246E-2,6.2752165E-2,-3.795099E-2,-3.7593711E-3,-7.688103E-2,-6.469661E-3,5.4499578E-2,5.1676143E-2,1.0795116E-2],"categories":[],"categories_nodes":[],"categories_segments":[],"categories_sizes":[],"default_left":[0,0,0,0,0,0,0,0,0,0,0,0,0,0,0,0,0,0,0,0,0,0,0,0,0,0,0,0,0,0,0],"id":39,"left_children":[1,3,5,7,9,11,13,15,17,19,21,23,25,27,29,-1,-1,-1,-1,-1,-1,-1,-1,-1,-1,-1,-1,-1,-1,-1,-1],"loss_changes":[1.5227423E3,7.3648157E2,6.525159E2,2.2567383E2,4.9829712E2,3.7498962E2,2.4995523E2,8.3886475E1,8.434786E1,5.5948157E2,7.058452E1,2.0427734E2,1.5890515E2,1.9916357E2,4.450183E1,0E0,0E0,0E0,0E0,0E0,0E0,0E0,0E0,0E0,0E0,0E0,0E0,0E0,0E0,0E0,0E0],"parents":[2147483647,0,0,1,1,2,2,3,3,4,4,5,5,6,6,7,7,8,8,9,9,10,10,11,11,12,12,13,13,14,14],"right_children":[2,4,6,8,10,12,14,16,18,20,22,24,26,28,30,-1,-1,-1,-1,-1,-1,-1,-1,-1,-1,-1,-1,-1,-1,-1,-1],"split_conditions":[1E0,1E0,9.652724E-2,1.0456188E-1,1E0,3.468013E-1,1.4702004E0,3.8325642E-3,1E0,1E0,-7.2290206E-1,-2.240201E0,1E0,1E0,4.8047292E-1,-2.2632143E-2,-5.881492E-2,1.0235929E-2,-5.3611066E-2,4.0086593E-2,2.7180782E-3,1.7381316E-2,-2.9831246E-2,6.2752165E-2,-3.795099E-2,-3.7593711E-3,-7.688103E-2,-6.469661E-3,5.4499578E-2,5.1676143E-2,1.0795116E-2],"split_indices":[17,12,9,1,13,36,9,44,49,38,4,4,15,21,4,0,0,0,0,0,0,0,0,0,0,0,0,0,0,0,0],"split_type":[0,0,0,0,0,0,0,0,0,0,0,0,0,0,0,0,0,0,0,0,0,0,0,0,0,0,0,0,0,0,0],"sum_hessian":[5.6598105E4,2.8181291E4,2.8416814E4,6.055928E3,2.2125363E4,1.9664922E4,8.751893E3,3.1173613E3,2.9385667E3,2.0009328E4,2.1160344E3,1.301158E4,6.6533423E3,7.1999644E3,1.5519276E3,2.2129692E3,9.0439215E2,2.719604E3,2.1896265E2,1.4467946E4,5.541383E3,3.837579E2,1.7322765E3,2.0032426E2,1.2811255E4,6.346502E3,3.068402E2,6.622052E3,5.7791296E2,1.2066926E3,3.45235E2],"tree_param":{"num_deleted":"0","num_feature":"68","num_nodes":"31","size_leaf_vector":"1"}},{"base_weights":[-1.0339081E-3,-8.894841E-2,2.7769867E-1,-5.541161E-2,-7.817229E-1,5.2120143E-1,1.5928932E-1,2.341784E-3,-4.7120777E-1,-8.034985E-1,-2.4838552E-1,7.7127826E-1,4.2640534E-1,-3.7681825E-2,2.87074E-1,1.4859403E-2,-2.8018063E-2,-2.7875183E-2,-5.686391E-2,7.226196E-3,-8.12774E-2,-6.92189E-2,6.357487E-3,8.277619E-2,5.0685436E-2,7.157029E-3,4.9552333E-2,-3.5515588E-2,4.7952086E-3,3.2675523E-2,-3.227432E-2],"categories":[],"categories_nodes":[],"categories_segments":[],"categories_sizes":[],"default_left":[0,0,0,0,0,0,0,0,0,0,0,0,0,0,0,0,0,0,0,0,0,0,0,0,0,0,0,0,0,0,0],"id":40,"left_children":[1,3,5,7,9,11,13,15,17,19,21,23,25,27,29,-1,-1,-1,-1,-1,-1,-1,-1,-1,-1,-1,-1,-1,-1,-1,-1],"loss_changes":[1.375288E3,9.9106714E2,3.8759912E2,9.7739795E2,2.1877563E1,1.0268042E2,2.2813313E2,1.4770768E3,9.228711E1,1.5647949E1,1.1919395E1,1.5876587E1,7.835968E1,9.714012E1,1.3353598E2,0E0,0E0,0E0,0E0,0E0,0E0,0E0,0E0,0E0,0E0,0E0,0E0,0E0,0E0,0E0,0E0],"parents":[2147483647,0,0,1,1,2,2,3,3,4,4,5,5,6,6,7,7,8,8,9,9,10,10,11,11,12,12,13,13,14,14],"right_children":[2,4,6,8,10,12,14,16,18,20,22,24,26,28,30,-1,-1,-1,-1,-1,-1,-1,-1,-1,-1,-1,-1,-1,-1,-1,-1],"split_conditions":[1.8261605E-3,1E0,1E0,1E0,1.3844235E0,-6.182608E-1,-1.6557833E-2,1E0,1E0,-2.240201E0,-1.6557833E-2,1E0,1E0,1E0,1.1606414E0,1.4859403E-2,-2.8018063E-2,-2.7875183E-2,-5.686391E-2,7.226196E-3,-8.12774E-2,-6.92189E-2,6.357487E-3,8.277619E-2,5.0685436E-2,7.157029E-3,4.9552333E-2,-3.5515588E-2,4.7952086E-3,3.2675523E-2,-3.227432E-2],"split_indices":[56,15,22,13,9,4,1,14,23,4,1,14,12,12,4,0,0,0,0,0,0,0,0,0,0,0,0,0,0,0,0],"split_type":[0,0,0,0,0,0,0,0,0,0,0,0,0,0,0,0,0,0,0,0,0,0,0,0,0,0,0,0,0,0,0],"sum_hessian":[5.6113543E4,4.2661246E4,1.3452297E4,4.069655E4,1.9646956E3,4.395718E3,9.056579E3,3.5737625E4,4.958925E3,1.8851925E3,7.950302E1,1.1984547E3,3.1972632E3,3.5649631E3,5.491615E3,2.3549316E4,1.218831E4,1.6731868E3,3.2857383E3,1.9401669E1,1.8657909E3,3.030133E1,4.9201687E1,9.7873474E2,2.1972E2,5.229159E2,2.6743474E3,7.53977E2,2.8109863E3,5.158283E3,3.3333215E2],"tree_param":{"num_deleted":"0","num_feature":"68","num_nodes":"31","size_leaf_vector":"1"}},{"base_weights":[-1.3509009E-4,-4.060488E-2,5.678666E-1,4.4822346E-2,-3.048226E-1,6.0104096E-1,-7.612562E-2,3.3671394E-1,-3.357478E-2,-5.5511826E-1,-2.1772616E-1,6.3722324E-1,1.3133404E-1,1.261303E-2,-9.0591975E-2,8.310651E-2,2.730602E-2,-3.7943674E-4,-7.058864E-2,-3.5250567E-2,-6.398949E-2,1.664752E-2,-2.6560456E-2,7.2554365E-2,4.8250824E-2,3.4349106E-2,-2.9648844E-2,-4.874135E-2,1.5806133E-2],"categories":[],"categories_nodes":[],"categories_segments":[],"categories_sizes":[],"default_left":[0,0,0,0,0,0,0,0,0,0,0,0,0,0,0,0,0,0,0,0,0,0,0,0,0,0,0,0,0],"id":41,"left_children":[1,3,5,7,9,11,13,15,17,19,21,23,25,27,-1,-1,-1,-1,-1,-1,-1,-1,-1,-1,-1,-1,-1,-1,-1],"loss_changes":[1.2759048E3,1.1695819E3,7.909888E1,8.961468E2,2.7538477E2,5.9258423E1,1.3701285E1,2.5976465E2,6.181118E2,5.495331E1,1.7313708E2,4.278186E1,2.3876122E1,1.2918063E1,0E0,0E0,0E0,0E0,0E0,0E0,0E0,0E0,0E0,0E0,0E0,0E0,0E0,0E0,0E0],"parents":[2147483647,0,0,1,1,2,2,3,3,4,4,5,5,6,6,7,7,8,8,9,9,10,10,11,11,12,12,13,13],"right_children":[2,4,6,8,10,12,14,16,18,20,22,24,26,28,-1,-1,-1,-1,-1,-1,-1,-1,-1,-1,-1,-1,-1,-1,-1],"split_conditions":[1E0,7.432761E-1,1.1606414E0,-6.182608E-1,1E0,1E0,1.6315273E0,-2.1878803E0,1E0,1E0,-1.1937879E0,1.3767755E-1,3.7991697E-1,1E0,-9.0591975E-2,8.310651E-2,2.730602E-2,-3.7943674E-4,-7.058864E-2,-3.5250567E-2,-6.398949E-2,1.664752E-2,-2.6560456E-2,7.2554365E-2,4.8250824E-2,3.4349106E-2,-2.9648844E-2,-4.874135E-2,1.5806133E-2],"split_indices":[21,6,4,4,12,13,4,4,15,23,4,6,6,12,0,0,0,0,0,0,0,0,0,0,0,0,0,0,0],"split_type":[0,0,0,0,0,0,0,0,0,0,0,0,0,0,0,0,0,0,0,0,0,0,0,0,0,0,0,0,0],"sum_hessian":[5.5495703E4,5.1808984E4,3.686717E3,3.915386E4,1.2655126E4,3.506422E3,1.8029488E2,8.286124E3,3.0867734E4,3.2599348E3,9.395191E3,3.2539795E3,2.5244261E2,1.6732504E2,1.2969835E1,9.3835345E2,7.347771E3,2.9563242E4,1.3044917E3,9.6925256E2,2.2906824E3,1.039701E3,8.35549E3,2.0597222E3,1.1942573E3,1.6941525E2,8.302737E1,3.50553E1,1.3226973E2],"tree_param":{"num_deleted":"0","num_feature":"68","num_nodes":"29","size_leaf_vector":"1"}},{"base_weights":[-5.1937316E-4,-4.9924858E-2,4.4047728E-1,-2.056484E-2,-7.1071553E-1,6.3896525E-1,3.279487E-1,4.7123034E-2,-3.4794155E-1,-5.207242E-1,-8.020712E-1,4.680763E-1,7.2835255E-1,4.5713103E-1,1.5197428E-1,1.2494768E-2,-4.3086495E-2,-2.2013497E-2,-5.2348565E-2,-5.6335848E-2,2.3686375E-2,5.498201E-3,-8.098929E-2,4.9388792E-2,-4.854644E-2,7.8173384E-2,5.099185E-2,2.9133698E-2,5.8613665E-2,1.1240408E-2,7.991752E-2],"categories":[],"categories_nodes":[],"categories_segments":[],"categories_sizes":[],"default_left":[0,0,0,0,0,0,0,0,0,0,0,0,0,0,0,0,0,0,0,0,0,0,0,0,0,0,0,0,0,0,0],"id":42,"left_children":[1,3,5,7,9,11,13,15,17,19,21,23,25,27,29,-1,-1,-1,-1,-1,-1,-1,-1,-1,-1,-1,-1,-1,-1,-1,-1],"loss_changes":[1.2014792E3,9.6200116E2,1.2303906E2,1.0523202E3,3.4524902E1,2.8919128E1,8.0485596E1,1.4641908E3,1.8196857E2,2.3251175E1,9.709778E0,1.848906E1,1.3250122E1,4.2950043E1,3.8292564E1,0E0,0E0,0E0,0E0,0E0,0E0,0E0,0E0,0E0,0E0,0E0,0E0,0E0,0E0,0E0,0E0],"parents":[2147483647,0,0,1,1,2,2,3,3,4,4,5,5,6,6,7,7,8,8,9,9,10,10,11,11,12,12,13,13,14,14],"right_children":[2,4,6,8,10,12,14,16,18,20,22,24,26,28,30,-1,-1,-1,-1,-1,-1,-1,-1,-1,-1,-1,-1,-1,-1,-1,-1],"split_conditions":[1.1345224E0,9.19116E-5,1E0,1E0,1E0,-1.6557833E-2,1E0,1E0,4.2815226E-1,1E0,-2.1878803E0,9.19116E-5,1E0,1.6278375E0,4.8710895E0,1.2494768E-2,-4.3086495E-2,-2.2013497E-2,-5.2348565E-2,-5.6335848E-2,2.3686375E-2,5.498201E-3,-8.098929E-2,4.9388792E-2,-4.854644E-2,7.8173384E-2,5.099185E-2,2.9133698E-2,5.8613665E-2,1.1240408E-2,7.991752E-2],"split_indices":[9,47,22,51,23,1,17,13,43,21,46,47,14,9,28,0,0,0,0,0,0,0,0,0,0,0,0,0,0,0,0],"split_type":[0,0,0,0,0,0,0,0,0,0,0,0,0,0,0,0,0,0,0,0,0,0,0,0,0,0,0,0,0,0,0],"sum_hessian":[5.5134914E4,4.9584344E4,5.550571E3,4.747989E4,2.104454E3,1.9997836E3,3.550787E3,3.934853E4,8.131358E3,6.9421136E2,1.4102428E3,6.974996E2,1.3022839E3,2.0430217E3,1.5077653E3,3.3842145E4,5.506388E3,4.7120063E3,3.4193518E3,6.584387E2,3.577265E1,1.2481122E1,1.3977617E3,6.8146313E2,1.6036446E1,1.0361691E3,2.6611493E2,9.011647E2,1.141857E3,1.4264215E3,8.134375E1],"tree_param":{"num_deleted":"0","num_feature":"68","num_nodes":"31","size_leaf_vector":"1"}},{"base_weights":[7.3974725E-4,1.4659598E-1,-1.442274E-1,1.851774E-1,-4.0284094E-1,-8.194537E-2,-4.4290853E-1,6.793307E-2,3.4546134E-1,-2.33634E-1,-6.839904E-1,-1.8326077E-1,1.0041853E-1,-3.6227047E-1,-7.9971933E-1,9.520431E-3,-6.0935386E-2,2.9374948E-2,7.143282E-2,-5.8486104E-2,-1.1597566E-2,-5.7213165E-2,-1.02718525E-1,-2.0423366E-2,6.649041E-2,6.407471E-3,6.305632E-2,-3.812336E-2,5.495536E-2,-7.284278E-2,-1.016011E-1],"categories":[],"categories_nodes":[],"categories_segments":[],"categories_sizes":[],"default_left":[0,0,0,0,0,0,0,0,0,0,0,0,0,0,0,0,0,0,0,0,0,0,0,0,0,0,0,0,0,0,0],"id":43,"left_children":[1,3,5,7,9,11,13,15,17,19,21,23,25,27,29,-1,-1,-1,-1,-1,-1,-1,-1,-1,-1,-1,-1,-1,-1,-1,-1],"loss_changes":[1.1503577E3,5.752492E2,5.073988E2,4.7614453E2,8.3924774E1,4.1735654E2,1.3397925E2,2.7075378E2,2.0315234E2,4.5919994E1,2.2649506E1,2.5896426E2,1.5526698E2,6.758923E1,9.614563E0,0E0,0E0,0E0,0E0,0E0,0E0,0E0,0E0,0E0,0E0,0E0,0E0,0E0,0E0,0E0,0E0],"parents":[2147483647,0,0,1,1,2,2,3,3,4,4,5,5,6,6,7,7,8,8,9,9,10,10,11,11,12,12,13,13,14,14],"right_children":[2,4,6,8,10,12,14,16,18,20,22,24,26,28,30,-1,-1,-1,-1,-1,-1,-1,-1,-1,-1,-1,-1,-1,-1,-1,-1],"split_conditions":[1E0,1.1606414E0,9.513588E-1,1.0456188E-1,1.4222447E0,3.468013E-1,1.4222447E0,9.19116E-5,1.2247382E0,1.3176033E0,1.6315273E0,1E0,1E0,1E0,1.6315273E0,9.520431E-3,-6.0935386E-2,2.9374948E-2,7.143282E-2,-5.8486104E-2,-1.1597566E-2,-5.7213165E-2,-1.02718525E-1,-2.0423366E-2,6.649041E-2,6.407471E-3,6.305632E-2,-3.812336E-2,5.495536E-2,-7.284278E-2,-1.016011E-1],"split_indices":[17,4,4,36,4,36,4,47,9,4,4,20,21,20,4,0,0,0,0,0,0,0,0,0,0,0,0,0,0,0,0],"split_type":[0,0,0,0,0,0,0,0,0,0,0,0,0,0,0,0,0,0,0,0,0,0,0,0,0,0,0,0,0,0,0],"sum_hessian":[5.4394938E4,2.7114295E4,2.7280645E4,2.5338352E4,1.7759419E3,2.2578805E4,4.70184E3,1.4638048E4,1.0700305E4,1.114404E3,6.615378E2,1.4514821E4,8.063984E3,3.8433352E3,8.585044E2,1.4075585E4,5.6246216E2,9.392536E3,1.3077683E3,2.7465756E2,8.397465E2,5.0897958E2,1.5255823E2,1.4168273E4,3.4654803E2,7.5518735E3,5.121108E2,3.7678843E3,7.545089E1,6.621072E2,1.963972E2],"tree_param":{"num_deleted":"0","num_feature":"68","num_nodes":"31","size_leaf_vector":"1"}},{"base_weights":[-1.1791807E-3,-2.5594807E-1,7.3381245E-2,-4.056251E-1,-9.380605E-2,3.018114E-1,-9.015533E-3,-2.0062982E-1,-5.042523E-1,6.9074575E-3,-3.343525E-1,2.4259494E-1,7.5315374E-1,-2.2961347E-1,6.024932E-2,-8.28578E-3,-4.639799E-2,-5.998655E-2,-3.3798356E-2,5.421366E-3,-7.1568936E-2,-3.6499284E-2,2.7415652E-2,1.0762964E-2,5.752619E-2,4.0435243E-2,8.024736E-2,-2.467994E-2,6.3657485E-2,-4.60946E-3,2.0423893E-2],"categories":[],"categories_nodes":[],"categories_segments":[],"categories_sizes":[],"default_left":[0,0,0,0,0,0,0,0,0,0,0,0,0,0,0,0,0,0,0,0,0,0,0,0,0,0,0,0,0,0,0],"id":44,"left_children":[1,3,5,7,9,11,13,15,17,19,21,23,25,27,29,-1,-1,-1,-1,-1,-1,-1,-1,-1,-1,-1,-1,-1,-1,-1,-1],"loss_changes":[1.0305729E3,2.9790344E2,7.899721E2,1.2859607E2,1.4300623E2,2.9644916E2,4.7143497E2,6.439789E1,6.747168E1,1.4258156E2,3.298073E1,4.416225E2,2.0535767E1,1.1053711E2,3.5960577E2,0E0,0E0,0E0,0E0,0E0,0E0,0E0,0E0,0E0,0E0,0E0,0E0,0E0,0E0,0E0,0E0],"parents":[2147483647,0,0,1,1,2,2,3,3,4,4,5,5,6,6,7,7,8,8,9,9,10,10,11,11,12,12,13,13,14,14],"right_children":[2,4,6,8,10,12,14,16,18,20,22,24,26,28,30,-1,-1,-1,-1,-1,-1,-1,-1,-1,-1,-1,-1,-1,-1,-1,-1],"split_conditions":[1E0,1.0456188E-1,1E0,1E0,1E0,1E0,-6.221564E-1,1E0,6.3724667E-3,1E0,1E0,1E0,-1.1066352E0,5.018501E0,-1.0949104E-4,-8.28578E-3,-4.639799E-2,-5.998655E-2,-3.3798356E-2,5.421366E-3,-7.1568936E-2,-3.6499284E-2,2.7415652E-2,1.0762964E-2,5.752619E-2,4.0435243E-2,8.024736E-2,-2.467994E-2,6.3657485E-2,-4.60946E-3,2.0423893E-2],"split_indices":[12,1,22,23,14,20,1,14,62,15,21,21,1,28,62,0,0,0,0,0,0,0,0,0,0,0,0,0,0,0,0],"split_type":[0,0,0,0,0,0,0,0,0,0,0,0,0,0,0,0,0,0,0,0,0,0,0,0,0,0,0,0,0,0,0],"sum_hessian":[5.4243082E4,1.2277925E4,4.1965156E4,6.380463E3,5.8974624E3,1.1120969E4,3.0844188E4,2.0775261E3,4.302937E3,4.160411E3,1.7370509E3,9.837914E3,1.2830546E3,7.3676807E3,2.3476508E4,1.4400836E3,6.374424E2,2.7236555E3,1.5792815E3,3.9091182E3,2.5129315E2,1.655683E3,8.1367874E1,7.0032603E3,2.8346538E3,1.646443E2,1.1184103E3,7.227849E3,1.3983142E2,1.3505432E4,9.971075E3],"tree_param":{"num_deleted":"0","num_feature":"68","num_nodes":"31","size_leaf_vector":"1"}},{"base_weights":[-2.1277415E-3,-4.480529E-2,4.2958364E-1,-1.0696207E-2,-5.072478E-1,5.605127E-1,2.8834575E-1,8.4134005E-2,-2.333456E-1,5.6726897E-1,-5.205529E-1,6.186336E-1,3.2343492E-1,3.3660805E-1,-1.4404307E-1,1.3161956E-2,-6.3820995E-2,-4.699203E-2,-1.54381795E-2,7.1969606E-2,-2.7040148E-2,-5.3507674E-2,3.496667E-2,6.497397E-2,1.4738465E-2,3.5123568E-2,-3.6593415E-2,-6.9666803E-3,3.798043E-2,-4.5449134E-2,-1.6341516E-3],"categories":[],"categories_nodes":[],"categories_segments":[],"categories_sizes":[],"default_left":[0,0,0,0,0,0,0,0,0,0,0,0,0,0,0,0,0,0,0,0,0,0,0,0,0,0,0,0,0,0,0],"id":45,"left_children":[1,3,5,7,9,11,13,15,17,19,21,23,25,27,29,-1,-1,-1,-1,-1,-1,-1,-1,-1,-1,-1,-1,-1,-1,-1,-1],"loss_changes":[9.891776E2,7.706387E2,8.850885E1,9.609328E2,4.945642E1,3.3463684E1,4.894481E1,1.0952374E3,2.5358832E2,6.5196476E0,4.286664E1,2.888617E1,1.0281235E1,3.700354E1,9.392011E0,0E0,0E0,0E0,0E0,0E0,0E0,0E0,0E0,0E0,0E0,0E0,0E0,0E0,0E0,0E0,0E0],"parents":[2147483647,0,0,1,1,2,2,3,3,4,4,5,5,6,6,7,7,8,8,9,9,10,10,11,11,12,12,13,13,14,14],"right_children":[2,4,6,8,10,12,14,16,18,20,22,24,26,28,30,-1,-1,-1,-1,-1,-1,-1,-1,-1,-1,-1,-1,-1,-1,-1,-1],"split_conditions":[1.2046472E0,1E0,1E0,1E0,-2.240201E0,4.2815226E-1,9.513588E-1,9.19116E-5,1E0,1.5253148E0,1E0,1.8261605E-3,1.4222447E0,-1.3488747E0,1E0,1.3161956E-2,-6.3820995E-2,-4.699203E-2,-1.54381795E-2,7.1969606E-2,-2.7040148E-2,-5.3507674E-2,3.496667E-2,6.497397E-2,1.4738465E-2,3.5123568E-2,-3.6593415E-2,-6.9666803E-3,3.798043E-2,-4.5449134E-2,-1.6341516E-3],"split_indices":[9,49,23,14,4,4,4,47,12,32,20,41,4,1,12,0,0,0,0,0,0,0,0,0,0,0,0,0,0,0,0],"split_type":[0,0,0,0,0,0,0,0,0,0,0,0,0,0,0,0,0,0,0,0,0,0,0,0,0,0,0,0,0,0,0],"sum_hessian":[5.3678285E4,4.8853293E4,4.8249927E3,4.550223E4,