tree
version=v4
num_class=1
num_tree_per_iteration=1
label_index=0
max_feature_idx=67
objective=binary sigmoid:1
feature_names=slope_st age blood_pressure cholesterol max_hr st_depression pred_max_hr hr_ratio hr_deficit st_per_hr st_x_hr_ratio risk_count sex_male chest_pain_atypical_angina chest_pain_non-anginal_pain chest_pain_typical_angina rest_blood_sugar_true ekg_normal ekg_st-t_wave_abnormality exercise_angina_True number_vessels_three number_vessels_two number_vessels_zero thallium_normal thallium_reversible_defect cholesterol__sq blood_pressure__sq st_depression__sq max_hr__sq cholesterol__log1p blood_pressure__log1p st_depression__log1p cholesterol_over_blood_pressure st_depression_over_max_hr max_hr_over_age slope_st__sq age_x_sex__age__x__sex_male sex_x_chest_pain__sex_male__x__chest_pain_atypical_angina sex_x_chest_pain__sex_male__x__chest_pain_non-anginal_pain sex_x_chest_pain__sex_male__x__chest_pain_typical_angina chest_pain_x_max_hr__chest_pain_atypical_angina__x__max_hr chest_pain_x_max_hr__chest_pain_atypical_angina__x__max_hr__sq chest_pain_x_max_hr__chest_pain_atypical_angina__x__max_hr_over_age chest_pain_x_max_hr__chest_pain_non-anginal_pain__x__max_hr chest_pain_x_max_hr__chest_pain_non-anginal_pain__x__max_hr__sq chest_pain_x_max_hr__chest_pain_non-anginal_pain__x__max_hr_over_age chest_pain_x_max_hr__chest_pain_typical_angina__x__max_hr chest_pain_x_max_hr__chest_pain_typical_angina__x__max_hr__sq chest_pain_x_max_hr__chest_pain_typical_angina__x__max_hr_over_age chest_pain_x_thallium__chest_pain_atypical_angina__x__thallium_normal chest_pain_x_thallium__chest_pain_atypical_angina__x__thallium_reversible_defect chest_pain_x_thallium__chest_pain_non-anginal_pain__x__thallium_normal chest_pain_x_thallium__chest_pain_non-anginal_pain__x__thallium_reversible_defect chest_pain_x_thallium__chest_pain_typical_angina__x__thallium_normal chest_pain_x_thallium__chest_pain_typical_angina__x__thallium_reversible_defect max_hr_x_exercise_angina__max_hr__x__exercise_angina_True max_hr_x_exercise_angina__max_hr__sq__x__exercise_angina_True max_hr_x_exercise_angina__max_hr_over_age__x__exercise_angina_True exercise_angina_x_slope_st__exercise_angina_True__x__slope_st exercise_angina_x_slope_st__exercise_angina_True__x__slope_st__sq st_depression_x_slope_st__st_depression__x__slope_st st_depression_x_slope_st__st_depression__x__slope_st__sq st_depression_x_slope_st__st_depression__sq__x__slope_st st_depression_x_slope_st__st_depression__sq__x__slope_st__sq st_depression_x_slope_st__st_depression__log1p__x__slope_st st_depression_x_slope_st__st_depression__log1p__x__slope_st__sq st_depression_x_slope_st__st_depression_over_max_hr__x__slope_st st_depression_x_slope_st__st_depression_over_max_hr__x__slope_st__sq
monotone_constraints=0 0 0 0 0 1 0 0 0 0 0 0 0 0 0 0 0 0 0 1 1 1 1 0 0 0 0 1 0 0 0 1 0 1 0 0 0 0 0 0 0 0 0 0 0 0 0 0 0 0 0 0 0 0 0 0 0 0 1 1 1 1 1 1 1 1 1 1
feature_infos=[-0.86681557201768922:1.7366527556361677] [-3.0445506722774853:2.7691955774945489] [-2.4370956809477464:4.6409949842532159] [-3.5334418622868156:9.4707085657215639] [-4.2807064739434493:2.5732990397431035] [-0.76522601095464804:3.1124217054232859] [-2.7691955774945489:3.0445506722774853] [-4.4726595348712879:3.5132506452565324] [-3.2414642314542501:5.0308150293817278] [-0.73140610098879333:9.253407969270917] [-0.75127511261617952:7.3643038871483721] [-1.4573132079948397:3.1192952521086572] [0:1] [0:1] [0:1] [0:1] [0:1] [0:1] [0:1] [0:1] [0:1] [0:1] [0:1] [0:1] [0:1] [1.2303557049466647e-07:89.694320736831799] [0.0011032915212894198:21.538834443863507] [0.00012631410931831762:9.6871688723899947] [9.1911598793846329e-05:18.324447916061359] [0:2.3485816984016687] [0:1.7300604655982903] [0:1.4140120777153158] [-285.12633538210588:85.81978263355802] [-79.818684059528522:324.64840610328343] [-155.41278299732704:258.53058507208783] [0.75136923589235372:3.0159627936586948] [-3.0445506722774853:2.7691955774945489] [0:1] [0:1] [0:1] [-4.2807064739434493:2.5732990397431035] [0:18.324447916061359] [-155.41278299732704:182.69363214334007] [-4.2807064739434493:2.5732990397431035] [0:18.324447916061359] [-155.41278299732704:204.81274341422485] [-4.2807064739434493:2.5732990397431035] [0:18.324447916061359] [-155.41278299732704:179.53375910464229] [0:1] [0:1] [0:1] [0:1] [0:1] [0:1] [-4.2807064739434493:2.5732990397431035] [0:18.324447916061359] [-123.8140526103488:258.53058507208783] [-0.86681557201768922:1.7366527556361677] [0:3.0159627936586948] [-2.6978956009467572:5.4051957314251702] [-2.3078931777790794:9.3869480617323724] [-8.3969888273526863:16.823248516548993] [9.4908535800927545e-05:29.216140895016878] [-1.2256876879847227:2.4556479712671262] [0:4.2646078161734193] [-281.41029384104871:563.80154907215683] [-240.73018136233637:979.1275138281012]
tree_sizes=5443 5511 5535 5523 5548 5505 5526 5501 5530 5520 5501 5526 5521 5522 5510 5516 5520 5526 5539 5512 5518 5515 5521 5529 5527 5528 5526 5536 5524 5497 5533 5534 5517 5532 5511 5489 5537 5516 5543 5540 5549 5539 5551 5541 5532 5552 5547 5548 5525 5538 5497 5547 5525 5545 5544 5530 5573 5561 5528 5562 5556 5547 5538 5554 5560 5541 5530 5569 5535 5522 5510 5543 5543 5535 5546 5526 5558 5524 5533 5524 5507 5521 5550 5545 5517 5559 5535 5498 5520 5542 5525 5522 5537 5535 5575 5538 5558 5506 5491 5499 5572 5548 5518 5558 5543 5579 5556 5519 5537 5536 5543 5536 5517 5553 5525 5543 5563 5562 5553 5545 5552 5549 5542 5562 5526 5552 5566 5550 5504 5541 5592 5581 5553 5588 5543 5570 5517 5538 5553 5543 5583 5560 5536 5537 5569 5586 5531 5537 5547 5563 5564 5553 5557 5554 5549 5528 5530 5539 5570 5551 5576 5526 5516 5566 5561 5576 5549 5545 5607 5566 5553 5545 5573 5561 5544 5560 5559 5525 5521 5567 5565 5560 5547 5562 5574 5546 5549 5557 5560 5550 5548 5573 5534 5527 5556 5564 5572 5556 5566 5558 5583 5585 5549 5549 5540 5551 5551 5573 5560 5545 5558 5560 5559 5564 5571 5549 5528 5539 5555 5556 5535 5553 5561 5555 5551 5561 5530 5546 5545 5572 5537 5541 5555 5533 5542 5556 5566 5567 5547 5538 5531 5533 5536 5539 5576 5543 5551 5536 5534 5545 5524 5568 5567 5552 5535 5525 5551 5507 5549 5541 5550 5551 5531 5552 5572 5542 5550 5537 5499 5561 5557 5535 5538 5532 5534 5563 5541 5506 5520 5502 5507 5539 5543 5534 5534 5518 5543 5517 5530 5523 5519 5507 5534 5547 5541 5525 5544 5529 5513 5534 5549 5547 5525 5489 5544 5561 5512 5547 5530 5531 5548 5534 5499 5537 5522 5546 5525 5540 5540 5497 5555 5540 5515 5526 5527 5524 5512 5534 5526 5519 5525 5556 5488 5536 5538 5496 5506 5544 5523 5547 5528 5521 5518 5539 5510 5535 5523 5514 5529 5535 5540 5508 5536 5494 5515 5530 5512 5549 5512 5543 5500 5528 5502 5499 5494 5508 5496 5525 5516 5498 5540 5534 5506 5494 5497 5515 5506 5513 5527 5485 5510 5543 5480 5548 5528 5514 5535 5489 5497 5495 5533 5503 5537 5487 5486 5514 5475 5489 5489 5506 5526 5518 5505 5509 5496 5497 5496 5535 5511 5502 5545 5492 5503 5498 5525 5487 5534 5543 5523 5501 5505 5496 5504 5516 5512 5524 5507 5493 5495 5530 5507 5493 5516 5504 5532 5516 5521 5484 5497 5459 5481 5513 5498 5502 5452 5469 5520 5473 5428 5485 5515 5489 5478 5491 5470 5465 5473 5478 5523 5472 5468 5505 5516 5502 5485 5490 5492 5517 5508 5478 5513 5524 5469 5491 5469 5467 5482 5458 5494 5477 5525 5516 5487 5502 5474 5500 5525 5495 5518 5484 5448 5457 5485 5492 5447 5440 5457 5501 5508 5495 5473 5481 5483 5505 5481 5488 5447 5465 5424 5489 5463 5476 5474 5504 5440 5481 5498 5446 5494 5487 5460 5481 5432 5474 5489 5457 5442 5406 5451 5484 5495 5487 5509 5509 5479 5473 5454 5506 5473 5487 5433 5458 5407 5446 5464 5461 5429 5496 5404 5478 5488 5457 5477 5428 5479 5443 5428 5382 5455 5519 5444 5467 5448 5483 5442 5449 5445 5454 5475 5422 5477 5431 5473 5478 5460 5410 5398 5451 5467 5407 5461 5506 5468 5467 5465 5454 5460 5458 5457 5413 5439 5412 5467 5434 5439 5433 5491 5453 5456 5431

Tree=0
num_leaves=48
num_cat=0
split_feature=23 64 43 55 9 19 55 4 4 40 36 67 62 36 14 13 14 4 15 21 11 13 36 21 19 14 4 4 21 14 13 15 19 13 40 15 40 15 4 14 15 21 66 15 66 14 62
split_gain=195841 28968.1 13429.8 10826 7957.68 5005.19 4861.27 4795.97 3047.51 3016.8 2706.17 2246.23 1957.01 1787.14 1720.3 1694.48 1539.11 1183.02 1119.67 977.789 964.337 943.02 922.141 867.719 803.183 789.313 784.796 783.025 758.517 696.165 824.772 766.924 693.482 677.229 672.038 589.967 584.545 537.614 527.671 519.408 477.028 408.453 397.61 384.181 378.977 372.848 331.646
threshold=1.0000000180025095e-35 0.25313935476860844 1.0000000180025095e-35 -1.0000000180025095e-35 0.17799382715749448 1.0000000180025095e-35 -1.0000000180025095e-35 -0.64442110599524016 0.40199194952942435 1.0000000180025095e-35 1.0000000180025095e-35 1.0106277055051252 1.0000000180025095e-35 1.0000000180025095e-35 1.0000000180025095e-35 1.0000000180025095e-35 1.0000000180025095e-35 -0.64442110599524016 1.0000000180025095e-35 1.0000000180025095e-35 0.44960698371495067 1.0000000180025095e-35 1.0000000180025095e-35 1.0000000180025095e-35 1.0000000180025095e-35 1.0000000180025095e-35 0.40199194952942435 -0.80138306432393991 1.0000000180025095e-35 1.0000000180025095e-35 1.0000000180025095e-35 1.0000000180025095e-35 1.0000000180025095e-35 1.0000000180025095e-35 1.0000000180025095e-35 1.0000000180025095e-35 1.0000000180025095e-35 1.0000000180025095e-35 0.45431260230565756 1.0000000180025095e-35 1.0000000180025095e-35 1.0000000180025095e-35 -0.75445331194268306 1.0000000180025095e-35 -0.30313056117964082 1.0000000180025095e-35 -0.024202064047997483
decision_type=2 2 2 2 2 2 2 2 2 2 2 2 2 2 2 2 2 2 2 2 2 2 2 2 2 2 2 2 2 2 2 2 2 2 2 2 2 2 2 2 2 2 2 2 2 2 2
left_child=2 3 4 16 5 9 -3 13 23 12 19 24 17 25 15 18 21 45 26 29 34 35 40 27 -4 33 -12 -8 -10 30 31 32 38 37 43 42 -7 44 -9 -15 41 -19 -2 46 -5 -1 -6
right_child=1 6 11 7 20 36 8 10 28 -11 14 -13 -14 39 -16 -17 -18 22 -20 -21 -22 -23 -24 -25 -26 -27 -28 -29 -30 -31 -32 -33 -34 -35 -36 -37 -38 -39 -40 -41 -42 -43 -44 -45 -46 -47 -48
leaf_value=-0.17901459439557052 -0.19724493966427639 -0.1703030739638777 -0.22236648868927553 -0.21786332982711723 -0.18062989040556998 -0.17096384182970131 -0.18301882992703319 -0.2281494425125325 -0.21973230290169216 -0.22511365418875942 -0.20500626664763166 -0.18633297737634447 -0.17901459439557052 -0.20183270877415826 -0.23707625924326989 -0.23774555141367024 -0.22035113727219105 -0.20714497047387589 -0.24030299942482045 -0.21742677063794916 -0.16560759591706467 -0.22111119218775727 -0.19064548196998474 -0.17097450059431135 -0.19953405950266773 -0.23522990266338245 -0.22053983398760205 -0.20183270877415826 -0.1840901727581051 -0.24172591384448189 -0.24186426684334575 -0.24253900643504792 -0.21973230290169216 -0.23536932263764024 -0.20825756848832064 -0.22859812011588981 -0.20253186572306756 -0.23887350814828967 -0.23704851765121634 -0.22026593566155581 -0.23477967257709068 -0.17901459439557052 -0.1753910066961599 -0.20427084440984322 -0.20183270877415826 -0.19772214072223221 -0.170007707166316
leaf_weight=1648.4625608474016 432.08763597905636 2081.5395216941833 2898.2272000014782 810.00973545014858 1526.5282709002495 8102.8179978877306 1189.1684910058975 4761.1259259283543 3686.4717883616686 993.77682963013649 2387.7355682551861 1232.2041227519512 4860.3057439178228 1353.6437502652407 5522.6587428599596 2191.1072507947683 772.16805925965309 2699.867564022541 855.02401693165302 750.65024338662624 20210.423060327768 294.81881058216095 2298.4489989429712 574.79774814844131 781.56664550304413 1765.6975576728582 2855.9335619062185 3450.7651386260986 254.00915978848934 19936.874734401703 7910.641642332077 3240.0389418005943 1151.5741460323334 655.92238730192184 223.3400888890028 105.85776084661484 242.13726137578487 253.51449735462666 6115.7590010613203 610.16611216962337 232.73867513239384 196.62831746041775 1477.8040211647749 154.33467936515808 850.57205502688885 515.43825608491898 5420.0162878334522
leaf_count=6665 1747 8416 11718 3275 6172 32761 4808 19250 14905 4018 9654 4982 19651 5473 22329 8859 3122 10916 3457 3035 81714 1192 9293 2324 3160 7139 11547 13952 1027 80608 31984 13100 4656 2652 903 428 979 1025 24727 2467 941 795 5975 624 3439 2084 21914
internal_value=-0.207363 -0.227597 -0.178153 -0.232577 -0.175012 -0.184045 -0.19788 -0.234343 -0.204155 -0.1916 -0.236153 -0.209689 -0.188923 -0.217771 -0.228428 -0.222662 -0.19788 -0.195271 -0.217427 -0.238585 -0.167865 -0.187757 -0.20026 -0.194126 -0.217516 -0.224938 -0.217427 -0.197005 -0.217427 -0.23898 -0.236615 -0.233893 -0.231559 -0.217855 -0.174103 -0.182872 -0.171879 -0.211836 -0.233157 -0.201945 -0.207326 -0.205107 -0.180323 -0.173029 -0.207684 -0.182772 -0.172336
internal_weight=132535 78298.1 54237.3 67061.4 49325.3 21790.6 11236.8 63978.6 9155.21 13445.7 57679.1 4912 12451.9 6299.53 13812.5 8289.8 3082.74 7591.58 6098.69 43866.7 27534.6 2310.57 5427.68 5214.73 3679.79 4335.72 5243.67 4639.93 3940.48 43116 23179.1 15268.5 12028.5 2570.02 7324.22 2015.75 8344.96 1914.1 10876.9 1963.81 3129.23 2896.5 1909.89 7100.88 1660.58 2163.9 6946.54
internal_count=535862 316572 219290 271140 199430 88103 45432 258676 37016 54363 233206 19860 50345 25470 55846 33517 12464 30694 24658 177360 111327 9342 21945 21084 14878 17530 21201 18760 15932 174325 93717 61733 48633 10391 29613 8150 33740 7739 43977 7940 12652 11711 7722 28710 6714 8749 28086
is_linear=0
shrinkage=1


Tree=1
num_leaves=48
num_cat=0
split_feature=23 64 43 55 9 19 55 4 4 40 36 67 62 14 13 14 36 36 15 21 13 40 4 21 19 4 21 4 14 13 15 4 12 19 45 40 15 43 4 21 40 60 40 15 66 15 15
split_gain=187996 27814.8 12741.7 10439.1 7509.8 4756.06 4685.3 4554.26 2923.13 2903.8 2774.38 2153.62 1851.88 1721.86 1708.64 1488.78 1479.41 1158.29 1081.69 999.842 921.548 911.221 843.34 824.724 792.066 750.989 750.043 712.543 711.33 853.063 787.669 706.203 639.05 635.252 622.134 560.919 546.562 524.094 482.352 474.759 466.963 445.968 438.06 408.362 377.87 362.41 337.564
threshold=1.0000000180025095e-35 0.13095607468644874 1.0000000180025095e-35 -1.0000000180025095e-35 0.17799382715749448 1.0000000180025095e-35 -1.0000000180025095e-35 -0.80138306432393991 0.40199194952942435 1.0000000180025095e-35 1.0000000180025095e-35 1.0106277055051252 1.0000000180025095e-35 1.0000000180025095e-35 1.0000000180025095e-35 1.0000000180025095e-35 1.0000000180025095e-35 1.0000000180025095e-35 1.0000000180025095e-35 1.0000000180025095e-35 1.0000000180025095e-35 1.0000000180025095e-35 0.40199194952942435 1.0000000180025095e-35 1.0000000180025095e-35 -0.64442110599524016 1.0000000180025095e-35 -2.2140406892822369 1.0000000180025095e-35 1.0000000180025095e-35 1.0000000180025095e-35 -0.80138306432393991 1.0000000180025095e-35 1.0000000180025095e-35 -0.53044326901336891 1.0000000180025095e-35 1.0000000180025095e-35 -1.0106656754288725 0.40199194952942435 1.0000000180025095e-35 -1.0106656754288725 -0.15434458274839849 -1.0106656754288725 1.0000000180025095e-35 -0.75445331194268306 1.0000000180025095e-35 1.0000000180025095e-35
decision_type=2 2 2 2 2 2 2 2 2 2 2 2 2 2 2 2 2 2 2 2 2 2 2 2 2 2 2 2 2 2 2 2 2 2 2 2 2 2 2 2 2 2 2 2 2 2 2
left_child=2 3 4 15 5 9 -3 16 23 12 19 24 17 14 18 20 27 25 22 28 36 33 -12 31 -4 -1 -10 -5 29 30 32 -8 -9 41 -18 -7 44 -29 -34 43 -39 -6 -36 -27 -2 -42 -19
right_child=1 6 11 7 21 35 8 10 26 -11 13 -13 -14 -15 -16 -17 34 46 -20 -21 -22 -23 -24 -25 -26 39 -28 37 -30 -31 -32 -33 38 -35 42 -37 -38 40 -40 -41 45 -43 -44 -45 -46 -47 -48
leaf_value=0.018878430137259494 0.010042806257428328 0.035980042626232007 -0.014670111612859365 0.0099249182965135737 0.027948572106548285 0.035609963492412071 0.023120894012915866 -0.027972843124935403 -0.012262812093803126 -0.017334009983931 0.0027646895392760456 0.020544690419597684 0.027756593000339693 -0.028982985356039524 -0.029692527419445593 -0.012772665487875399 -0.011211189620031699 0.022083682360907467 -0.032300635059528696 -0.0099953796818577096 -0.014031292767676035 0.011995718476124784 -0.013091830933246522 0.035390446205523833 0.0079806842972220023 0.00014056860119031339 0.023079015291364496 -0.028081198192341311 -0.033714882186559991 -0.033896808631287391 -0.034567093117316934 0.0053742040127275634 -0.01227106629399507 0.041724688560066378 -0.012496532720500629 0.0045098132877729666 -0.02131226833650178 -0.028520916359650827 -0.023760830994123672 0.027756593000339693 -0.0016272795058158867 0.037553373022383887 0.021567281970152931 -0.027440289844070567 0.031345663226549358 -0.031435548610987282 -0.010708731928871385
leaf_weight=1152.2181320935488 432.28182050585747 2101.2090021818876 2890.1256124973297 241.15801852941513 2482.8639449775219 8103.6410552859306 1205.073812276125 6276.7494069337845 3738.0714492499828 996.32412332296371 2554.3703733980656 1249.6218379735947 4871.3684111535549 5605.1116558909416 2244.8096495121717 769.12600994110107 480.64650341868401 3204.484347358346 874.39770492911339 773.06385679543018 288.2129267603159 508.83490703999996 2823.5281292200089 569.30615037679672 784.16889810562134 2698.4494182467461 255.32158622145653 1284.1538972854614 20251.280727267265 8013.1085752397776 3276.8501425385475 3500.5449780970812 2571.1518056690693 15426.94228631258 179.41658645868301 239.28776104748249 99.445155069231987 478.09788367152214 3404.0126146674156 202.85044690966606 1211.776320964098 9155.6489517390728 924.30188450217247 231.79112941026688 1477.1110854446888 187.06872010231018 129.83731020987034
leaf_count=4648 1746 8466 11704 976 10007 32652 4861 25446 15134 4036 10325 5042 19642 22736 9106 3114 1946 12932 3548 3129 1167 2053 11432 2294 3168 10910 1030 5208 82193 32523 13301 14146 10417 62135 725 967 403 1939 13804 818 4901 36882 3735 940 5954 759 524
internal_value=-1.11505e-05 -0.0198876 0.0285587 -0.0248148 0.0316163 0.0228499 0.0090268 -0.0265543 0.00291143 0.015505 -0.028114 -0.00212091 0.0181261 -0.020378 -0.0146976 0.0090268 -0.00820196 0.0119649 -0.00999538 -0.0305611 0.0193548 0.038555 -0.00999538 0.0126826 -0.00983469 0.0050836 -0.00999538 -0.0156337 -0.0309609 -0.0285898 -0.0258483 0.00992492 -0.0235124 0.0390536 0.0077565 0.0347189 0.0241517 -0.0182392 -0.018821 3.83926e-06 -0.0114886 0.0355082 0.0160205 -0.00205409 0.0265344 -0.00564297 0.0208025
internal_weight=132419 78090.8 54328.5 66721.2 49404.5 21830.3 11369.5 63655.1 9268.32 13487.3 58668.4 4923.92 12491 14102.2 8497.11 3066.18 4986.62 7619.63 6252.3 44566.2 2297.05 27574.3 5377.9 5274.92 3674.29 4285.31 3993.39 3402.25 43793.2 23541.9 15528.8 4705.62 12251.9 27065.5 1584.36 8342.93 2008.84 3161.1 5975.16 3133.09 1876.94 11638.5 1103.72 2930.24 1909.39 1398.85 3334.32
internal_count=535524 316464 219060 270533 199146 88069 45931 258149 37465 54450 237960 19914 50414 57147 34411 12384 20189 30772 25305 180813 9270 111077 21757 21301 14872 17316 16164 13783 177684 95491 62968 19007 49667 109024 6406 33619 8103 12807 24221 12668 7599 46889 4460 11850 7700 5660 13456
is_linear=0
shrinkage=0.02


Tree=2
num_leaves=48
num_cat=0
split_feature=23 64 43 55 9 19 4 55 40 36 4 19 64 62 14 36 36 14 14 14 40 40 40 14 21 19 46 37 4 19 4 46 40 4 47 4 64 12 21 14 49 47 39 4 36 40 12
split_gain=180716 26804.7 12094.4 10050.8 7214.56 4529.35 4512.02 4396.35 2763.5 2242.43 2718.23 2162.32 2064.11 1799.22 1426.06 1244.2 1153.8 965.112 924.159 919.995 862.743 844.002 839.114 807.143 795.059 775.823 724.547 708.849 650.241 595.115 555.657 538.889 530.241 478.648 476.393 455.978 426.659 400.471 390.153 376.231 475.462 429.657 371.168 340.66 307.046 302.752 382.272
threshold=1.0000000180025095e-35 0.25313935476860844 1.0000000180025095e-35 -1.0000000180025095e-35 0.17799382715749448 1.0000000180025095e-35 -0.33049718933784084 -1.0000000180025095e-35 1.0000000180025095e-35 1.0000000180025095e-35 0.40199194952942435 1.0000000180025095e-35 1.0000000180025095e-35 1.0000000180025095e-35 1.0000000180025095e-35 1.0000000180025095e-35 1.0000000180025095e-35 1.0000000180025095e-35 1.0000000180025095e-35 1.0000000180025095e-35 -1.0000000180025095e-35 -1.0000000180025095e-35 1.0000000180025095e-35 1.0000000180025095e-35 1.0000000180025095e-35 1.0000000180025095e-35 -1.0000000180025095e-35 1.0000000180025095e-35 -0.64442110599524016 1.0000000180025095e-35 -1.2199482865338054 -1.0000000180025095e-35 0.40199194952942435 0.40199194952942435 1.0000000180025095e-35 -2.2140406892822369 -1.0000000180025095e-35 1.0000000180025095e-35 1.0000000180025095e-35 1.0000000180025095e-35 1.0000000180025095e-35 1.0000000180025095e-35 1.0000000180025095e-35 -0.27817653656160762 0.16512173645082526 0.40199194952942435 1.0000000180025095e-35
decision_type=2 2 2 2 2 2 2 2 2 2 2 2 2 2 2 2 2 2 2 2 2 2 2 2 2 2 2 2 2 2 2 2 2 2 2 2 2 2 2 2 2 2 2 2 2 2 2
left_child=2 3 4 14 5 8 9 -3 13 19 24 15 25 16 21 39 28 27 33 20 -5 -2 29 -17 30 44 -22 42 -1 36 -9 -23 -7 -13 38 -28 -6 -37 -30 40 41 46 -11 -18 -4 -35 -8
right_child=1 7 12 6 22 32 11 10 -10 17 -12 18 -14 -15 -16 23 43 -19 -20 -21 26 31 -24 -25 -26 -27 35 -29 34 -31 -32 -33 -34 45 -36 37 -38 -39 -40 -41 -42 -43 -44 -45 -46 -47 -48
leaf_value=0.017687258736137763 -0.013797836146366491 0.035261731218147276 -0.018929838278768724 -0.0287740744050482 0.027462471729930733 0.034591192156416949 -0.02898550184875787 0.026365983494557037 -0.01717387973963274 0.0097912902679693145 -0.009523422541532961 0.0044291157430732453 0.020683059214137507 0.027181478542149855 -0.012408400536826934 -0.019249812339799041 0.027148338567484775 -0.015890973393148846 -0.023788729399472158 -0.02846481569020173 -0.031375361682524826 -0.021169186348212625 0.012211894340042667 -0.030141665353612228 0.034807226721169038 0.0080196283932938775 0.026365983494557037 -0.017456420809789899 0.00027269576324073482 0.040778611887901876 0.0097912902679693145 0.025735656316739765 -0.0029892868529229643 -0.009523422541532961 -0.02729037128027554 -0.015494957846400051 0.036787861380559526 0.00063883079551027013 0.027181478542149855 -0.033527828047764052 -0.033705991646582362 -0.034119068438184894 -0.026020446148550858 0.0143141395984854 -0.0051652532376709019 -0.019249812339799041 -0.021176785532470047
leaf_weight=1136.2429765462875 277.15254656970501 2084.8319256156683 1908.8401366770267 1153.8332989215851 2530.5161578059196 8197.4346999526024 5308.7582789063454 808.07390514016151 979.78126196563244 1542.5697056800127 3909.9755284041166 869.13641893863678 1205.9388951361179 4869.3453459590673 779.12638440728188 6550.9102380722761 1585.2311668246984 982.14438927173615 1616.5770486742258 3012.8643334805965 469.45201539993286 102.14678414165974 508.14596956968307 4674.3166195750237 569.62812799215317 796.88370060920715 138.22405073046684 387.93425564467907 2709.8661135435104 15475.19468601048 3833.1517140418291 1922.4637372344732 152.74768851697445 1501.2918489426374 234.46582889556885 1092.4109946489334 9151.1769855469465 1406.5934119522572 196.12606452405453 17598.25359365344 7003.8091501891613 2831.5025308430195 138.65395592153072 1743.5474140793085 983.38331454992294 476.07099844515324 4806.7588894665241
leaf_count=4576 1124 8377 7740 4699 10176 32942 21599 3253 3977 6226 15844 3525 4862 19589 3159 26587 6384 3989 6587 12269 1913 415 2048 19030 2289 3216 558 1574 10956 62141 15476 7736 617 6096 954 4430 36761 5697 789 71731 28549 11544 562 7025 3987 1940 19535
internal_value=-8.57871e-06 -0.0195484 0.0279715 -0.0243606 0.0309388 0.022333 -0.0260729 0.00907051 0.0151492 -0.0139699 0.00307893 -0.0284197 -0.00201639 0.0176896 0.00907051 -0.0296392 0.0116084 0.000420894 -0.0150872 -0.0200059 -0.0140161 0.0188756 0.0377201 -0.0237887 0.0125352 -0.00944204 -0.0085237 0.00816937 0.00473304 0.0381967 0.00979129 0.0233553 0.0339033 -0.00952342 3.98988e-05 -0.00444036 0.0347716 -0.00641893 0.00225794 -0.0313872 -0.0294965 -0.0272157 0.00979129 0.0204355 -0.0142549 -0.0133702 -0.0252786
internal_weight=132213 77848.6 54364.9 66643 49469.8 21804.8 63562.1 11205.7 13454.6 10324.7 9120.83 53237.4 4895.05 12474.8 3080.89 48774.3 7605.48 3051.3 4463.08 7273.38 4260.51 2301.76 27665 11225.2 5210.85 3689.11 3106.68 2069.16 4276.7 27156.9 4641.23 2024.61 8350.18 2846.5 3140.46 2637.23 11681.7 2499 2905.99 37549.1 19950.8 12947 1681.22 3328.78 2892.22 1977.36 10115.5
internal_count=535053 316313 218740 271074 198935 87809 258640 45239 54250 41917 36862 216723 19805 50273 12434 198575 30684 12351 18148 29566 17297 9275 111126 45617 21018 14943 12598 8362 17275 109078 18729 8151 33559 11561 12699 10685 46937 10127 11745 152958 81227 52678 6788 13409 11727 8036 41134
is_linear=0
shrinkage=0.02


Tree=3
num_leaves=48
num_cat=0
split_feature=24 64 55 43 62 4 55 11 19 11 51 64 4 49 51 11 12 51 49 40 51 15 13 49 4 11 49 14 53 19 4 11 56 15 15 9 11 12 13 21 66 15 40 15 1 21 21
split_gain=166537 29789.6 11246.2 10430.6 6319.92 4840.06 4581.87 4013.9 2500.32 2890.91 2382.1 1913.42 1675.91 1560.14 1518.33 1283.3 1184.38 1260.95 1349.89 1180.41 1160.71 1127.62 939.91 876.623 841.088 838.703 792.037 734.111 723.562 712.76 666.473 615.332 608.681 568.954 560.982 508.565 430.598 421.871 412.995 405.045 386.266 365.035 323.738 311.079 310.534 304.748 294.511
threshold=1.0000000180025095e-35 0.25313935476860844 -1.0000000180025095e-35 1.0000000180025095e-35 1.0000000180025095e-35 -0.33049718933784084 -1.0000000180025095e-35 0.44960698371495067 1.0000000180025095e-35 1.0000000180025095e-35 1.0000000180025095e-35 1.0000000180025095e-35 -0.27817653656160762 1.0000000180025095e-35 1.0000000180025095e-35 0.44960698371495067 1.0000000180025095e-35 1.0000000180025095e-35 1.0000000180025095e-35 1.0000000180025095e-35 1.0000000180025095e-35 1.0000000180025095e-35 1.0000000180025095e-35 1.0000000180025095e-35 0.40199194952942435 1.0000000180025095e-35 1.0000000180025095e-35 1.0000000180025095e-35 1.0000000180025095e-35 1.0000000180025095e-35 -0.27817653656160762 0.44960698371495067 0.00095903604407306055 1.0000000180025095e-35 1.0000000180025095e-35 0.14526132585828208 0.44960698371495067 1.0000000180025095e-35 1.0000000180025095e-35 1.0000000180025095e-35 -0.75445331194268306 1.0000000180025095e-35 0.40199194952942435 1.0000000180025095e-35 -0.077117690623009508 1.0000000180025095e-35 1.0000000180025095e-35
decision_type=2 2 2 2 2 2 2 2 2 2 2 2 2 2 2 2 2 2 2 2 2 2 2 2 2 2 2 2 2 2 2 2 2 2 2 2 2 2 2 2 2 2 2 2 2 2 2
left_child=1 2 14 4 7 10 -3 12 16 39 13 29 27 25 23 30 -7 18 21 32 26 24 33 34 44 28 36 38 -4 -5 -6 46 41 37 40 -32 43 -14 -2 -8 -1 -9 -17 -10 -18 -26 -11
right_child=3 6 5 11 15 8 9 19 20 31 -12 -13 22 -15 -16 42 17 -19 -20 -21 -22 -23 -24 -25 45 -27 -28 -29 -30 -31 35 -33 -34 -35 -36 -37 -38 -39 -40 -41 -42 -43 -44 -45 -46 -47 -48
leaf_value=0.010129705925199255 0.028970094048896815 0.035425977084088754 -0.0053589175822732985 -0.013256902280632119 0.034957443667247179 -0.032396978579397995 -0.0053589175822732985 0.025524786018392604 -0.0053589175822732985 0.011645734118476345 -0.024940160521174183 0.021295074177523847 -0.007321312262316625 -0.025518985573436886 -0.012050250931897495 0.038928633038662772 -0.015121030651408202 -0.031098918609598816 -0.031471042029778649 -0.006235415804465746 -0.027175792158674789 -0.032671644533787084 -0.019795783107124515 -0.012904637063272778 -0.02149964334543232 0.011645734118476345 -0.027974938931676498 0.0035679997167011685 -0.030861325885296886 0.0086895308250750144 0.015541894148226616 0.027016954399550715 0.034664668197174231 -0.024184295599124349 -0.020843686965112705 0.029665812371230466 0.01042134053683293 0.011296629779126582 0.0021402275256133733 0.02601700490806369 0.030554788388508558 -0.0080508900047124264 0.013540670551019278 -0.03112863978673152 -0.0053589175822732985 -0.0053589175822732985 0.02894792489440531
leaf_weight=475.07091563940048 2123.2873347699642 2412.5483244210482 2804.9553791284561 2685.4269101768732 4490.1193592846394 21687.662155717611 5115.2138297259808 3741.1833529472351 1306.4173350781202 2530.565216049552 4008.4642172604799 1156.313537761569 598.86364188790321 1534.0790616422892 777.97513046860695 21450.641566544771 1598.4892424494028 11763.601516604424 4663.8610054552555 362.59186533093452 1620.9543492496014 1899.6217486411333 704.53102968633175 289.98545783758163 5462.1698204725981 1806.560324922204 622.12083970010281 767.15356120467186 443.58047761023045 758.05147594213486 1737.6847860217094 1493.7020468562841 5705.4064969271421 237.94865135848522 105.60341045260429 2488.8792903870344 897.19035689532757 2580.1735588908195 257.56076696515083 163.12106214463711 1710.7680273652077 133.51307439804077 204.85768300294876 192.6644322425127 1984.4505956619978 163.26888285577297 394.50081439316273
leaf_count=1912 8535 9673 11351 10907 18009 88766 20681 15050 5301 10225 16370 4654 2417 6264 3159 85989 6501 48147 19079 1468 6627 7774 2859 1178 22240 7306 2540 3087 1813 3057 6985 6021 22872 966 430 9982 3635 10390 1036 655 6866 541 827 786 8038 663 1584
internal_value=2.05653e-05 -0.0181232 -0.0232825 0.0278106 0.0305905 -0.0251436 0.0107707 0.0209052 -0.0275747 0.00463211 -0.0127859 -0.000948528 0.00960714 -0.00538792 0.0107707 0.036078 -0.0288977 -0.02614 -0.0224387 0.0291629 -0.0135324 -0.0186426 0.00121305 0.0198037 -0.0157436 -0.00535892 -0.0061957 0.0205913 -0.00535892 -0.00842391 0.0295847 0.0165644 0.0305035 0.00555154 0.0239487 0.0238666 -0.00535892 0.0077876 0.0260708 -0.00535892 0.0261256 0.0243652 0.0386894 -0.00708403 -0.00816481 -0.0205672 0.0116457
internal_weight=132113 79929.2 67819.5 52184.2 47584.4 64460.1 12109.7 17212.2 53862.5 9697.1 10597.6 4599.79 7269.52 6589.18 3359.4 30372.2 49223.1 27535.5 15771.9 9942.69 4639.35 11108 4121.52 2581.43 9208.38 5055.1 3018.39 3148 3248.54 3443.48 8716.68 4418.77 9580.1 3416.99 2291.44 4226.56 2396.27 3179.04 2380.85 5278.33 2185.84 3874.7 21655.5 1499.08 3582.94 5625.44 2925.07
internal_count=535216 325585 276746 209631 191013 263201 48839 69221 220097 39166 43104 18618 29290 26734 13545 121792 201208 112442 64295 39931 18889 45216 16632 10386 37442 20470 12262 12658 13164 13964 34976 17830 38463 13773 9208 16967 9722 12807 9571 21336 8778 15591 86816 6087 14539 22903 11809
is_linear=0
shrinkage=0.02


Tree=4
num_leaves=48
num_cat=0
split_feature=23 64 43 4 9 4 19 11 19 19 36 64 41 44 40 41 15 44 38 0 12 4 37 11 15 43 43 36 19 40 4 44 15 48 44 41 15 40 36 56 40 12 66 43 12 41 15
split_gain=166736 24899.8 11168.7 9417.46 6688.94 5021.56 4428.07 4382.7 2968.99 2652.82 2197.11 1884.98 1852.97 1527.52 1255.49 1182.79 1159.02 1092.72 1000.89 969.815 935.147 921.53 841.431 830.642 805.902 791.567 780.022 738.264 724.825 717.184 659.322 638.431 624.964 596.32 595.052 941.769 694.596 585.75 560.953 536.886 508.937 494.161 446.392 396.233 366.924 355.909 349.725
threshold=1.0000000180025095e-35 0.25313935476860844 1.0000000180025095e-35 -0.27817653656160762 0.17799382715749448 -0.27817653656160762 1.0000000180025095e-35 0.44960698371495067 1.0000000180025095e-35 1.0000000180025095e-35 1.0000000180025095e-35 1.0000000180025095e-35 1.0000000180025095e-35 1.0000000180025095e-35 1.0000000180025095e-35 1.0000000180025095e-35 1.0000000180025095e-35 1.0000000180025095e-35 1.0000000180025095e-35 1.0000000180025095e-35 1.0000000180025095e-35 -2.2140406892822369 1.0000000180025095e-35 0.44960698371495067 1.0000000180025095e-35 -1.0000000180025095e-35 -1.0000000180025095e-35 1.0000000180025095e-35 1.0000000180025095e-35 -1.0000000180025095e-35 -0.64442110599524016 1.0000000180025095e-35 1.0000000180025095e-35 -0.15988402770463364 1.0000000180025095e-35 1.0000000180025095e-35 1.0000000180025095e-35 1.0000000180025095e-35 1.0000000180025095e-35 0.00095903604407306055 -1.0000000180025095e-35 1.0000000180025095e-35 -0.39893891993772529 -1.0000000180025095e-35 1.0000000180025095e-35 1.0000000180025095e-35 1.0000000180025095e-35
decision_type=2 2 2 2 2 2 2 2 2 2 2 2 2 2 2 2 2 2 2 2 2 2 2 2 2 2 2 2 2 2 2 2 2 2 2 2 2 2 2 2 2 2 2 2 2 2 2
left_child=2 3 4 6 7 25 10 12 13 20 21 28 16 15 24 27 19 35 22 30 -5 -2 33 37 39 -3 -23 -7 -4 -28 43 -22 42 -12 45 36 38 46 -11 44 -27 -32 -31 -1 -9 -10 -6
right_child=1 5 11 9 23 8 -8 14 34 17 18 -13 -14 -15 -16 -17 -18 -19 -20 -21 31 26 -24 -25 -26 40 29 -29 -30 32 41 -33 -34 -35 -36 -37 -38 -39 -40 -41 -42 -43 -44 -45 -46 -47 -48
leaf_value=0.0050698063048714064 0.015867229862988427 0.015867229862988427 -0.013730768020838549 -0.032036585996207678 0.0320331429318403 -0.0040925595848321514 0.015867229862988427 0.012870869938346102 0.02938319755544249 -0.0052610984181196453 -0.024916431369903957 0.019762035349220611 -0.012116678343248581 -0.024769500892322271 -0.0028951464086026625 -0.025900984373120176 -0.018900211619252778 -0.02625996605243814 -0.01602226297837742 0.025028603852402069 -0.025900984373120176 -0.028391038579892679 -0.018312406363851733 0.038224206973351708 -0.0024632271217190816 0.015867229862988427 -0.028419149025865884 0.017324979131639152 0.0077992615818178344 -0.014690987542051465 -0.0090861594609861485 -0.030669612733959514 -0.030972158250796078 0.015867229862988427 -0.003066340158938325 -0.025900984373120176 -0.025900984373120176 -0.00099526944615571482 0.014989402086837085 0.034765887138500012 0.032606092526825191 0.0097428585947716695 0.0014238182032974998 0.029431871557049228 0.02836088925087963 -0.0066384289503919683 0.0011799921766996785
leaf_weight=372.46650302410126 240.60177300870419 785.41137166321278 2905.7940557301044 21000.727339789271 7031.7628294974566 1705.8236574083567 2402.5466493964195 723.49740095436573 1286.6928122341633 1423.9277868568897 149.77329099178314 1196.3889668285847 1204.1912037879229 1755.3601936548948 471.42523474991322 655.12862437963486 395.80221545696259 1848.9958086758852 1091.818916708231 3010.7364919483662 14845.249447464943 3242.8716004192829 414.76493425667286 20336.154281899333 291.58630868792534 273.28839646279812 1244.7506104260683 1032.0848962813616 795.84622403979301 1402.6961887478828 695.27890573441982 11529.143488258123 505.57606738805771 1662.8249006271362 342.35484157502651 698.71761839091778 294.49395717680454 230.49988678097725 886.60363286733627 6909.5343931168318 3288.8710535913706 2792.2419122606516 1346.8421119749546 948.42724338173866 4092.6529552489519 119.38795693218708 150.21169237792492
leaf_count=1498 974 3157 11823 86407 28166 6902 9682 2908 5187 5774 611 4808 4882 7108 1911 2653 1604 7582 4461 12072 60748 13315 1693 81400 1175 1099 5112 4173 3207 5698 2810 47420 2077 6707 1382 2862 1205 929 3587 27667 13202 11240 5461 3804 16428 482 603
internal_value=-1.77095e-05 -0.0188772 0.026766 -0.0235488 0.029608 0.00863933 -0.00878324 0.0213442 -0.00197294 -0.0274009 -0.0140245 -0.00204672 0.0110413 -0.00878324 0.0291126 -0.00179342 0.0144375 -0.0137667 -0.000348425 0.0161283 -0.0288834 -0.0197094 0.00734026 0.0361309 0.0303685 0.0254691 -0.0209114 0.00398608 -0.00910056 -0.0155135 0.0105495 -0.026371 -0.0105676 0.0132205 0.020569 -0.00878324 -0.00121868 0.0303812 0.00251416 0.0311851 0.0300613 0.00598678 -0.00680079 0.0225758 0.0260387 0.0263208 0.0313882
internal_weight=132032 77477.3 54554.5 66232.9 49656.5 11244.4 13705.1 21907.8 6896.83 52527.9 11302.5 4898.03 9419.14 5148.4 12488.7 3393.04 8214.95 5152.74 3319.18 7819.15 47375.1 7983.34 2227.36 27748.6 12017.3 4347.57 7742.74 2737.91 3701.64 4499.86 4808.41 26374.4 3255.11 1812.6 1748.44 3303.74 2605.03 7412.47 2310.53 11725.7 3562.16 3487.52 2749.54 1320.89 4816.15 1406.08 7181.97
internal_count=535656 316721 218935 271376 199097 45345 55791 87999 27887 215585 46109 19838 37910 20836 50089 13728 33028 21010 13472 31424 194575 32637 9011 111098 48178 17458 31663 11075 15030 18348 19352 108168 13236 7318 7051 13428 10566 29698 9361 47003 14301 14050 11159 5302 19336 5669 28769
is_linear=0
shrinkage=0.02


Tree=5
num_leaves=48
num_cat=0
split_feature=24 64 55 62 4 4 55 36 14 4 4 19 51 49 13 51 51 11 11 11 49 15 11 51 49 11 15 49 14 11 4 13 15 11 4 11 4 15 12 14 15 15 12 66 14 13 4
split_gain=153888 27331.3 10558.6 9548.77 5877.86 4713.22 4141.92 2936.37 2825.01 2796.81 1887.17 1837.71 1837.1 1799.47 1659.28 1478.66 1414.34 1233.26 1099.77 1180.61 1083.45 1020.57 1009.09 938.982 1082.87 964.416 888.355 845.928 781.761 742.465 733.413 715.983 702.76 685.319 634.144 619.322 611.728 872.017 637.727 554.773 515.117 424.394 404.759 351.433 347.875 343.664 325.703
threshold=1.0000000180025095e-35 0.25313935476860844 -1.0000000180025095e-35 1.0000000180025095e-35 0.40199194952942435 -0.80138306432393991 -1.0000000180025095e-35 1.0000000180025095e-35 1.0000000180025095e-35 0.40199194952942435 0.40199194952942435 1.0000000180025095e-35 1.0000000180025095e-35 1.0000000180025095e-35 1.0000000180025095e-35 1.0000000180025095e-35 1.0000000180025095e-35 1.0000000180025095e-35 0.44960698371495067 0.44960698371495067 1.0000000180025095e-35 1.0000000180025095e-35 0.44960698371495067 1.0000000180025095e-35 1.0000000180025095e-35 0.44960698371495067 1.0000000180025095e-35 1.0000000180025095e-35 1.0000000180025095e-35 0.44960698371495067 0.40199194952942435 1.0000000180025095e-35 1.0000000180025095e-35 0.44960698371495067 0.40199194952942435 0.44960698371495067 -0.80138306432393991 1.0000000180025095e-35 1.0000000180025095e-35 1.0000000180025095e-35 1.0000000180025095e-35 1.0000000180025095e-35 1.0000000180025095e-35 -0.75445331194268306 1.0000000180025095e-35 1.0000000180025095e-35 -0.27817653656160762
decision_type=2 2 2 2 2 2 2 2 2 2 2 2 2 2 2 2 2 2 2 2 2 2 2 2 2 2 2 2 2 2 2 2 2 2 2 2 2 2 2 2 2 2 2 2 2 2 2
left_child=1 2 16 4 8 15 -3 23 14 17 33 28 13 19 26 20 27 36 -11 21 37 30 -12 24 25 32 35 40 31 -10 -9 41 34 39 42 46 -8 38 -4 45 43 -6 -7 -1 -24 -5 -2
right_child=3 6 5 10 11 7 9 12 29 18 22 -13 -14 -15 -16 -17 -18 -19 -20 -21 -22 -23 44 -25 -26 -27 -28 -29 -30 -31 -32 -33 -34 -35 -36 -37 -38 -39 -40 -41 -42 -43 -44 -45 -46 -47 -48
leaf_value=0.010189982722546032 0.029264488286993535 0.033791185166694181 -0.0066534604587591764 0.034266338861943309 0.0059403600660451229 -0.022412058511632381 0.020053283222064264 0.0012707923775330204 -0.0046693614157858774 -0.0082297861087966585 0.017285026783954164 0.017285026783954164 -0.027119861223845489 -0.028119961207723487 0.0029589618729039388 -0.020474148476751948 -0.011767822036498392 0.023389545537106801 0.018704792909124541 0.016153761646804928 -0.021308761197412332 -0.030942855827260991 0.032510096653000677 -0.031668102926645708 -0.031883717293405035 -0.005368482641038049 -0.0026879109049080725 -0.01295807759323854 -0.019218442260395891 0.015635837532724319 -0.014021895733322149 -0.021851013889666589 -0.032660397857719355 0.03781657158640879 -0.025907333996842113 0.034802481653983107 0.0012707923775330204 -0.027114196855200005 0.01752840371959798 0.017965944353458531 -0.019642654792172025 -0.024703064619739156 -0.011059683188781047 0.029571891919209236 0.017285026783954164 0.015118357194217889 0.016628937988376113
leaf_weight=481.5205187946558 2036.5207821428776 2381.3164903521538 573.25494675338268 5540.8165776878595 2163.4238117933273 2456.5385142117739 783.97364401817322 2383.6645728200674 1471.9546724706888 3478.2496229410172 2516.3084597438574 1648.635577827692 5521.5143013298512 2209.1358702927828 1000.8706374466419 1812.2881764024496 763.78004269301891 2661.902342364192 605.01342241466045 766.10547263920307 678.3574665337801 835.27517069876194 3581.4657513052225 20176.062641903758 7953.0753565132618 1169.3172311484814 322.13216824829578 289.85993148386478 1492.9747834056616 1408.1149360239506 2645.829287737608 554.11733044683933 3141.0903570055962 18585.30316953361 7036.2642036527395 6261.7123157233 2152.143842920661 254.62153816223145 1814.5396406799555 1190.0835452377796 105.798648878932 195.77532589435577 2581.4694509059191 1711.184840247035 583.18071354925632 405.74868658185005 1374.7425937205553
leaf_count=1935 8162 9528 2322 22176 8702 10090 3146 9656 5942 14122 10108 6611 22782 9096 4034 7446 3105 10690 2438 3101 2786 3443 14334 83486 32901 4766 1302 1179 6086 5657 10808 2259 12999 74363 28948 25069 8683 1046 7315 4775 432 799 10529 6853 2350 1629 5529
internal_value=-8.8928e-06 -0.0175542 -0.022519 0.026618 0.0157234 -0.0243338 0.0101696 -0.0259363 0.0228973 0.00435507 0.0333182 -0.000718661 -0.0180692 -0.0124125 0.0275153 -0.00595164 0.0101696 0.0135344 -0.00822979 -0.00822979 0.00197958 -0.0102249 0.0238369 -0.0284737 -0.0258238 -0.0228796 0.0299734 0.0191849 -0.00745842 0.00526117 -0.00822979 -0.00142502 -0.0242247 0.0357794 -0.0220264 0.0310614 0.00459221 0.00459221 0.0117224 0.0310614 0.0232442 0.00338337 -0.0166001 0.0253255 0.0301632 0.032964 0.0241819
internal_weight=131757 79423.1 67360.5 52333.9 19931 64008.4 12062.6 58875.3 13876 9681.28 32402.9 6054.93 14361.5 8840.01 10996 5133.06 3352.14 5598.02 4083.26 6630.87 3320.77 5864.77 6680.95 44513.8 24337.8 16384.7 9995.11 2588.36 4406.29 2880.07 5029.49 2913.32 15215.4 25722 12074.3 9672.98 2936.12 2642.42 2387.79 7136.65 2298.5 2359.2 5038.01 2192.71 4164.65 5946.57 3411.26
internal_count=535518 325631 277024 209887 80152 263520 48607 242605 55695 39079 129735 24457 58886 36104 44096 20915 13504 22519 16560 27008 13469 23907 26792 183719 100233 67332 40062 10399 17846 11599 20464 11760 62566 102943 49567 38760 11829 10683 9637 28580 9220 9501 20619 8788 16684 23805 13691
is_linear=0
shrinkage=0.02


Tree=6
num_leaves=48
num_cat=0
split_feature=24 64 4 43 9 51 51 11 11 19 64 13 4 36 49 51 40 4 4 14 51 15 40 15 19 15 49 36 11 62 4 4 12 13 51 49 15 15 62 36 12 62 12 4 19 56 12
split_gain=148165 26560.2 9844.83 9536.56 5694.64 5127.42 4174.41 3785.15 3093.42 2990.37 1663.7 1600.93 1530.13 1262.15 1203.39 1177.04 1076.14 1034.02 880.856 864.352 807.407 722.681 678.75 658.718 656.623 629.466 605.539 545.227 529.33 459.438 441.508 395.587 371.652 364.437 361.722 449.329 414.041 305.51 299.148 283.519 275.218 256.297 253.431 235.065 227.366 225.1 224.897
threshold=1.0000000180025095e-35 0.13095607468644874 -0.27817653656160762 1.0000000180025095e-35 0.17799382715749448 1.0000000180025095e-35 1.0000000180025095e-35 0.44960698371495067 1.0000000180025095e-35 1.0000000180025095e-35 1.0000000180025095e-35 1.0000000180025095e-35 -0.27817653656160762 1.0000000180025095e-35 1.0000000180025095e-35 1.0000000180025095e-35 1.0000000180025095e-35 -0.27817653656160762 -0.33049718933784084 1.0000000180025095e-35 1.0000000180025095e-35 1.0000000180025095e-35 1.0000000180025095e-35 1.0000000180025095e-35 1.0000000180025095e-35 1.0000000180025095e-35 1.0000000180025095e-35 1.0000000180025095e-35 0.44960698371495067 -0.0065283546773648093 0.45431260230565756 -2.2140406892822369 1.0000000180025095e-35 1.0000000180025095e-35 1.0000000180025095e-35 1.0000000180025095e-35 1.0000000180025095e-35 1.0000000180025095e-35 0.0052619012580743026 1.0000000180025095e-35 1.0000000180025095e-35 -0.024202064047997483 1.0000000180025095e-35 -0.33049718933784084 1.0000000180025095e-35 0.011041714426518497 1.0000000180025095e-35
decision_type=2 2 2 2 2 2 2 2 2 2 2 2 2 2 2 2 2 2 2 2 2 2 2 2 2 2 2 2 2 2 2 2 2 2 2 2 2 2 2 2 2 2 2 2 2 2 2
left_child=1 2 6 4 7 8 -1 11 12 13 24 17 33 34 25 26 23 19 -7 -2 -15 27 28 29 39 30 -11 38 37 32 -10 -8 -9 46 35 36 40 41 -19 -5 -4 -6 -33 -13 -12 -34 -3
right_child=3 5 9 10 22 18 31 16 14 15 44 43 -14 20 -16 -17 -18 21 -20 -21 -22 -23 -24 -25 -26 -27 -28 -29 -30 -31 -32 42 45 -35 -36 -37 -38 -39 -40 -41 -42 -43 -44 -45 -46 -47 -48
leaf_value=0.00053855345835100937 0.028277099209894865 0.0064390294812036036 -0.027031850272577863 -0.017746112245437096 0.023722939520251462 0.0048338723298676891 0.0048338723298676891 0.013710453485151991 0.033933403328419869 -0.0057361633249327993 0.012058915201526866 0.0046164915362792644 -0.0057361633249327993 -0.017325145579658415 0.00053855345835100937 -0.021820921828285132 -0.0024351554963490903 -0.0018553843740483501 -0.020445032994782716 0.0052377969158849689 -0.028375602926727975 -0.023389935100729963 0.01136988054832508 -0.0017607459502774695 0.0079564628099660153 0.00053855345835100937 -0.017325145579658415 0.018132892934460985 0.037038817200781275 0.034426530440955824 0.019032442995507999 -0.029000507748703802 0.023773066526169728 0.00053855345835100937 -0.031715896182917522 -0.031907642267471309 -0.032409798240430589 0.0019932611326321644 0.013363851581144495 -0.0042308305841494871 -0.021820921828285132 0.03324105270529399 -0.020445032994782716 -0.016682916046403994 0.030126637749724131 0.03226649242300908 0.028783027527438616
leaf_weight=9229.9769997745752 2583.7754409462214 222.41575798392296 5295.3400338441133 1720.2403996139765 1465.3569687306881 737.2830071747303 127.38797350227833 810.51515652239323 3928.4452264606953 2799.5607222169638 681.69232749938965 275.14429977536201 2501.4363555908203 6518.0045853853226 408.94083245098591 1811.6183866262436 438.47576552629471 1487.9877270907164 2179.3295516073704 871.77016945183277 4465.1555161625147 276.48376290500164 482.93859520554543 263.69398477673531 780.05424533784389 146.05948100984097 681.54222147166729 1809.1659455150366 19382.168480917811 5408.903063505888 1005.8483190834522 1922.8626155853271 2359.0555554628372 155.89389188587666 16890.577744290233 6714.8838611394167 2744.5839843004942 146.82016658782959 789.60770481824875 972.8297063857317 4822.3950017094612 5273.614859893918 2819.641559779644 831.70253521203995 473.93382003903389 2723.4294354468584 970.9422914236784
leaf_count=37495 10346 893 21938 7023 5867 2959 520 3249 15735 11362 2734 1106 10139 26755 1650 7498 1777 6001 8845 3503 18531 1127 1939 1063 3137 588 2817 7254 77544 21637 4058 7960 9453 627 70349 27962 11433 589 3161 3963 19836 21095 11626 3389 1899 10894 3896
internal_value=1.95984e-05 -0.0172502 -0.0222128 0.0261341 0.0287947 0.00981343 -0.00736674 0.0209779 0.0172681 -0.0261812 -0.00127342 0.0111115 0.00352339 -0.0277718 0.0269063 -0.0119175 0.0283117 0.0142984 -0.00736674 0.0224695 -0.0218209 0.00782159 0.034909 0.0294775 -0.00819024 0.0296234 -0.00573616 0.00994097 0.0353411 0.0302065 0.0309026 -0.0223453 0.0263253 0.0206774 -0.0295631 -0.0277034 -0.0255051 0.0305554 0.00342622 -0.012869 -0.0236275 0.0311771 -0.023307 -0.0113891 0.0194981 0.0283324 0.0246319
internal_weight=131409 79100.1 66843.5 52309.4 47680.6 12256.6 14099.9 20929.7 9339.98 52743.7 4628.75 8925.64 3850.69 47450.9 5489.29 5292.72 12004.1 7818.79 2916.61 3455.55 10983.2 4363.25 26750.9 11565.6 3473.12 5080.35 3481.1 4086.76 26268 11301.9 4934.29 4869.89 5893 1349.25 36467.8 19577.2 12862.3 6885.79 2277.6 2693.07 10117.7 6738.97 4742.5 1106.85 1155.63 5082.48 1193.36
internal_count=535222 325472 276082 209750 190994 49390 57601 83960 37586 218481 18756 35887 15555 196804 22031 21677 48073 31392 11804 13849 45286 17543 107034 46296 14123 20381 14179 16416 105095 45233 19793 20106 23596 5416 151518 81169 53207 27551 9162 10986 41774 26962 19586 4495 4633 20347 4789
is_linear=0
shrinkage=0.02


Tree=7
num_leaves=48
num_cat=0
split_feature=23 64 9 55 14 4 41 55 36 4 15 4 4 14 37 36 14 14 59 21 15 40 40 4 4 21 59 4 4 14 41 15 4 21 59 59 4 45 15 62 15 44 4 40 40 59 36
split_gain=148897 22444.5 9634.06 8593.18 5954.86 3836.46 3798.82 3787.96 2478.65 2440.09 2389.99 1896.62 1636.85 1524.05 1487.49 1215.2 1178.41 1103.28 975.239 935.249 879.908 769.758 745.294 738.088 707.871 691.983 651.953 643.253 631.853 608.281 752.786 699.744 601.713 576.884 575.91 548.312 500.729 496.38 471.669 442.21 429.668 425.443 404.447 380.826 377.999 361.278 320.098
threshold=1.0000000180025095e-35 0.13095607468644874 0.17799382715749448 -1.0000000180025095e-35 1.0000000180025095e-35 -0.80138306432393991 1.0000000180025095e-35 -1.0000000180025095e-35 1.0000000180025095e-35 0.40199194952942435 1.0000000180025095e-35 0.40199194952942435 -0.27817653656160762 1.0000000180025095e-35 1.0000000180025095e-35 1.0000000180025095e-35 1.0000000180025095e-35 1.0000000180025095e-35 1.0000000180025095e-35 1.0000000180025095e-35 1.0000000180025095e-35 0.19270933842449142 -1.0000000180025095e-35 0.40199194952942435 -0.80138306432393991 1.0000000180025095e-35 1.0000000180025095e-35 -2.2140406892822369 0.40199194952942435 1.0000000180025095e-35 1.0000000180025095e-35 1.0000000180025095e-35 -0.27817653656160762 1.0000000180025095e-35 1.0000000180025095e-35 1.0000000180025095e-35 0.40199194952942435 -0.43356779376949239 1.0000000180025095e-35 1.0000000180025095e-35 1.0000000180025095e-35 1.0411903046779147 -0.27817653656160762 -1.0106656754288725 -1.0106656754288725 1.0000000180025095e-35 1.0000000180025095e-35
decision_type=2 2 2 2 2 2 2 2 2 2 2 2 2 2 2 2 2 2 2 2 2 2 2 2 2 2 2 2 2 2 2 2 2 2 2 2 2 2 2 2 2 2 2 2 2 2 2
left_child=2 3 4 16 6 15 10 -3 19 24 11 34 45 14 20 27 22 21 39 29 23 40 -2 -10 -9 -11 46 -5 -19 30 31 35 -8 -26 42 36 -7 -17 -24 -13 -4 43 -1 -29 -39 -6 -14
right_child=1 7 17 5 12 8 32 9 13 25 -12 18 26 -15 -16 37 -18 28 -20 -21 -22 -23 38 -25 33 -27 -28 41 -30 -31 -32 -33 -34 -35 -36 -37 -38 44 -40 -41 -42 -43 -44 -45 -46 -47 -48
leaf_value=0.030411139008854435 -0.012582283586102076 0.031993340060803073 0.035336288877573931 0.017782121363852869 0.0075031497891736342 -0.017732278585574232 0.011765624555573733 0.023364801748486711 0.0036121880911822645 -0.011261473579428215 -0.012180018541167905 0.0025015255504759332 -0.018056429041716015 -0.026421027419339334 -0.027283501046822395 -0.0096101713140896126 -0.011309838263265313 0.02733901931865745 0.027502895686645244 -0.0094474962147262399 -0.03024796497075927 0.0082393828001414149 0.023864230551330735 -0.011261473579428215 0.004293033228213932 0.02200812886535471 0.0066250937684171774 -0.026029644776332829 0.007744766620767978 -0.030924947918875244 -0.031190547703093641 -0.031870401632500864 -0.011253738031814998 0.029980185053483783 0.035225088473603221 -0.011261473579428215 -0.026426285843795347 -0.011663940954195248 -0.02004851010211859 0.018148721461621803 0.013341322635044848 -0.025476661598765299 0.020278729190592301 -0.0051041686948453723 0.019961428492268039 0.026014610513320782 -0.0045526151589956945
leaf_weight=3961.8405372053385 290.35095724463463 2122.123033195734 24676.512480944395 235.60464119911194 1283.595356464386 4624.6397335231304 664.20645251870155 1415.2671350836754 2543.2617606818676 3721.4976895898581 679.08460755646229 1861.7322678714991 1974.5256513804197 5470.143637239933 2172.8319456577301 480.26846651732922 763.765973046422 3040.3956073969603 1696.9312327355146 749.72542384266853 852.25982037186623 437.9411830753088 1917.8751686364412 2805.200973674655 3511.96801443398 260.58367642760277 839.73285982012749 462.71141454577446 841.99089425802231 19609.108974337578 7762.2006770074368 3181.7488126903772 1428.6737677007914 387.00604844093323 5330.7187338769436 1133.8789470791817 6257.8704574108124 180.01754856109619 101.99911317229271 1179.7093638926744 362.86387966573238 1241.2647997140884 2642.3852283656597 1392.6094485968351 914.64739826321602 627.99552683532238 1091.1478401720524
leaf_count=15855 1184 8491 98788 953 5152 19050 2664 5668 10314 15140 2755 7491 8068 22801 9017 1973 3119 12177 6790 3091 3541 1758 7682 11504 14151 1047 3373 1914 3388 82154 32497 13323 5817 1549 21331 4624 26020 736 418 4722 1454 5157 10599 5655 3679 2513 4437
internal_value=2.63741e-05 -0.0179708 0.0252524 -0.0225043 0.0161958 -0.0241247 0.0215064 0.00789324 -0.0255815 0.0023875 0.0245762 0.0260742 -0.00155758 -0.0182106 -0.0128433 -0.00715145 0.00789324 0.0330438 0.0153612 -0.0279364 -0.0094475 0.0345586 0.0173279 -0.0094475 0.0112559 -0.0094475 -0.00897926 -0.0139918 0.0230942 -0.0283327 -0.0261169 -0.0235228 -0.00394501 0.00685325 0.030325 -0.0213088 -0.0227346 0.00732065 0.0216335 0.00857669 0.0350184 -0.0164168 0.0263626 -0.0103397 0.0147518 0.0136002 -0.0132547
internal_weight=131184 76562.4 54622 65144 25262.3 62070 19445.3 11418.4 57162.9 9296.32 17352.4 16673.3 5817 13843.7 8373.55 4907.12 3073.99 29359.7 4738.37 43319.2 6200.72 25477.3 2310.23 5348.46 5314.24 3982.08 3905.41 3332.19 3882.39 42569.4 22960.3 15198.1 2092.88 3898.97 11934.9 12016.4 10882.5 1574.93 2019.87 3041.44 25039.4 3096.59 6604.23 1855.32 1094.66 1911.59 3065.67
internal_count=535584 316452 219132 270406 101567 258003 78024 46046 237936 37555 69543 66788 23543 57177 34376 20067 12403 117565 19003 180759 25359 102000 9284 21818 21368 16187 15878 13679 15565 177668 95514 63017 8481 15700 47785 49694 45070 6388 8100 12213 100242 12726 26454 7569 4415 7665 12505
is_linear=0
shrinkage=0.02


Tree=8
num_leaves=48
num_cat=0
split_feature=23 58 9 43 62 36 11 7 14 13 7 67 13 14 14 13 15 11 15 40 12 14 12 14 13 15 62 56 13 62 14 19 19 13 13 46 13 15 56 15 15 14 7 43 9 9 12
split_gain=142964 20936.9 10335.8 9610.12 5918.8 4285.6 3769.47 3217.54 2856.22 2017.64 1727.09 1689.95 1424.81 1363.26 1305.67 1353.64 1291.01 1154.56 1054.79 982.683 957.688 883.433 882.866 874.313 1019.47 922.227 729.809 689.122 685.297 674.429 671.873 652.138 628.13 619.417 711.735 612.211 607.682 554.481 529.909 503.215 497.858 485.142 469.364 397.333 372.003 333.039 329.308
threshold=1.0000000180025095e-35 1.0000000180025095e-35 0.66346453189798615 1.0000000180025095e-35 1.0000000180025095e-35 1.0000000180025095e-35 0.44960698371495067 -0.13402677244053671 1.0000000180025095e-35 1.0000000180025095e-35 -1.0568309268343667 1.0106277055051252 1.0000000180025095e-35 1.0000000180025095e-35 1.0000000180025095e-35 1.0000000180025095e-35 1.0000000180025095e-35 0.44960698371495067 1.0000000180025095e-35 1.0000000180025095e-35 1.0000000180025095e-35 1.0000000180025095e-35 1.0000000180025095e-35 1.0000000180025095e-35 1.0000000180025095e-35 1.0000000180025095e-35 1.0000000180025095e-35 0.00095903604407306055 1.0000000180025095e-35 -0.0025493164412136219 1.0000000180025095e-35 1.0000000180025095e-35 1.0000000180025095e-35 1.0000000180025095e-35 1.0000000180025095e-35 1.0000000180025095e-35 1.0000000180025095e-35 1.0000000180025095e-35 0.00095903604407306055 1.0000000180025095e-35 1.0000000180025095e-35 1.0000000180025095e-35 -0.30614509781534455 -0.64442110599524016 0.37841443708578459 1.072061516947781 1.0000000180025095e-35
decision_type=2 2 2 2 2 2 2 2 2 2 2 2 2 2 2 2 2 2 2 2 2 2 2 2 2 2 2 2 2 2 2 2 2 2 2 2 2 2 2 2 2 2 2 2 2 2 2
left_child=3 2 5 4 6 10 12 21 9 16 30 32 22 33 15 18 20 28 29 35 -4 34 -1 24 25 26 27 -12 39 31 36 -9 -5 44 -7 38 40 41 46 -6 -2 42 -24 -10 -3 -22 -8
right_child=1 13 8 11 17 7 19 14 43 -11 23 -13 -14 -15 -16 -17 -18 -19 -20 -21 45 -23 37 -25 -26 -27 -28 -29 -30 -31 -32 -33 -34 -35 -36 -37 -38 -39 -40 -41 -42 -43 -44 -45 -46 -47 -48
leaf_value=-0.0043603834736414349 0.003241394934688036 0.020098307473015411 -0.0009310697482603509 -0.013066879867658776 0.028834113131520827 0.016818739461975585 0.0085498838860691134 -0.013864451251107341 -0.00085987590318067247 -0.019216969398171576 -0.024192622566353027 0.018109206553905358 -0.014181185180183012 0.0044035191444450322 -0.026378925403785738 -0.027319387072946785 -0.024069356320259163 0.03501927767321051 -0.029744179485915845 -0.005450690790004268 0.015180091959030299 -0.011942326236614949 0.026715397683504418 -0.030434703560546561 -0.030627971639489 -0.031400700093974512 -0.01102124503224825 -0.01102124503224825 0.0066391748191120007 0.0044035191444450322 -0.023874970458983947 0.0044035191444450322 0.0070565710121417956 0.011581502992899957 -0.014366082680720527 -0.013554069083771244 -0.02483947001203024 -0.014938415056318863 0.031703810548247335 -0.0033633147826366483 -0.028789558627171394 0.0019380465671871884 0.013258297439604367 -0.021676404647560168 0.032615117576256542 0.028050509455908017 0.0246557117474995
leaf_weight=1219.0349775850773 1543.2429301738739 1554.9378434717655 871.48135004937649 2887.8096514493227 8308.0430760830641 1740.1144815981388 599.76517011225224 2882.400431394577 461.94527967274189 825.39373631775379 8343.4131160825491 1256.1601585298777 1035.4693128168583 1025.1529751867056 5142.7490563094616 2052.804318934679 316.83998177945614 22489.64823423326 795.52167145907879 380.17007955908775 1397.994570299983 917.70430772006512 1705.4411454945803 19891.685281470418 7863.6576561778784 3200.5384088605642 3148.4997072070837 1126.0011370331049 642.24519868195057 1463.3939608931541 1450.9898475557566 591.58904108405113 789.07417897880077 356.64280739426613 350.69535441696644 143.86038602888584 549.9204283207655 243.93491917848587 5888.6471408009529 198.50690312683582 220.49512301385403 841.62343083322048 2657.4431255459785 1781.1289190202951 2484.5068458169699 1914.9961278438568 3387.4233062416315
leaf_count=4918 6236 6273 3543 11824 33261 6998 2406 11805 1878 3393 34711 5036 4219 4187 21532 8557 1304 90152 3322 1543 5651 3784 6827 83753 33088 13471 12990 4574 2586 5962 6040 2391 3170 1456 1441 583 2280 995 23587 796 914 3381 10661 7360 9963 7710 13564
internal_value=3.86926e-05 -0.0176554 -0.0205542 0.0247203 0.0273609 -0.0231964 0.0182377 -0.0142236 0.00153187 0.00950371 -0.0262166 -0.001905 0.00763128 0.0202218 -0.0185582 -0.0133882 0.0147748 0.0325798 -0.00839399 0.0260914 0.0177236 0.00440352 0.0110212 -0.0273396 -0.0247382 -0.0218076 -0.0193709 -0.0221449 0.0265783 -0.00494602 -0.0132122 -0.00980387 -0.00874719 0.0252015 0.0115815 0.0272889 -0.00651403 0.014463 0.0278858 0.0280823 -0.000784041 0.0158449 0.018526 -0.0173928 0.0278062 0.0226289 0.0222371
internal_weight=130941 76266.4 70845.2 54674.3 49741.3 63275.4 18102.8 15937 7569.78 5326.71 47338.4 4933.04 7702.95 5421.24 12928.5 7785.71 4501.31 31638.4 5732.91 10399.9 4184.47 3008.51 6667.48 43573.8 23682.1 15818.5 12617.9 9469.41 9148.8 4937.38 3764.65 3473.99 3676.88 4396.09 2090.81 10019.7 2313.66 5448.44 9875.84 8506.55 1763.74 5204.51 4362.88 2243.07 4039.44 3312.99 3987.19
internal_count=536076 316567 294688 219509 199479 263849 72684 65792 30839 21601 198057 20030 31001 21879 53569 32037 18208 126795 23480 41683 16904 12223 26782 182587 98834 65746 52275 39285 36643 20158 15470 14196 14994 17692 8439 40140 9430 21864 39557 34057 7150 20869 17488 9238 16236 13361 15970
is_linear=0
shrinkage=0.02


Tree=9
num_leaves=48
num_cat=0
split_feature=23 64 43 55 62 11 36 55 7 67 21 21 13 14 13 15 11 7 13 14 12 11 13 11 14 13 15 19 13 55 15 14 15 15 7 14 14 13 15 62 34 14 9 28 12 36 21
split_gain=137780 20972.4 9290.19 8070.79 5656.63 3622.02 3571.49 3532.11 2165.45 1647.46 1468.16 1412.65 1399.4 1393.33 1422.37 1138.95 1135.95 1074.18 997.548 951.121 842.964 777.626 669.949 639.754 613.312 752.924 689.826 674.507 580.845 550.982 542.449 499.796 484.866 482.589 481.067 474.633 438.401 413.013 355.98 354.938 331.393 316.083 313.542 305.681 298.527 261.665 247.647
threshold=1.0000000180025095e-35 0.13095607468644874 1.0000000180025095e-35 -0.12121457823290799 1.0000000180025095e-35 0.44960698371495067 1.0000000180025095e-35 -1.0000000180025095e-35 -0.44060550012974625 1.2471391121006012 1.0000000180025095e-35 1.0000000180025095e-35 1.0000000180025095e-35 1.0000000180025095e-35 1.0000000180025095e-35 1.0000000180025095e-35 0.44960698371495067 -1.0390492033205374 1.0000000180025095e-35 1.0000000180025095e-35 1.0000000180025095e-35 1.0000000180025095e-35 1.0000000180025095e-35 0.44960698371495067 1.0000000180025095e-35 1.0000000180025095e-35 1.0000000180025095e-35 1.0000000180025095e-35 1.0000000180025095e-35 -0.27817653656160762 1.0000000180025095e-35 1.0000000180025095e-35 1.0000000180025095e-35 1.0000000180025095e-35 -0.30614509781534455 1.0000000180025095e-35 1.0000000180025095e-35 1.0000000180025095e-35 1.0000000180025095e-35 1.0000000180025095e-35 0.40356164454070592 1.0000000180025095e-35 0.82979159412449965 0.70087929257317139 1.0000000180025095e-35 1.0000000180025095e-35 1.0000000180025095e-35
decision_type=2 2 2 2 2 2 2 2 2 2 2 2 2 2 2 2 2 2 2 2 2 2 2 2 2 2 2 2 2 2 2 2 2 2 2 2 2 2 2 2 2 2 2 2 2 2 2
left_child=2 3 4 19 5 12 10 -3 -8 23 17 -9 20 14 15 21 22 35 29 28 -1 40 32 -4 25 26 27 39 -2 -7 31 34 42 36 -22 37 -31 38 -5 -19 -10 -12 44 -36 -6 -25 -23
right_child=1 7 9 6 16 18 8 11 13 -11 41 -13 -14 -15 -16 -17 -18 24 -20 -21 30 46 -24 45 -26 -27 -28 -29 -30 33 -32 -33 -34 -35 43 -37 -38 -39 -40 -41 -42 -43 -44 -45 -46 -47 -48
leaf_value=-0.0042645848937473687 0.022836534124652093 0.030891412201438699 -0.015241189818915748 -0.00087534122606883679 0.012775516192086771 0.034028253870475596 0.0022751343895278282 0.0022751343895278282 -0.003120932967551714 0.01928718283269102 0.0075875147147275602 0.028094831339117766 -0.014169626693362214 -0.025681055209857237 -0.026617398569159643 -0.029368246374886768 0.034387276924683741 -0.02392060362866897 0.0034250304800223547 -0.0090976108378861553 0.026549003220751658 0.0022751343895278282 0.0063778641333555181 -0.0056063441549670827 -0.030107295043453441 -0.030361011130997408 -0.03104591190861818 -0.0064825119952901505 -0.01033796562017061 0.026691196592792291 -0.014892803811278497 0.0014742890758281228 -0.0025657707367831056 -0.0068735255780393344 0.016928951362441273 -0.024917520739499936 0.0088956747896943352 -0.025110166619706303 -0.028586546739550571 -0.01487493656316884 -0.015978737604204988 -0.018156652622674557 0.03333426705859982 0.0013495260189385851 0.02690977217088858 0.010974238643674748 0.026192603242618615
leaf_weight=1204.2752096801996 1820.2953626513481 2117.6611009836197 2218.9527807086706 1347.936256930232 698.23652197420597 3286.4386867135763 1777.340161755681 8438.7170251905918 1396.0468845367432 1116.5137398093939 604.06269393861294 846.11401887238026 1029.4246029257774 5346.7373132556677 2138.2701059579849 834.7064193636179 22447.853161662817 8519.9010339379311 750.43908981978893 628.25201769173145 1717.7188935726881 1797.7801347225904 646.91500873863697 887.68400739133358 19269.725852787495 7648.3720587641001 3107.3301673382521 1240.1516551226377 237.91034331917763 5508.0572073608637 243.40828922390938 841.94494645297527 208.94417791068554 196.78169938921928 1968.238535925746 1404.0783414393663 617.74912752211094 529.75099937617779 213.52421759068966 2191.36349645257 1884.978667601943 277.00368325412273 3276.2288432121277 677.24258567392826 4328.7178563773632 664.32754868268967 218.97831711173058
leaf_count=4860 7295 8488 9089 5458 2796 13185 7218 34161 5673 4473 2486 3390 4202 22532 8970 3509 90146 35610 3027 2574 6877 7322 2604 3612 81842 32462 13196 5059 973 22070 995 3382 838 797 7889 5890 2474 2213 892 9128 7757 1158 13136 2719 17336 2689 889
internal_value=2.7259e-05 -0.017408 0.0242722 -0.0218323 0.0268621 0.0179243 -0.023323 0.00759309 -0.0149742 -0.00203665 -0.0260952 0.00227513 0.00751603 -0.0177241 -0.0125766 -0.00767552 0.0319628 -0.0265907 0.0256405 0.00759309 0.010874 -0.00425032 0.026016 -0.0083554 -0.0274781 -0.025245 -0.0226438 -0.0204557 0.0189971 0.0273747 0.0142203 0.0155856 0.0275071 0.023909 0.0183071 -0.0159264 0.0248992 -0.0098761 -0.00468855 -0.0220723 -0.0105118 -0.000523449 0.0282642 0.0129436 0.026549 0.0014946 0.00227513
internal_weight=130373 75837 54536.1 64434.5 49648.6 18041.7 61748 11402.5 15394.8 4887.48 46353.2 9284.83 7682.25 13617.5 8270.76 6132.49 31606.9 45472.1 10359.5 2686.46 6652.83 5297.78 9159.04 3770.96 41976.8 22707.1 15058.7 11951.4 2058.21 9609.03 5448.55 5205.14 8512.13 6322.59 4363.2 3495.29 6125.81 2091.21 1561.46 10711.3 3281.03 881.066 8303.18 2645.48 5026.95 1552.01 2016.76
internal_count=535341 316145 219196 270106 199333 72477 259264 46039 63870 19863 195394 37551 30924 56652 34120 25150 126856 191750 41553 10842 26722 21641 36710 15390 177297 95455 62993 49797 8268 38526 21862 20867 34106 25341 17485 14453 24544 8563 6350 44738 13430 3644 33268 10608 20132 6301 8211
is_linear=0
shrinkage=0.02


Tree=10
num_leaves=48
num_cat=0
split_feature=23 58 4 9 4 65 19 65 44 44 13 13 15 44 4 12 12 44 44 13 44 15 11 13 44 15 11 13 44 36 40 15 66 4 65 62 19 15 36 12 13 15 4 15 4 4 36
split_gain=132262 19600.1 10861 9052.29 5277.53 4407.77 3688.26 3264.32 2189.65 1982.79 1889.57 1656 1529.33 1459.31 1323.88 1233.57 1232.69 1243.99 1132.11 1129.39 1110.36 1050.43 1041.51 799.901 792.562 651.077 628.379 627.709 618.48 611.962 500.857 485.453 402.851 365.438 345.483 345.464 337.422 334.438 329.551 329.348 329.008 318.508 305.52 304.108 290.105 285.506 267.094
threshold=1.0000000180025095e-35 1.0000000180025095e-35 -0.27817653656160762 0.17799382715749448 -0.27817653656160762 0.32549481126551771 1.0000000180025095e-35 0.51203626317745876 0.08308255725200793 1.0000000180025095e-35 1.0000000180025095e-35 1.0000000180025095e-35 1.0000000180025095e-35 1.0000000180025095e-35 0.45431260230565756 1.0000000180025095e-35 1.0000000180025095e-35 1.0000000180025095e-35 0.08308255725200793 1.0000000180025095e-35 0.08308255725200793 1.0000000180025095e-35 0.44960698371495067 1.0000000180025095e-35 1.0000000180025095e-35 1.0000000180025095e-35 1.0000000180025095e-35 1.0000000180025095e-35 1.0000000180025095e-35 1.0000000180025095e-35 1.0000000180025095e-35 1.0000000180025095e-35 -0.39893891993772529 0.45431260230565756 0.27051714253997555 0.0052619012580743026 1.0000000180025095e-35 1.0000000180025095e-35 1.0000000180025095e-35 1.0000000180025095e-35 1.0000000180025095e-35 1.0000000180025095e-35 -0.27817653656160762 1.0000000180025095e-35 -0.27817653656160762 0.40199194952942435 1.0000000180025095e-35
decision_type=2 2 2 2 2 2 2 2 2 2 2 2 2 2 2 2 2 2 2 2 2 2 2 2 2 2 2 2 2 2 2 2 2 2 2 2 2 2 2 2 2 2 2 2 2 2 2
left_child=3 2 5 4 20 8 9 16 10 11 12 21 15 19 44 -2 -4 -18 23 25 27 29 24 31 30 33 32 37 40 35 41 -7 -17 -9 -16 -6 -22 -1 -11 -35 43 -5 -26 -8 -3 -24 -10
right_child=1 14 7 22 6 18 28 13 46 38 -12 -13 -14 -15 34 26 17 -19 -20 -21 36 -23 45 -25 42 -27 -28 -29 -30 -31 -32 -33 -34 39 -36 -37 -38 -39 -40 -41 -42 -43 -44 -45 -46 -47 -48
leaf_value=0.031554123107604304 -0.011724686531341618 0.029506971615542162 -0.029470141337881711 0.029846135123000633 0.0016677500826991168 0.025334373668954809 0.028148270606135211 0.01419681235698054 -0.025244954193732516 -0.01751080289465828 -0.023073196824186591 -0.015590324806076559 -0.027247366648856745 -0.023620033241674006 -0.0079370447945036702 -0.0054373289687016839 -0.019337488300314783 -0.027906525955260469 -0.0060529450181456305 -0.019337488300314783 0.0065273149134281285 -0.02087764817148606 0.03471320719177446 -0.0095090169961921829 0.021958622957976806 -0.019337488300314783 0.020398729155734988 0.01066334796821026 0.0065682955648862784 0.019973665344433761 -0.0011021341837847054 -0.01660305710962498 0.012440447431329466 -0.016316691063219153 0.011861495418324139 0.015415328125449422 0.024286138856202861 0.0047882776600634315 -0.003892802430977082 0.0054651761763579729 0.0044133170166455928 0.00049380577538646981 0.0031723468379247876 -0.0079197931628096196 0.018354682060568655 0.028288284597517546 -0.013812814653012016
leaf_weight=7446.6934942752123 1291.9081161618233 2507.1918461620808 21297.909232676029 6233.6290606111288 1947.1775555610657 2408.1440296918154 3479.9321699738503 1306.4001573473215 3257.5296297967434 1979.5384090691805 1669.5751966387033 1141.7330706715584 665.12509652972221 1998.5314773768187 645.57499304413795 995.9644933193922 15896.849158495665 11842.452224239707 874.08848226070404 738.29523864388466 1294.294296875596 394.42941582202911 17771.58963522315 325.5229906886816 623.0777460038662 289.40964184701443 1597.4317558258772 670.11363905668259 835.62660977244377 2601.5857836306095 226.56825070083141 112.97925737500191 1018.206991776824 381.7367244809866 773.20717188715935 1169.6875834614038 639.14039321243763 192.13248942792416 1110.2206945121288 1006.4999049156904 273.93962408602238 151.51953341066837 778.46665644645691 95.486909702420235 1503.6902857422829 3333.1322254091501 1099.9131639152765
leaf_count=29876 5285 10071 90814 25018 7831 9658 13970 5274 13781 8139 7000 4677 2790 8259 2669 4039 66536 50480 3565 3044 5193 1619 71557 1326 2498 1192 6429 2690 3355 10418 912 461 4109 1564 3120 4684 2565 773 4528 4092 1104 608 3130 383 6070 13406 4570
internal_value=-1.19711e-05 -0.0171406 -0.0199772 0.023766 0.0150064 -0.00508876 0.00746018 -0.0241413 -0.0111661 0.000791676 -0.00442109 0.00650594 0.00117585 -0.0098413 0.0194626 0.00503841 -0.0258093 -0.02362 0.0138481 -0.00243694 0.0260767 0.0106358 0.0313673 0.0199589 0.025217 0.00285389 0.0110371 0.0292536 0.0221792 0.0128143 0.0281132 0.0237671 0.0036028 0.00285389 0.00285389 0.00683183 0.0124122 0.030882 -0.0126218 -0.000535539 0.0255641 0.0291499 0.0115386 0.0271821 0.0253344 0.0337006 -0.022365
internal_weight=129894 75504.1 70074.5 54389.7 25271.7 15316.4 15029.4 54758.1 11595.7 10344.4 7238.21 7254.61 5568.64 5720.87 5429.66 4903.51 49037.2 27739.3 3720.73 3722.34 10242.4 6112.88 29118 2846.65 8013.26 2984.05 3611.6 8308.94 4684.99 5718.45 6611.72 2521.12 2014.17 2694.64 1418.78 3116.87 1933.43 7638.83 3089.76 1388.24 3849.36 6385.15 1401.54 3575.42 4010.88 21104.7 4357.44
internal_count=535132 316198 294268 218934 101805 63013 60708 231255 48003 41896 29652 29229 22652 23425 21930 19862 207830 117016 15010 15166 41097 24552 117129 11445 32166 12122 14577 33339 18812 22933 26538 10119 8148 10930 5789 12515 7758 30649 12667 5656 15457 25626 5628 14353 16141 84963 18351
is_linear=0
shrinkage=0.02


Tree=11
num_leaves=48
num_cat=0
split_feature=24 64 55 9 43 4 55 19 36 4 13 51 49 36 15 43 51 21 12 15 4 21 49 21 51 49 15 62 19 4 12 4 40 51 19 4 15 4 51 49 64 38 4 4 49 13 15
split_gain=122435 22467.5 8805.53 7914.73 4901.58 3933.58 3503.34 3162.61 2563.4 2392.75 1934.66 1621.49 1542.49 1235.47 1204.14 1175.69 1167.36 1002.34 969.736 864.944 714.69 707.684 697.265 678.527 663.42 793.975 707.024 661.609 646.455 630.059 623.534 577.662 508.942 487.188 459.673 450.945 446.114 436.398 417.165 363.576 356.924 331.846 389.07 331.705 324.91 319.186 293.747
threshold=1.0000000180025095e-35 0.13095607468644874 -1.0000000180025095e-35 0.17799382715749448 1.0000000180025095e-35 -0.80138306432393991 -1.0000000180025095e-35 1.0000000180025095e-35 1.0000000180025095e-35 0.40199194952942435 1.0000000180025095e-35 1.0000000180025095e-35 1.0000000180025095e-35 1.0000000180025095e-35 1.0000000180025095e-35 0.40199194952942435 1.0000000180025095e-35 1.0000000180025095e-35 1.0000000180025095e-35 1.0000000180025095e-35 0.40199194952942435 1.0000000180025095e-35 1.0000000180025095e-35 1.0000000180025095e-35 1.0000000180025095e-35 1.0000000180025095e-35 1.0000000180025095e-35 1.0000000180025095e-35 1.0000000180025095e-35 -2.2140406892822369 1.0000000180025095e-35 -0.80138306432393991 1.0000000180025095e-35 1.0000000180025095e-35 1.0000000180025095e-35 -0.64442110599524016 1.0000000180025095e-35 0.45431260230565756 1.0000000180025095e-35 1.0000000180025095e-35 -1.0000000180025095e-35 1.0000000180025095e-35 0.40199194952942435 -0.27817653656160762 1.0000000180025095e-35 1.0000000180025095e-35 1.0000000180025095e-35
decision_type=2 2 2 2 2 2 2 2 2 2 2 2 2 2 2 2 2 2 2 2 2 2 2 2 2 2 2 2 2 2 2 2 2 2 2 2 2 2 2 2 2 2 2 2 2 2 2
left_child=1 2 16 4 7 13 -3 10 17 23 14 12 19 29 18 28 22 24 -2 20 -10 -11 36 31 25 26 30 35 32 -4 -7 -8 40 44 -6 -20 -1 -32 39 46 -5 42 -37 -12 -15 -9 -31
right_child=3 6 5 15 34 8 9 45 11 21 43 -13 -14 33 -16 -17 -18 -19 27 -21 -22 -23 -24 -25 -26 -27 -28 -29 -30 38 37 -33 -34 -35 -36 41 -38 -39 -40 -41 -42 -43 -44 -45 -46 -47 -48
leaf_value=0.023204815374859303 0.003409840797160842 0.030463863381104562 0.0095633161646875558 0.022150185863075329 -0.011950276700215421 -0.0240596353670968 0.020930004947648375 0.02964093554660285 0.0045590416281197357 -0.0096058140405908838 0.0060790427573238839 -0.025016636924973894 -0.026102302537833858 0.019936371857404413 -0.01501141362093531 0.0069068962453120398 -0.010793111676935394 -0.0079264499999785396 0.023983427734805204 -0.028742707561623178 -0.0096058140405908838 0.021910614270683512 -0.01167371789768097 0.031305426102259941 -0.029416763897961783 -0.029679866763654434 -0.030305600458671453 0.025975812478101816 0.034363198431642102 -0.00074109610361712997 -0.0096058140405908838 0.0055197687865647903 0.0026304491953539674 -0.0082510439379718126 0.0065928167400144269 0.019415738861867676 -0.018785914172558156 -0.020074971752096955 -0.024023902742546968 -0.024452804066828787 0.03067346800717816 -0.0043805371733520154 0.0055094222928060866 -0.014742535960153917 -0.0095596614469338967 0.01261775787326358 -0.027904221137243317
leaf_weight=2182.8826536685228 1792.4802332371473 2421.366241902113 251.80473122000694 2539.7832131385803 2470.4964497834444 6230.1761458665133 1318.091569557786 7573.0046923607588 2743.7678058892488 3855.6602576076984 428.62883849442005 5370.7864546477795 2119.0173417180777 1010.5792746096849 494.84704120457172 791.51950028538704 747.87706419825554 778.63765250146389 1572.6121286004782 845.01747271418571 2960.9186083227396 295.41710540652275 288.60531854629517 647.19741590321064 19094.100930213928 7556.1083890795708 3097.4392729699612 3730.7961360961199 15358.64788363874 1274.9620318412781 2856.6756512373686 3711.50995439291 305.36958014965057 481.07699978351593 681.29621824622154 1885.626967549324 105.04383464157581 3247.1934022754431 1219.8551565110683 463.65289083123207 9012.4952984601259 475.49591602385044 1405.886710986495 1062.5758745223284 174.32337722182274 471.07736341655254 180.49281306564808
leaf_count=8743 7204 9743 1020 10190 10176 26340 5279 30477 11133 15741 1721 22911 8981 4053 2025 3181 3081 3238 6305 3590 12216 1185 1187 2596 82316 32523 13339 14965 62029 5160 11818 14959 1227 1987 2735 7550 433 13630 5177 1957 36324 1911 5637 4361 718 1894 762
internal_value=-1.60534e-06 -0.0159307 -0.0205944 0.0237239 0.0153054 -0.0223 0.00892325 0.0188125 -0.0238023 0.00361229 0.0126533 -0.0163819 -0.0110288 -0.00539372 0.0154652 0.03095 0.00892325 -0.0262323 0.0168554 -0.00792645 -0.00792645 -0.00792645 0.0175716 0.0120497 -0.026657 -0.0243628 -0.0217567 0.0195115 0.0316488 -0.0123214 -0.0196064 0.00956332 0.0281291 0.00870452 -0.00794074 0.0149888 0.0212659 -0.0150562 -0.0148833 -0.00905892 0.0288027 0.0112258 0.0134812 -0.00875753 0.0155903 0.0286466 -0.00413489
internal_weight=129583 77530.2 65281 52052.6 24044.8 61956.6 12249.2 20893 56899.8 9827.88 12848.9 14039.5 8668.72 5056.75 11357.7 28007.8 3324.41 42860.3 10862.9 6549.7 5704.69 4151.08 2576.53 5676.8 42081.7 22987.6 15431.5 9070.42 27216.3 3390.77 12334 5029.6 11857.6 1665.98 3151.79 5339.62 2287.93 6103.87 3138.96 1919.11 11552.3 3767.01 3291.51 1491.2 1184.9 8044.08 1455.45
internal_count=535728 325816 276313 209912 96961 262869 49503 84050 242035 39760 51679 58831 35920 20834 45597 112951 13444 183204 43572 26939 23349 16926 10363 22834 179966 97650 65127 36368 109770 14076 51788 20238 47741 6758 12911 21403 9176 25448 13056 7879 46514 15098 13187 6082 4771 32371 5922
is_linear=0
shrinkage=0.02


Tree=12
num_leaves=48
num_cat=0
split_feature=23 58 4 62 4 65 65 14 12 4 14 59 13 13 12 14 13 15 14 4 14 15 59 11 13 15 13 56 14 13 14 11 11 11 14 62 15 15 4 14 66 15 4 13 14 4 13
split_gain=123198 18424.3 10342.1 8435.88 5135.11 4041.87 3222.48 2411.81 2001 1677.84 1674.12 1527.12 1476.67 1353.23 1349.2 1331.08 1453.97 1239.64 1201.77 1130.95 1126.81 1035.62 1015.88 993.339 910.859 823.127 756.562 647.17 635.419 631.279 620.538 599.928 583.395 569.632 535.935 505.46 468.283 463.617 442.087 400.438 382.92 373.71 353.262 325.842 321.805 306.52 266.686
threshold=1.0000000180025095e-35 1.0000000180025095e-35 -0.27817653656160762 1.0000000180025095e-35 0.40199194952942435 0.32549481126551771 0.63702374013183538 1.0000000180025095e-35 1.0000000180025095e-35 0.40199194952942435 1.0000000180025095e-35 1.0000000180025095e-35 1.0000000180025095e-35 1.0000000180025095e-35 1.0000000180025095e-35 1.0000000180025095e-35 1.0000000180025095e-35 1.0000000180025095e-35 1.0000000180025095e-35 0.40199194952942435 1.0000000180025095e-35 1.0000000180025095e-35 1.0000000180025095e-35 1.0000000180025095e-35 1.0000000180025095e-35 1.0000000180025095e-35 1.0000000180025095e-35 0.011041714426518497 1.0000000180025095e-35 1.0000000180025095e-35 1.0000000180025095e-35 0.44960698371495067 1.0000000180025095e-35 0.44960698371495067 1.0000000180025095e-35 0.0052619012580743026 1.0000000180025095e-35 1.0000000180025095e-35 0.45431260230565756 1.0000000180025095e-35 -0.41105775588737042 1.0000000180025095e-35 -1.2199482865338054 1.0000000180025095e-35 1.0000000180025095e-35 -0.27817653656160762 1.0000000180025095e-35
decision_type=2 2 2 2 2 2 2 2 2 2 2 2 2 2 2 2 2 2 2 2 2 2 2 2 2 2 2 2 2 2 2 2 2 2 2 2 2 2 2 2 2 2 2 2 2 2 2
left_child=3 2 5 4 7 8 14 12 -2 31 13 28 25 21 -4 16 17 23 24 30 26 32 34 35 37 33 36 42 29 41 43 39 40 45 -11 -16 -7 -8 -25 46 -10 -6 -9 -3 -13 -1 -5
right_child=1 19 6 9 11 20 18 27 10 22 -12 44 -14 -15 15 -17 -18 -19 -20 -21 -22 -23 -24 38 -26 -27 -28 -29 -30 -31 -32 -33 -34 -35 -36 -37 -38 -39 -40 -41 -42 -43 -44 -45 -46 -47 -48
leaf_value=0.025614719145321527 -0.022092439813865165 0.029793018735883057 -0.028695806700921912 0.029968250648775771 0.0042433538141462192 0.024937823091777798 0.0043059293348865404 0.015146757062062715 -0.0053651203779394741 0.01750917483256775 -0.017771225668994726 0.018691261758197821 0.0014150789369853408 -0.018832925007926875 -0.019452679257088379 -0.027119631063546895 -0.027707802578729148 -0.029325924368905416 -0.02186970537273223 0.0043059293348865404 -0.0064290791078178925 -0.024584224676027264 0.029031089418051399 0.0043059293348865404 -0.02355638238235374 -0.0046172545747232572 -0.0092366897528643084 0.019289980182162336 -0.018121528645463507 -0.021090316420464501 0.0061733509858094828 0.033404661366490847 0.019694742901527861 0.030764570832787681 -0.000649201415213972 -0.0064184019169128796 -0.016038753047932851 -0.026695493880971585 -0.0094402918285250454 0.019289980182162336 0.012038564951203388 -0.02384633496427279 -0.0053409902389615887 0.0043037119619955449 -0.0025375268602066277 0.013677047545117879 0.013403613649188444
leaf_weight=2130.9627897143364 4025.5573699623346 3057.6825956851244 21487.623927533627 5709.6930036991835 2260.2136996686459 2406.9650972336531 2090.6572783142328 409.7137648165226 992.91228595376015 3037.1510927528143 2552.3901655673981 1345.8446915894747 1065.8649152219296 982.89251260459423 4865.6118671000004 11970.68173584342 4722.8423723131418 1901.402596026659 1385.4209823608398 1519.1121874153614 890.36923579871655 366.96866184473038 3079.5475219786167 1505.5204132646322 509.92854671180248 336.18584808707237 327.32074624300003 799.28600688278675 1598.4979012310505 591.54710581898689 612.81169641017914 19065.739626929164 1585.5713321715593 6392.091357588768 826.99925090372562 1577.8302694410086 115.9965884834528 201.39947472512722 1830.9137592315674 1242.0981837660074 1027.6907654851675 205.28107368946075 1855.1377006322145 215.27888512611389 362.04996864497662 1453.5565802901983 420.90748366713524
leaf_count=8551 17011 12309 92929 23009 9075 9653 8470 1642 4029 12230 10808 5418 4310 4148 20334 51723 20310 8196 5734 6211 3639 1550 12436 6168 2104 1367 1337 3215 6610 2448 2487 77223 6375 25777 3359 6536 475 830 7613 5000 4143 853 7515 873 1453 5828 1692
internal_value=3.0392e-05 -0.0166183 -0.0193912 0.0229899 0.012993 -0.00485939 -0.0234977 0.0195877 -0.0107181 0.0292198 -0.00461675 -0.00197561 0.0238284 0.00216121 -0.0249129 -0.0220468 -0.0183429 -0.0145535 -0.00664325 0.0189434 0.0132026 0.00735998 0.020462 -0.0116773 0.000893025 0.0261443 0.0193353 0.00383588 -0.00790968 -0.00256373 0.0246619 0.0315186 0.0106195 0.0271814 0.0136242 -0.0162632 0.0230455 0.00430593 -0.00281771 0.0271814 0.00348886 0.00189148 -0.00162717 0.0281192 0.0141928 0.0207816 0.0288345
internal_weight=128918 74729.4 69324.5 54188.4 20806.2 15274.6 54049.8 14442.8 11534 33382.1 7508.43 6363.43 11378.7 4956.04 49862.4 28374.8 16404.1 11681.3 4187.41 5404.89 3740.65 3973.14 6943.7 9779.88 2801.99 10312.8 2850.28 3064.14 4655.54 3057.04 3885.77 26438.4 3606.17 9976.61 3864.15 6443.44 2522.96 2292.06 3336.43 7372.7 2020.6 2465.49 2264.85 3272.96 1707.89 3584.52 6130.6
internal_count=535006 315995 294115 219011 84062 63168 230947 58205 48064 134949 31053 25857 45833 20245 213809 120880 69157 48847 17138 21880 15104 16097 28025 40651 11404 41523 11465 12372 18986 12376 15669 106924 14547 40156 15589 26870 10128 9300 13781 29701 8172 9928 9157 13182 6871 14379 24701
is_linear=0
shrinkage=0.02


Tree=13
num_leaves=48
num_cat=0
split_feature=23 64 9 4 4 4 19 14 19 19 66 19 41 19 14 11 14 15 62 12 40 14 4 14 41 14 11 15 11 15 40 12 14 40 12 40 14 21 4 15 12 4 15 14 4 60 15
split_gain=118612 18367.3 8216.18 7373.98 4891.13 3873.5 3310.64 2439.82 2296.88 2002.67 1687.34 1509.92 1346.29 1198.39 1049.25 988.926 933.932 895.08 852.498 830.262 812.953 802.162 790.481 746.214 743.64 666.452 651.457 635.137 607.53 553.31 469.093 436.898 436.055 435.388 396.825 382.558 338.075 322.458 307.79 299.41 281.383 268.201 267.664 250.724 249.898 239.972 239.472
threshold=1.0000000180025095e-35 0.13095607468644874 0.17799382715749448 -0.27817653656160762 0.40199194952942435 0.40199194952942435 1.0000000180025095e-35 1.0000000180025095e-35 1.0000000180025095e-35 1.0000000180025095e-35 -0.30313056117964082 1.0000000180025095e-35 1.0000000180025095e-35 1.0000000180025095e-35 1.0000000180025095e-35 0.44960698371495067 1.0000000180025095e-35 1.0000000180025095e-35 1.0000000180025095e-35 1.0000000180025095e-35 -1.0000000180025095e-35 1.0000000180025095e-35 -0.27817653656160762 1.0000000180025095e-35 1.0000000180025095e-35 1.0000000180025095e-35 0.44960698371495067 1.0000000180025095e-35 0.44960698371495067 1.0000000180025095e-35 1.0000000180025095e-35 1.0000000180025095e-35 1.0000000180025095e-35 0.40199194952942435 1.0000000180025095e-35 -1.0000000180025095e-35 1.0000000180025095e-35 1.0000000180025095e-35 -0.27817653656160762 1.0000000180025095e-35 1.0000000180025095e-35 0.40199194952942435 1.0000000180025095e-35 1.0000000180025095e-35 -0.64442110599524016 -0.15434458274839849 1.0000000180025095e-35
decision_type=2 2 2 2 2 2 2 2 2 2 2 2 2 2 2 2 2 2 2 2 2 2 2 2 2 2 2 2 2 2 2 2 2 2 2 2 2 2 2 2 2 2 2 2 2 2 2
left_child=2 3 4 6 7 11 10 12 19 18 40 22 17 37 20 23 24 28 32 -5 -12 -21 -3 30 29 35 44 34 38 31 39 -10 33 42 -22 -8 -11 -7 -1 -4 -2 -17 -6 -13 -9 -25 -37
right_child=1 5 15 8 9 13 25 26 16 36 14 43 -14 -15 -16 41 -18 -19 -20 21 27 -23 -24 45 -26 -27 -28 -29 -30 -31 -32 -33 -34 -35 -36 46 -38 -39 -40 -41 -42 -43 -44 -45 -46 -47 -48
leaf_value=0.025694106560287349 -0.025435785243343032 0.015978516680749882 0.028305772921837995 -0.028667323300060974 0.0013183300296957449 -0.016300505733504139 -0.0068394025284662296 0.008182930957451982 -0.011835892663738348 0.021003848010241768 -0.017575376462167558 0.030026062449600568 0.0042775531973719824 0.012009654732621564 -0.016378908749550551 0.033064091082265927 -0.023047846011398688 -0.0038003724034781504 0.006238815749777497 -0.020049402801626558 -0.0032486843737318479 -0.027277114564055793 -0.00053129800371694649 -0.0019944594689519667 -0.020049402801626558 -0.0057058095678934554 0.014279752202513381 -0.018721838970334938 0.030645667670379222 -0.020049402801626558 -0.0014353972958513991 0.0084985446883618226 -0.018964839855445149 -0.021403487036401408 0.015978516680749882 0.024320487371767622 0.006238815749777497 0.012009654732621564 0.014883825248339939 6.662956648884928e-05 -0.018721838970334938 0.026816156937075755 -0.024145228127647168 0.015978516680749882 -0.0079614645604936841 0.015985732425386572 -0.014799417818860499
leaf_weight=2557.3479276448488 2507.0648629665375 2635.0414258241653 6212.0004627853632 19737.977170571685 1862.5819855034351 2926.3144953399897 194.26489219069481 552.95523230731487 559.07768321037292 1891.2204134464264 570.86323550343513 2319.3010908663273 1236.1057217121124 848.96038271486759 1521.8705435991287 17578.178189337254 1739.6690130084753 385.18000893294811 1908.9740748107433 14237.87952157855 523.74224086105824 10847.551516339183 2071.2297747284174 425.91562740504742 667.24268014729023 533.41727294027805 1700.0060891360044 222.96102353930473 7441.4829039126635 276.82524558901787 230.09865157306194 1716.9217614233494 1406.3256034404039 520.65886451303959 1748.393508374691 1585.5316324234009 457.57475210726261 154.66079612076283 1806.0882663726807 153.91121703386307 3859.9243538230658 3311.6070691943169 179.67544516921043 372.15008996427059 1242.9607239365578 976.48958474397659 64.213301166892052
leaf_count=10285 10713 10572 25093 86289 7479 12041 799 2217 2305 7629 2427 9364 4996 3424 6498 71518 7482 1564 7714 60559 2149 47333 8380 1717 2859 2198 6856 951 30080 1180 926 6983 5847 2170 7034 6354 1836 621 7244 617 16142 13410 753 1494 5058 3925 265
internal_value=-4.75284e-05 -0.0164198 0.0225071 -0.0206284 0.0141475 0.00702921 -0.0074173 0.0202969 -0.024166 0.00149732 -0.0120601 0.0155524 0.0241717 -0.00901459 -0.00281181 0.0297836 -0.0112467 0.0261883 -0.00474056 -0.0255951 0.00392729 -0.0231763 0.00871469 0.0237924 -0.00486322 0.0139701 0.00541154 0.00871469 0.0271671 0.000138482 0.0266094 0.00349908 -0.0100214 -0.00510567 0.0120516 0.0196617 0.0171016 -0.0148108 0.0212262 0.0276232 -0.0187218 0.0320756 -0.000938001 0.0274972 -0.00298799 0.0105288 0.0227858
internal_weight=128480 74443 54037.3 63115.4 25149.1 11327.7 13332.2 16922.1 49783.1 8227.01 10954.8 7397.72 13426.2 3929.94 4587.83 28888.2 4959.74 12190.1 5878.22 44823.4 3065.96 25085.4 4706.27 7998.42 3220.07 2377.43 3495.92 2495.1 11804.9 2552.82 6596.01 2276 3969.24 2562.92 2272.14 1844.01 2348.8 3080.98 4363.44 6365.91 6366.99 20889.8 2042.26 2691.45 1795.92 1402.41 1649.74
internal_count=535350 316416 218934 270520 101728 45896 55530 68300 214990 33428 45914 29810 54169 16086 19059 117206 20809 49173 23963 194181 12561 107892 18952 32278 13327 9616 14131 10134 47609 10468 26636 9288 16249 10402 9183 7418 9465 12662 17529 25710 26855 84928 8232 10858 7275 5642 6619
is_linear=0
shrinkage=0.02


Tree=14
num_leaves=48
num_cat=0
split_feature=23 64 62 4 4 14 14 14 19 4 4 19 13 13 14 11 19 14 15 13 13 4 11 15 15 14 15 13 11 11 14 11 4 11 15 4 13 21 11 14 14 19 4 38 15 56 9
split_gain=114861 17721.6 8008.99 7222.13 4799.73 3670.91 2737.7 2341.39 2242.46 2202.94 1633.59 1425.34 1381.73 1324.42 900.73 883.422 865.914 754.041 750.307 725.557 961.202 686.463 642.852 626.606 846.962 601.374 584.356 569.908 557.998 542.527 420.735 393.67 369.173 341.345 339.91 273.681 270.247 250.852 248.202 248.054 241.378 232.237 230.909 209.679 199.682 197.942 190.222
threshold=1.0000000180025095e-35 0.25313935476860844 1.0000000180025095e-35 -0.27817653656160762 0.40199194952942435 1.0000000180025095e-35 1.0000000180025095e-35 1.0000000180025095e-35 1.0000000180025095e-35 0.40199194952942435 0.40199194952942435 1.0000000180025095e-35 1.0000000180025095e-35 1.0000000180025095e-35 1.0000000180025095e-35 0.44960698371495067 1.0000000180025095e-35 1.0000000180025095e-35 1.0000000180025095e-35 1.0000000180025095e-35 1.0000000180025095e-35 -0.33049718933784084 0.44960698371495067 1.0000000180025095e-35 1.0000000180025095e-35 1.0000000180025095e-35 1.0000000180025095e-35 1.0000000180025095e-35 0.44960698371495067 0.44960698371495067 1.0000000180025095e-35 1.0000000180025095e-35 -2.2140406892822369 0.44960698371495067 1.0000000180025095e-35 -0.27817653656160762 1.0000000180025095e-35 1.0000000180025095e-35 0.44960698371495067 1.0000000180025095e-35 1.0000000180025095e-35 1.0000000180025095e-35 -1.2199482865338054 1.0000000180025095e-35 1.0000000180025095e-35 0.15425627563221816 0.95672336129157887
decision_type=2 2 2 2 2 2 2 2 2 2 2 2 2 2 2 2 2 2 2 2 2 2 2 2 2 2 2 2 2 2 2 2 2 2 2 2 2 2 2 2 2 2 2 2 2 2 2
left_child=2 3 4 6 7 9 -2 12 17 13 28 25 18 23 19 -12 37 20 29 26 24 -7 42 31 -5 27 33 34 30 35 36 -3 -8 -10 38 -1 44 46 -6 -13 -17 -14 -9 -34 -4 -24 -11
right_child=1 5 10 8 11 21 32 22 14 16 15 39 41 -15 -16 40 -18 -19 -20 -21 -22 -23 45 -25 -26 -27 -28 -29 -30 -31 -32 -33 43 -35 -36 -37 -38 -39 -40 -41 -42 -43 -44 -45 -46 -47 -48
leaf_value=0.024584098213457625 -0.00050174552363071317 0.018292476547062776 0.029721578900906102 -0.017801927825325976 -0.0011389502479597718 0.0034959814813371975 0.0034959814813371975 0.010744379090532634 -0.0023800485638882803 -0.013754186095706835 0.013569615838306051 0.013569615838306051 -0.0044456195292682486 -0.00050174552363071317 -0.022650299851769168 0.027435118786291061 0.018534307376731094 -0.02810254650576232 -0.003984465404735054 -0.022868799052721545 -0.028515253135809028 -0.019123884995448322 0.0080964826601906265 -7.7860932084563591e-06 -0.029237485620667109 -0.017801193520971086 -0.027131725146334582 -0.020323764950474169 0.032374501785701497 0.029761545506417977 0.015221049536416856 0.029958034218745176 -0.026239563371671805 0.013757650398785758 -0.022961673091789123 0.0133181618420114 0.012404054323277418 0.018534307376731094 0.012618492211912523 -0.0029436055915065575 0.013793569386365324 0.012404054323277418 -0.0091242083151903287 -0.019123884995448322 0.0043574242445993455 0.024152710694930805 0.0010767280861785902
leaf_weight=2135.9805434793234 8592.9267227053642 1848.9982666671276 5541.9401239305735 13084.198727861047 1457.6386568397284 720.25864350795746 129.15869319438934 284.10660323500633 1478.0274373888969 1344.2068627029657 2638.3787806630135 1346.7778393775225 785.29028874635696 558.24540720880032 1744.1307580769062 3650.9455564916134 653.27524872124195 20181.932876452804 339.08110775053501 659.08796136081219 8077.4457852244377 2099.0207247287035 1071.6167894601822 185.15550357103348 3235.8311736136675 1579.0359439998865 281.2921202480793 586.10431885719299 18952.589689403772 6369.6128488332033 1245.9679401814938 3138.8449954539537 1834.1686665415764 810.69996279478073 205.44428311288357 1457.8842312097549 416.8100109398365 119.83088618516922 817.75141207873821 363.38056755065918 610.36377787590027 285.24261827766895 1296.2838790714741 2737.4292730987072 127.5708319246769 430.6091770529747 465.33995193243027
leaf_count=8599 35378 7429 22461 55692 5858 2892 533 1138 6047 5519 10652 5437 3183 2255 7547 14832 2627 89044 1380 2838 35511 8635 4315 748 14265 6573 1205 2444 77391 25845 5023 12667 7956 3291 862 5845 1677 480 3278 1458 2457 1146 5264 11672 511 1743 1900
internal_value=9.16852e-07 -0.0161864 0.0221787 -0.0203063 0.012451 0.00706995 -0.00721547 0.0188193 -0.0238179 0.0139943 0.0282786 -0.00203333 0.0230094 0.0209038 -0.0110751 0.0196094 -0.00134184 -0.0252391 0.0252562 -0.00481541 -0.0228688 -0.00721547 0.00335671 0.0241966 -0.0200718 -0.00777922 -7.78609e-06 -0.00261315 0.030553 0.0262518 0.0262518 0.0256404 -0.019484 0.00334142 0.00158079 0.0200214 0.0280085 -0.00808095 0.00381039 0.0135696 0.0254867 0.0013813 -0.00554563 -0.0204892 0.0291522 0.0127185 -0.00994256
internal_weight=127976 73979.5 53996.4 62846.3 20811.8 11133.2 13293.7 14455.7 49552.6 8313.9 33184.6 6356.13 11373.1 5731.24 4973.24 6899.69 2582.65 44579.4 10302.6 3229.11 24397.5 2819.28 3082.62 5173 16320 4645.97 2570.02 3066.94 26284.9 9963.48 7332.29 4987.84 4700.76 2288.73 2480.83 3593.86 6086.32 1929.38 2275.39 1710.16 4261.31 1070.53 1580.39 4571.6 5669.51 1502.23 1809.55
internal_count=535503 316131 219372 270979 84368 45152 55539 58458 215440 33625 135004 25910 45998 23099 20928 27941 10526 194512 41669 13381 105468 11527 12460 20844 69957 19015 10543 12442 107063 40289 29672 20096 20161 9338 9998 14444 24649 7899 9136 6895 17289 4329 6402 19628 22972 6058 7419
is_linear=0
shrinkage=0.02


Tree=15
num_leaves=48
num_cat=0
split_feature=23 64 9 4 43 14 11 14 19 13 12 4 43 36 13 13 14 15 13 4 11 4 12 14 15 15 11 15 12 13 43 4 58 36 62 19 12 19 13 14 13 15 15 14 4 14 4
split_gain=110418 17274.1 7693.8 6936.63 4699.77 3559.29 3151.36 2721.24 2184.59 2076.21 1419.74 1306.31 1186.52 1007.29 889.693 842.079 837.682 808.908 702.929 680.49 665.568 579.686 578.147 575.524 548.75 465.225 458.53 406.404 398.805 394.712 365.019 359.72 337.341 334.456 333.905 324.249 438.614 308.771 302.403 276.545 357.49 334.024 264.976 230.047 232.542 229.15 255.817
threshold=1.0000000180025095e-35 0.25313935476860844 0.17799382715749448 -0.27817653656160762 1.0000000180025095e-35 1.0000000180025095e-35 0.44960698371495067 1.0000000180025095e-35 1.0000000180025095e-35 1.0000000180025095e-35 1.0000000180025095e-35 -0.27817653656160762 0.19270933842449142 1.0000000180025095e-35 1.0000000180025095e-35 1.0000000180025095e-35 1.0000000180025095e-35 1.0000000180025095e-35 1.0000000180025095e-35 -0.33049718933784084 0.44960698371495067 0.45431260230565756 1.0000000180025095e-35 1.0000000180025095e-35 1.0000000180025095e-35 1.0000000180025095e-35 1.212375060398867 1.0000000180025095e-35 1.0000000180025095e-35 1.0000000180025095e-35 0.24502999120072463 -2.2140406892822369 1.0000000180025095e-35 1.0000000180025095e-35 0.0052619012580743026 1.0000000180025095e-35 1.0000000180025095e-35 1.0000000180025095e-35 1.0000000180025095e-35 1.0000000180025095e-35 1.0000000180025095e-35 1.0000000180025095e-35 1.0000000180025095e-35 1.0000000180025095e-35 0.40199194952942435 1.0000000180025095e-35 0.40199194952942435
decision_type=2 2 2 2 2 2 2 2 2 2 2 2 2 2 2 2 2 2 2 2 2 2 2 2 2 2 2 2 2 2 2 2 2 2 2 2 2 2 2 2 2 2 2 2 2 2 2
left_child=2 3 4 7 6 9 11 -2 13 10 35 23 20 39 24 22 18 21 25 -7 29 -12 -13 38 28 36 33 34 -8 42 -15 -9 -14 -6 -24 -3 -10 -23 -1 40 41 -5 43 44 -4 46 -30
right_child=1 5 12 8 26 19 14 31 16 -11 17 15 32 30 -16 -17 -18 -19 -20 -21 -22 37 27 -25 -26 -27 -28 -29 45 -31 -32 -33 -34 -35 -36 -37 -38 -39 -40 -41 -42 -43 -44 -45 -46 -47 -48
leaf_value=0.023587604854786077 -0.0005101527144665952 -0.0005101527144665952 0.029774541544812651 -0.021034923762128042 -0.016211705416378282 0.0037386098489737458 0.015883364189155459 0.0037386098489737458 -0.011921931110008339 -0.0005101527144665952 0.027702310471633577 -0.009106963425297241 0.0032264701967876352 -0.019414416009621741 0.0045847616661605917 -0.016127635665451345 -0.019414416009621741 -0.0005101527144665952 -0.019414416009621741 -0.018752655860741003 0.031610734936092184 0.0058680105440572687 0.0055855772676878827 0.0033528296836183849 -0.002111414059504975 -0.019414416009621741 0.011600808380017844 -0.018766477528329457 0.030398351424182492 0.0069045073682779271 -0.026028058823133492 -0.020418678202339269 0.02585624950527108 -0.0022333748990149282 0.01830141309683541 0.018201795622658588 0.0083225216606131209 0.026462799254463903 0.0028951676553455818 -0.028495612120418283 -0.028711344491036388 -0.029232719653016138 1.7882809575323225e-06 0.016642524415680301 0.019851464179685901 0.018431039624580359 0.022421261158026382
leaf_weight=2672.0267427861691 8603.1904979348183 1031.9428630322218 4740.2247108966112 9296.9906775057316 1869.963400170207 721.79744262993336 1391.5566421449184 132.14396516978741 566.90190914273262 1044.1979050338268 4310.8100753724575 885.34218974411488 894.59020809829235 6996.8630646318197 901.93268950283527 862.46522644162178 1726.6866373121738 243.61858280003071 657.41268219053745 2107.5850412547588 20021.698128730059 897.29590292274952 2156.4585347622633 926.5292936116457 286.13345488905907 277.36481465399265 403.62337827682495 199.86810077726841 6546.9945171326399 474.3153930157423 3349.482257142663 4572.5210298299789 372.31915952265263 1080.5405178666115 1339.4645612090826 370.25036300718784 1733.2795602530241 430.47013323009014 316.38753987848759 15776.920623853803 6315.5148323476315 2546.1097973436117 155.8342063575983 857.2163712233305 1196.5434490144253 1039.2084324508905 2163.5342275202274
leaf_count=10792 35423 4186 19292 40162 7760 2898 5630 545 2341 4266 17399 3584 3601 29833 3647 3575 7518 993 2848 8697 82173 3651 8650 3721 1161 1197 1633 830 26661 1909 14758 19746 1496 4429 5384 1499 7041 1728 1271 70412 28134 11368 625 3454 4838 4195 8743
internal_value=-2.60464e-05 -0.0159225 0.0217712 -0.0200116 0.0136679 0.00700082 0.0170751 -0.0071989 -0.0234739 0.013802 0.0181495 0.00832259 0.0288375 -0.024884 0.0237168 0.00198451 -0.0108847 0.0224594 -0.00474205 -0.0071989 0.0297111 0.0241426 0.00539855 0.0171313 0.025226 -0.000510153 -0.00836102 0.00887569 0.0259283 0.0245827 -0.0194144 -0.0194262 0.00989962 -0.0110963 0.0104634 6.45563e-05 6.45563e-05 0.0125673 0.0213994 -0.0265507 -0.0248587 -0.0228008 0.0257875 0.0263788 0.0277801 0.0273594 0.0284212
internal_weight=127464 73709.4 53754.8 62551.4 25042 11158 21687.9 13307.9 49243.5 8328.59 7284.39 9358.54 28712.7 44281.9 12329.4 5443.6 4961.65 5882.19 3234.96 2829.38 27445.8 5638.58 4581.13 3914.94 11427.4 2577.55 3354.13 3695.79 11141.3 7424.13 10346.3 4704.66 1266.91 2950.5 3495.92 1402.19 2300.18 1327.77 2988.41 33935.5 18158.6 11843.1 6949.82 6793.98 5936.77 9749.74 8710.53
internal_count=535697 316643 219054 271326 101666 45317 87844 55714 215612 33722 29456 37807 117388 194667 50037 22023 20945 23771 13427 11595 112291 22778 18448 15784 46390 10579 13822 14864 45229 30118 44591 20291 5097 12189 14034 5685 9382 5379 12063 150076 79664 51530 28209 27584 24130 39599 35404
is_linear=0
shrinkage=0.02


Tree=16
num_leaves=48
num_cat=0
split_feature=23 64 62 55 4 36 55 14 4 36 4 19 13 4 14 13 4 39 66 11 11 36 14 13 53 56 4 14 14 57 13 11 11 54 4 14 11 36 36 4 46 13 11 43 11 13 4
split_gain=106273 16788.9 7551.8 6793.11 4579.53 3282.94 2822.89 2128.78 1979.58 2625.73 1559.31 1333.14 1253.35 1247.96 1200.07 1149.17 1038.3 904.21 877.223 825.033 683.471 675.006 640.054 811.586 723.32 583.901 570.464 557.81 543.092 541.289 509.637 494.505 434.028 423.575 411.453 409.791 372.003 364.569 334.07 325.746 323.509 292.911 288.346 285.163 259.976 259.246 254.292
threshold=1.0000000180025095e-35 0.13095607468644874 1.0000000180025095e-35 -1.0000000180025095e-35 0.40199194952942435 1.0000000180025095e-35 -1.0000000180025095e-35 1.0000000180025095e-35 0.40199194952942435 1.0000000180025095e-35 0.40199194952942435 1.0000000180025095e-35 1.0000000180025095e-35 -0.80138306432393991 1.0000000180025095e-35 1.0000000180025095e-35 0.40199194952942435 1.0000000180025095e-35 -0.48893486693763627 0.44960698371495067 0.44960698371495067 -1.0000000180025095e-35 1.0000000180025095e-35 1.0000000180025095e-35 1.0000000180025095e-35 0.011041714426518497 0.40199194952942435 1.0000000180025095e-35 1.0000000180025095e-35 0.19423050093854663 1.0000000180025095e-35 1.0000000180025095e-35 1.0000000180025095e-35 1.0000000180025095e-35 0.40199194952942435 1.0000000180025095e-35 0.44960698371495067 -1.0000000180025095e-35 1.0000000180025095e-35 -0.80138306432393991 0.40199194952942435 1.0000000180025095e-35 1.0000000180025095e-35 -1.0106656754288725 0.44960698371495067 1.0000000180025095e-35 -0.27817653656160762
decision_type=2 2 2 2 2 2 2 2 2 2 2 2 2 2 2 2 2 2 2 2 2 2 2 2 2 2 2 2 2 2 2 2 2 2 2 2 2 2 2 2 2 2 2 2 2 2 2
left_child=2 3 4 18 7 13 -3 12 14 16 27 28 20 37 15 17 21 32 -2 -12 33 42 23 24 26 38 -15 41 30 -10 40 34 39 46 -11 45 -18 43 -9 -7 -6 -4 -8 -5 -28 -20 -1
right_child=1 6 10 5 11 8 9 25 29 31 19 -13 -14 22 -16 -17 36 -19 35 -21 -22 -23 -24 -25 -26 -27 44 -29 -30 -31 -32 -33 -34 -35 -36 -37 -38 -39 -40 -41 -42 -43 -44 -45 -46 -47 -48
leaf_value=0.023492733182130517 -0.0050620717093543257 0.027724362506005022 0.031268811514640366 -0.017097370046212382 0.0032053341630325733 0.015872398628410622 0.0021732227787282553 -0.0080809620553743064 -0.022188265859757746 0.015872398628410622 0.012860520999918721 0.012860520999918721 0.0014590072014600561 -0.012615225492151366 -0.016961975195187901 -0.01888945578337179 -0.01814508530933617 -0.024880727090765057 0.024574090623331015 0.024539441029039141 0.028262906976570138 -0.0098170215220423074 -0.027727775357723038 -0.028125521232350216 -0.02880289141383402 0.018177133699921032 -0.022523701940824474 0.022064115992565553 -0.017403083962297942 -0.0058391480592209681 -0.019802515277749688 0.023364418157700472 0.017539923048034086 -0.011965251124241532 -0.0037592935013577608 -0.00077625517221538627 0.0066706432313475561 -0.018957370611225086 0.0075149654955496336 -0.001756192563054955 -0.022943095060865552 0.020630664150962662 0.018094993399603576 0.00034534573435281802 -0.0066588960125541809 -0.0028876011312733967 0.012668988054347703
