tree
version=v4
num_class=1
num_tree_per_iteration=1
label_index=0
max_feature_idx=27
objective=binary sigmoid:1
feature_names=slope_st age blood_pressure cholesterol max_hr st_depression risk_count sex_male chest_pain_atypical_angina chest_pain_non-anginal_pain chest_pain_typical_angina rest_blood_sugar_true ekg_normal ekg_st-t_wave_abnormality exercise_angina_True number_vessels_three number_vessels_two number_vessels_zero thallium_normal thallium_reversible_defect slope_st__sq chest_pain_x_max_hr__chest_pain_atypical_angina__x__max_hr chest_pain_x_max_hr__chest_pain_non-anginal_pain__x__max_hr chest_pain_x_max_hr__chest_pain_typical_angina__x__max_hr exercise_angina_x_slope_st__exercise_angina_True__x__slope_st exercise_angina_x_slope_st__exercise_angina_True__x__slope_st__sq st_depression_x_slope_st__st_depression__x__slope_st st_depression_x_slope_st__st_depression__x__slope_st__sq
feature_infos=[-0.86681557201768922:1.7366527556361677] [-3.0445506722774853:2.7691955774945489] [-2.4370956809477464:4.6409949842532159] [-2.8505755156105765:9.4707085657215639] [-4.2807064739434493:2.5732990397431035] [-0.76522601095464804:3.1124217054232859] [-1.4573132079948397:3.1192952521086572] [0:1] [0:1] [0:1] [0:1] [0:1] [0:1] [0:1] [0:1] [0:1] [0:1] [0:1] [0:1] [0:1] [0.75136923589235372:3.0159627936586948] [-4.2807064739434493:2.5732990397431035] [-4.2807064739434493:2.5732990397431035] [-4.2807064739434493:2.5732990397431035] [-0.86681557201768922:1.7366527556361677] [0:3.0159627936586948] [-2.6978956009467572:5.4051957314251702] [-2.3078931777790794:9.3869480617323724]
tree_sizes=3565 3627 3603 3598 3578 3605 3616 3609 3600 3601 3613 3598 3591 3585 3633 3619 3588 3614 3604 3608 3602 3610 3611 3605 3609 3594 3602 3587 3607 3602 3586 3615 3597 3592 3581 3597 3599 3589 3579 3585 3615 3579 3591 3603 3603 3609 3605 3617 3586 3585 3597 3613 3611 3597 3613 3599 3623 3605 3599 3612 3630 3615 3600 3621 3598 3597 3590 3592 3587 3633 3642 3624 3602 3616 3595 3593 3615 3584 3618 3585 3601 3601 3593 3588 3600 3613 3619 3612 3597 3609 3617 3602 3601 3588 3625 3608 3590 3589 3614 3608 3594 3626 3645 3584 3621 3593 3636 3583 3620 3599 3594 3584 3574 3589 3590 3590 3603 3598 3604 3612 3609 3629 3604 3569 3588 3613 3602 3574 3559 3593 3580 3589 3592 3608 3618 3599 3609 3581 3557 3606 3652 3599 3590 3612 3567 3599 3555 3586 3580 3615 3593 3576 3610 3595 3577 3578 3607 3576 3588 3597 3580 3610 3596 3597 3617 3575 3562 3558 3588 3579 3590 3586 3616 3619 3583 3569 3635 3589 3568 3573 3594 3540 3585 3578 3582 3591 3582 3629 3559 3556 3586 3595 3588 3572 3569 3564 3570 3578 3576 3588 3596 3577 3563 3573 3559 3595 3567 3631 3572 3549 3586 3604 3613 3585 3605 3581 3614 3600 3588 3576 3553 3556 3562 3589 3591 3559 3567 3552 3587 3560 3571 3544 3562 3574 3567 3581 3553 3568 3597 3584 3574 3573 3592 3619 3589 3570 3517 3581 3578 3598 3542 3586 3588 3570 3541 3584 3555 3579 3546 3575 3587 3569 3564 3589 3573 3595 3556 3541 3521 3221 3592 3552 3607 3564 3578 3573 3556 3592 3547 3546 3570 3603 3594 3574 3564 3549 3576 3530 3581 3566 3582 3584 3573 3531 3559 3543 3580 3560 3561 3521 3540 3604 3554 3475 3573 3205 3534 3572 3594 3559 3533 3566 3555 3570 3550 3595 3559 3562 3580 3316 3537 3527 3560 3547 3558 3589 3573 3523 3546 3567 3550 3544 3556 3556 3531 3584 3592 3561 3564 3585 3561 3565 3579 3551 3550 3559 3419 3601 3538 3550

Tree=0
num_leaves=31
num_cat=0
split_feature=18 24 4 22 0 27 14 27 22 4 8 22 0 8 7 22 22 21 22 8 21 22 14 8 27 27 14 14 21 4
split_gain=161043 21856.6 11651.4 10947.9 6478.45 5079.45 4069.53 3687.93 2292.12 2170.28 2047.57 1781.31 1617.46 1382.18 1346.02 1317.24 1283.49 1230.98 1105.6 911.96 876.422 875.542 860.169 833.116 603.956 591.33 491.933 475.088 438.891 293.092
threshold=1.0000000180025095e-35 1.0000000180025095e-35 -0.27817653656160762 1.0000000180025095e-35 1.0000000180025095e-35 0.34880261610405799 1.0000000180025095e-35 0.89613009966884738 -1.0000000180025095e-35 -0.27817653656160762 1.0000000180025095e-35 1.0000000180025095e-35 1.0000000180025095e-35 1.0000000180025095e-35 1.0000000180025095e-35 1.0000000180025095e-35 -1.0000000180025095e-35 0.19270933842449142 1.0000000180025095e-35 1.0000000180025095e-35 1.0000000180025095e-35 -1.0000000180025095e-35 1.0000000180025095e-35 1.0000000180025095e-35 0.34880261610405799 0.27062497567228644 1.0000000180025095e-35 1.0000000180025095e-35 1.0000000180025095e-35 -2.2663613420584698
decision_type=2 2 2 2 2 2 2 2 2 2 2 2 2 2 2 2 2 2 2 2 2 2 2 2 2 2 2 2 2 2
left_child=3 2 5 4 6 8 9 14 29 21 -10 20 27 -11 -4 -16 -7 22 23 -18 25 -1 24 -9 -6 -3 -14 -5 -8 -2
right_child=1 11 7 12 17 16 28 18 10 13 -12 -13 26 -15 15 -17 19 -19 -20 -21 -22 -23 -24 -25 -26 -27 -28 -29 -30 -31
leaf_value=-0.19278894141353972 -0.19065582143173532 -0.17302629252005172 -0.27472669160259422 -0.24198149935944674 -0.15036966470574592 -0.22158259582384771 -0.13564813091920758 -0.19938220090818495 -0.20658028865690489 -0.18898838285079542 -0.26176798395332174 -0.23434629262026541 -0.19730231396225048 -0.24570552597126741 -0.2532298497144379 -0.27238533003608334 -0.15414733672443842 -0.19274388766661987 -0.25859385384797756 -0.22849201832737212 -0.23840346611796762 -0.14864925828771186 -0.12265689288297586 -0.259035607378998 -0.1308970501252851 -0.13909520671988407 -0.1516169887500842 -0.19776991677143019 -0.20419203886943033 -0.26189344841219742
leaf_weight=940.60061798989773 92.749206349253654 1227.9994920641184 18937.903949216008 1889.1158349215984 3995.6358095258474 792.20188783109188 5549.8651767224073 2080.3028656095266 4506.8694349229336 4182.8655407428741 1407.8092867732048 493.92044021189213 1107.5491894185543 817.67700317502022 15291.499817997217 9291.2444952428341 2168.3527788370848 504.06102010607719 1065.7502137571573 297.78678518533707 185.00375026464462 3103.512110054493 13793.661968261003 451.62680211663246 7525.0522751361132 2592.2784846574068 569.10913015902042 486.99516613781452 154.08734814822674 3555.8809058219194
leaf_count=3803 375 4965 76569 7638 16155 3203 22439 8411 18222 16912 5692 1997 4478 3306 61826 37566 8767 2038 4309 1204 748 12548 55770 1826 30425 10481 2301 1969 623 14377
internal_value=-0.207442 -0.247888 -0.254271 -0.149032 -0.142771 -0.220457 -0.163945 -0.26347 -0.23515 -0.180655 -0.219751 -0.162896 -0.211714 -0.198292 -0.266687 -0.260482 -0.177356 -0.130685 -0.224519 -0.163149 -0.154063 -0.158885 -0.129453 -0.210104 -0.137623 -0.149943 -0.181676 -0.232919 -0.137495 -0.260062
internal_weight=109059 64439.2 59940 44619.8 40567 12821.7 14748.6 47118.3 9563.31 9044.66 5914.68 4499.2 4052.77 5000.54 43520.6 24582.7 3258.34 25818.4 3597.68 2466.14 4005.28 4044.11 25314.4 2531.93 11520.7 3820.28 1676.66 2376.11 5703.95 3648.63
internal_count=440943 260538 242347 180405 164019 51840 59631 190507 38666 36569 23914 18191 16386 20218 175961 99392 13174 104388 14546 9971 16194 16351 102350 10237 46580 15446 6779 9607 23062 14752
is_linear=0
shrinkage=1


Tree=1
num_leaves=31
num_cat=0
split_feature=18 17 17 24 0 0 27 24 24 22 22 22 22 21 22 21 22 21 22 24 22 24 21 22 21 21 21 22 21 27
split_gain=148576 20260.9 10260.4 8230.61 7372.21 6265.16 3806.89 3507.37 1975.13 1944.53 1937.61 1890.54 1690.08 1380.13 1235.33 1191.36 1098.76 1031.14 962.022 860.326 839.363 719.559 669.446 649.79 625.107 558.766 527.826 488.835 428.332 377.15
threshold=1.0000000180025095e-35 1.0000000180025095e-35 1.0000000180025095e-35 1.0000000180025095e-35 1.0000000180025095e-35 1.0000000180025095e-35 0.89613009966884738 -1.0000000180025095e-35 -1.0000000180025095e-35 1.0000000180025095e-35 1.0000000180025095e-35 1.0000000180025095e-35 1.0000000180025095e-35 1.0000000180025095e-35 1.0000000180025095e-35 1.0000000180025095e-35 0.19270933842449142 1.0000000180025095e-35 1.0000000180025095e-35 1.0000000180025095e-35 1.0000000180025095e-35 1.0000000180025095e-35 1.0000000180025095e-35 1.0000000180025095e-35 1.0000000180025095e-35 1.0000000180025095e-35 1.0000000180025095e-35 1.0000000180025095e-35 0.29735064397695787 0.27062497567228644
decision_type=2 2 2 2 2 2 2 2 2 2 2 2 2 2 2 2 2 2 2 2 2 2 2 2 2 2 2 2 2 2
left_child=2 5 16 6 7 8 12 23 27 17 19 15 13 -3 22 -9 28 21 26 24 25 -6 -8 -4 -7 -10 29 -2 -1 -5
right_child=1 3 4 18 9 10 14 11 20 -11 -12 -13 -14 -15 -16 -17 -18 -19 -20 -21 -22 -23 -24 -25 -26 -27 -28 -29 -30 -31
leaf_value=0.078252191163428089 0.042419727300091414 -0.046053102118190636 0.054531694195963577 0.014780013914552635 0.055641641373313531 0.043525827305646268 0.0043390989564232431 0.014262030556353576 -0.012304526902657651 0.0065419332751013425 -0.025309994277238214 -0.041071545403953698 -0.066315026774508221 -0.067084739484360473 -0.055340438061771122 -0.045474700205597463 0.033376340474287614 -0.001836390873751405 -0.037527691362958707 0.074470653673833612 -0.059315320466851673 0.076325547216762005 -0.055307181158942516 -0.0047025753862581779 -0.035911883951956949 -0.059946030160896779 -0.042695728143818786 -0.039922401236502751 0.02655419245898406 0.050339117676060099
leaf_weight=20383.878679737449 892.58044458925724 25357.78729660809 2851.0125211626291 780.39451166987419 5823.0470293015242 2475.8064374625683 2694.8260968625546 5487.0198054164648 2719.6648538857698 1062.0800357311964 564.95004743337631 1541.819285005331 15724.635963395238 6254.9321236163378 910.69031572341919 586.84816719591618 951.15793177485466 377.20314867794514 374.83014583587646 1802.3008176386356 1134.2094089835882 5169.7812066078186 333.86801904439926 329.76495766639709 165.65167933702469 456.57319608330727 139.26183313131332 128.35273930430412 266.24203898012638 1246.4613211154938
leaf_count=81922 3618 103059 11459 3145 23405 10017 10880 22123 11042 4285 2299 6258 64082 25457 3704 2383 3844 1522 1520 7250 4622 20757 1358 1332 674 1858 565 523 1077 5010
internal_value=-5.90043e-05 -0.0390975 0.0558086 -0.0489497 0.0373417 0.0121797 -0.0524318 0.0131512 -0.0179928 0.0583358 0.0442818 -0.00159002 -0.0555759 -0.0502244 -0.0146288 0.0084577 0.0756535 0.0631689 0.0212856 0.0531478 -0.0298388 0.0653993 -0.00231633 0.0483929 0.0384857 -0.0192363 0.0315258 0.0319235 0.0775922 0.036718
internal_weight=108988 64157.8 44829.9 53817.7 23228.6 10340.1 51276.7 10796.5 5331.38 12432.1 5008.71 7615.69 47337.4 31612.7 3939.38 6073.87 21601.3 11370 2540.95 4443.76 4310.45 10992.8 3028.69 3180.78 2641.46 3176.24 2166.12 1020.93 20650.1 2026.86
internal_count=441050 260683 180367 218780 93524 41903 208540 43555 21663 49969 20240 30764 192598 128516 15942 24506 86843 45684 10240 17941 17522 44162 12238 12791 10691 12900 8720 4141 82999 8155
is_linear=0
shrinkage=0.04


Tree=2
num_leaves=31
num_cat=0
split_feature=18 17 17 24 20 20 14 26 7 9 14 22 22 22 22 7 9 9 14 22 14 7 7 7 22 26 22 20 7 14
split_gain=137147 18833 9310.3 7719.59 6709.2 5554.48 3286.43 3264.86 1909.77 1910.67 1869.07 1790.39 1756.57 1710.97 1057.98 1033.34 918.013 904.586 869.459 847.186 846.466 700.486 690.721 662.763 586.66 555.062 437.754 419.264 399.467 352.988
threshold=1.0000000180025095e-35 1.0000000180025095e-35 1.0000000180025095e-35 1.0000000180025095e-35 0.98858075354530339 0.98858075354530339 1.0000000180025095e-35 0.68319637778201592 1.0000000180025095e-35 1.0000000180025095e-35 1.0000000180025095e-35 1.0000000180025095e-35 1.0000000180025095e-35 1.0000000180025095e-35 0.40199194952942435 1.0000000180025095e-35 1.0000000180025095e-35 1.0000000180025095e-35 1.0000000180025095e-35 1.0000000180025095e-35 1.0000000180025095e-35 1.0000000180025095e-35 1.0000000180025095e-35 1.0000000180025095e-35 1.0000000180025095e-35 0.3175811934607366 1.0000000180025095e-35 0.98858075354530339 1.0000000180025095e-35 1.0000000180025095e-35
decision_type=2 2 2 2 2 2 2 2 2 2 2 2 2 2 2 2 2 2 2 2 2 2 2 2 2 2 2 2 2 2
left_child=2 5 14 7 6 10 12 8 -3 -10 19 18 15 20 27 -4 23 28 21 22 25 -7 -2 -9 -8 -6 -12 29 -5 -1
right_child=1 3 4 17 13 11 24 16 9 -11 26 -13 -14 -15 -16 -17 -18 -19 -20 -21 -22 -23 -24 -25 -26 -27 -28 -29 -30 -31
leaf_value=0.05519306016926448 -0.044723150182356515 -0.062645968080760742 -0.023334767687011652 -0.0025736728234328639 0.035519287035918223 -0.0036837397858249755 0.052503162054408116 -0.031939959389463611 -0.03735338809235738 -0.058843059441526714 0.041460484195994671 -0.024323545036622516 -0.039375379133796046 0.0070517627657823642 0.021706264458764016 0.016821324721987479 -0.041981404443665146 -0.021679398593308936 0.071741284324081014 -0.057952346287355447 0.072066879151799934 0.046380274879559293 -0.0048192359470086423 0.017494437452034908 -0.0039424436935969302 0.060139480979243709 -0.037356422475189714 0.07748679823162441 0.042935556821787853 0.074727251740663844
leaf_weight=3128.7570079267025 1021.2569997757673 20471.446373596787 1300.4313525408506 384.2682680785656 2510.3370493501425 569.14823649823666 2878.8320952057838 599.59202951192856 15723.557007014751 11495.62830363214 895.97890052199364 577.93508425354958 1553.6719718575478 1055.7900228500366 647.8717415779829 4777.9995083510876 1055.558192461729 613.39666923880577 1805.0694129168987 1137.5228624492884 5296.8034172654152 2069.4613985270262 2148.5093612670898 1532.573748037219 327.38324216008186 3625.2277056276798 124.92766214907169 14894.206228002906 1551.0684442520142 3004.1472187489271
leaf_count=12551 4168 84070 5249 1546 10068 2301 11536 2427 64262 47234 3616 2360 6340 4257 2611 19264 4309 2485 7231 4677 21202 8342 8738 6192 1323 14525 512 59623 6232 12029
internal_value=-8.56502e-05 -0.0378126 0.0533799 -0.0473788 0.0358292 0.0115686 0.0127932 -0.0507818 -0.0534014 -0.0464384 -0.0168728 0.0417332 -0.00148994 0.0558088 0.0722551 0.00821813 -0.0115686 0.0205199 0.0503421 -0.0284043 0.0603065 0.0355949 -0.0177259 0.00355066 0.0467424 0.0501034 0.0316807 0.0738071 0.0339162 0.0648148
internal_weight=108778 63776.9 45001.5 53427.1 23326.5 10349.8 10838.3 50878.4 47690.6 27219.2 5328.2 5021.61 7632.1 12488.2 21675 6078.43 3187.72 2548.73 4443.68 4307.29 11432.4 2638.61 3169.77 2132.17 3206.22 6135.56 1020.91 21027.1 1935.34 6132.9
internal_count=441280 260702 180578 218757 93764 41945 43712 208494 195566 111496 21711 20234 30853 50052 86814 24513 12928 10263 17874 17583 45795 10643 12906 8619 12859 24593 4128 84203 7778 24580
is_linear=0
shrinkage=0.04


Tree=3
num_leaves=31
num_cat=0
split_feature=19 24 27 22 27 22 14 7 9 8 7 21 8 22 27 7 8 21 23 14 22 14 21 16 27 23 24 23 16 7
split_gain=121200 19985.3 9430.87 7861.18 4723.52 3645.29 2875.53 2825.95 2807.04 2999.06 2680.81 1853.76 1713.92 1387.33 1276.47 1112.47 748.255 685.478 469.355 458.799 445.73 431.254 362.812 357.039 355.851 330.518 283.377 275.801 203.34 179.11
threshold=1.0000000180025095e-35 1.0000000180025095e-35 0.34880261610405799 1.0000000180025095e-35 0.095371827111348104 1.0000000180025095e-35 1.0000000180025095e-35 1.0000000180025095e-35 1.0000000180025095e-35 1.0000000180025095e-35 1.0000000180025095e-35 1.0000000180025095e-35 1.0000000180025095e-35 1.0000000180025095e-35 0.34880261610405799 1.0000000180025095e-35 1.0000000180025095e-35 0.19270933842449142 1.0000000180025095e-35 1.0000000180025095e-35 -0.27817653656160762 1.0000000180025095e-35 0.40199194952942435 1.0000000180025095e-35 0.27062497567228644 1.0000000180025095e-35 1.0000000180025095e-35 1.0000000180025095e-35 1.0000000180025095e-35 1.0000000180025095e-35
decision_type=2 2 2 2 2 2 2 2 2 2 2 2 2 2 2 2 2 2 2 2 2 2 2 2 2 2 2 2 2 2
left_child=1 2 7 4 6 10 11 28 9 -9 23 15 -12 16 19 -2 18 21 24 29 -10 25 27 -4 -3 -6 -16 -8 -1 -5
right_child=3 13 5 14 17 -7 22 8 20 -11 12 -13 -14 -15 26 -17 -18 -19 -20 -21 -22 -23 -24 -25 -26 -27 -28 -29 -30 -31
leaf_value=-0.060033063198537108 0.0026969243184991982 0.037961823616310335 -0.035341688297777563 -0.046361058663392747 0.064393765446718168 -0.051085363273729464 0.064270361546944363 -0.019245137929761506 -0.038599603572323712 -0.057092720616923297 0.026410438917145212 -0.033228128889031212 -0.035969803467448894 -0.019380126584054521 0.018006369028697386 0.038955309472831136 -0.0094577837956138951 0.016334927334475703 -0.045482654625760288 0.013478206363033823 -0.058910759290261565 0.075071979405092359 -0.011212076905988463 0.03420923046222818 0.063954351868437245 -0.010819012672211326 0.059919565688858811 -0.021919211892580576 -0.025597819205363873 -0.019814557994904426
leaf_weight=20308.173105865717 1639.0058641880751 1241.1560713350773 2220.8840262591839 564.59399627149105 9576.5480377227068 2377.8004839718342 6192.9981496185064 12229.228173702955 2162.7392299175262 4613.764245942235 5482.4594621509314 732.44387735426426 804.12829697132111 514.97430324554443 827.51111170649529 7799.9128369092941 315.41790555417538 388.71267095208168 70.586940109729767 561.56150595843792 9511.9100297689438 12696.729189559817 104.46755743026733 120.86644364893436 2833.6920866519213 93.056912943720818 374.91510443389416 57.739626005291939 288.50254207849503 1482.8105617016554
leaf_count=84252 6589 4978 9088 2304 38337 9850 24777 50051 8913 19009 22177 2975 3290 2102 3344 31279 1272 1565 283 2262 39500 50798 419 488 11340 373 1504 231 1182 6041
internal_value=6.21652e-05 -0.0343834 -0.0407599 0.0520935 0.0574146 -0.00728943 0.0411163 -0.0482589 -0.0400899 -0.0296265 0.00480247 0.0279051 0.018409 0.042625 -0.0027503 0.032664 0.0497967 0.06924 0.0543112 -0.0184589 -0.0551662 0.0701556 0.0622221 -0.0316867 0.0560935 0.0636647 0.0312689 0.0634573 -0.0595571 -0.0272302
internal_weight=108189 65096.3 60120.5 43093 39281.6 11006.1 16526.6 49114.3 28517.6 16843 8628.34 10171.4 6286.59 4975.83 3811.39 9438.92 4460.85 22755 4145.44 2608.97 11674.6 22366.3 6355.21 2341.75 4074.85 9669.6 1202.43 6250.74 20596.7 2047.4
internal_count=440573 267775 247800 172798 157343 44893 66270 202907 117473 69060 35043 40843 25467 19975 15455 37868 17873 91073 16601 10607 48413 89508 25427 9576 16318 38710 4848 25008 85434 8345
is_linear=0
shrinkage=0.04


Tree=4
num_leaves=31
num_cat=0
split_feature=18 24 4 0 4 9 21 26 9 23 4 24 4 7 9 6 6 9 6 4 9 21 21 6 9 5 9 9 5 21
split_gain=117543 16260.3 10057.9 7817.07 4949.48 3866.15 2981.19 2806.26 2274.13 2256.22 1576.07 1518.94 1467.93 1328.03 1337.85 1077.44 961.751 738.267 605.065 553.311 545.762 548.263 539.126 533.336 521.628 422.448 414.788 383.245 374.907 309.854
threshold=1.0000000180025095e-35 1.0000000180025095e-35 -0.33049718933784084 1.0000000180025095e-35 0.40199194952942435 1.0000000180025095e-35 -1.0000000180025095e-35 0.68319637778201592 1.0000000180025095e-35 -1.0000000180025095e-35 0.40199194952942435 -1.0000000180025095e-35 0.40199194952942435 1.0000000180025095e-35 1.0000000180025095e-35 0.44960698371495067 0.44960698371495067 1.0000000180025095e-35 0.44960698371495067 -0.27817653656160762 1.0000000180025095e-35 0.40199194952942435 1.0000000180025095e-35 0.44960698371495067 1.0000000180025095e-35 0.25804213642286233 1.0000000180025095e-35 1.0000000180025095e-35 0.25804213642286233 0.40199194952942435
decision_type=2 2 2 2 2 2 2 2 2 2 2 2 2 2 2 2 2 2 2 2 2 2 2 2 2 2 2 2 2 2
left_child=3 2 5 4 8 6 -2 13 15 -8 23 -6 24 -4 -15 19 27 22 -10 -1 21 -13 -9 26 -3 -7 -5 29 -14 -12
right_child=1 12 7 10 11 25 9 17 18 -11 16 20 28 14 -16 -17 -18 -19 -20 -21 -22 -23 -24 -25 -26 -27 -28 -29 -30 -31
leaf_value=0.047474263163579854 -0.041255012227108402 0.059372896139043674 -0.059914761133664528 0.06185521953867501 0.03139878701109329 -0.046399070602143648 -0.053458946377350512 0.010507263940223496 -0.010488172572754117 0.029141917568246654 0.037908258603491965 0.0029599265920733447 -0.021565542930332741 -0.037845343200079158 -0.056650920250814502 0.062001128395737667 0.056596756800724755 -0.040250124007062252 0.028673603489988257 0.015573558037804032 -0.037870444168144592 -0.043807677647954096 -0.046700746481745263 0.071250102917132324 0.014915452068535569 -0.01446267969692811 0.033660860449745943 -0.0076962514075841065 0.021600260846673373 -0.016828863474684611
leaf_weight=2067.4743642956018 1515.0905017852783 2702.639518097043 18740.498109847307 5102.0862472206354 1404.2836507856846 3138.9391129314899 580.04424700140953 1729.0904537886381 1291.8650712519884 5563.935549274087 1513.0977691709995 2042.3594783991575 588.86114618182182 14428.095971211791 10507.581733673811 5845.791053801775 3571.1435897797346 988.08489407598972 1225.7981039732695 1511.2408342212439 1324.6623548269272 493.91355501115322 305.81900310516357 15901.833746641874 505.06259550154209 847.09729214012623 1022.533573538065 503.20636856555939 698.10211172699928 182.85521270334721
leaf_count=8283 6290 10823 78781 20431 5632 13072 2378 6968 5226 22634 6058 8199 2381 59537 44150 23416 14320 4096 4926 6079 5443 2021 1260 63751 2037 3459 4101 2030 2812 736
internal_value=8.8189e-06 -0.0353307 -0.0409786 0.0493516 0.028151 -0.00771643 0.00891201 -0.0492712 0.0423906 0.0213066 0.0624682 -0.00415567 0.0379469 -0.0518508 -0.0457795 0.0514086 0.0437854 -0.0119771 0.00859793 0.0340436 -0.0171113 -0.00621587 0.00181629 0.0673515 0.052407 -0.0396387 0.0571793 0.0229002 0.00184235 0.0319745
internal_weight=107843 62838.9 58344.3 45004.1 17207.4 11645.1 7659.07 46699.2 11942.2 6143.98 27796.8 5265.22 4494.67 43676.2 24935.7 9424.51 5770.3 3022.99 2517.66 3578.72 3860.94 2536.27 2034.91 22026.5 3207.7 3986.04 6124.62 2199.16 1286.96 1695.95
internal_count=441330 260678 242625 180652 69225 47833 31302 194792 47930 25012 111427 21295 18053 182468 103687 37778 23144 12324 10152 14362 15663 10220 8228 88283 12860 16531 24532 8824 5193 6794
is_linear=0
shrinkage=0.04


Tree=5
num_leaves=31
num_cat=0
split_feature=18 17 17 4 4 0 0 9 24 4 0 8 4 14 9 10 0 0 8 22 14 4 14 14 7 14 9 9 14 8
split_gain=108228 16765 8219.23 6478.69 5507.43 4571.36 3498.49 2472.55 2308.35 2128.57 2087.43 1662.26 1439.17 1371.85 1171.35 1053.72 937.604 854.795 841.277 797.249 764.633 711.719 668.279 652.033 617.567 586.684 585.857 574.698 420.383 394.946
threshold=1.0000000180025095e-35 1.0000000180025095e-35 1.0000000180025095e-35 -0.27817653656160762 0.40199194952942435 1.0000000180025095e-35 1.0000000180025095e-35 1.0000000180025095e-35 1.0000000180025095e-35 -0.27817653656160762 1.0000000180025095e-35 1.0000000180025095e-35 0.40199194952942435 1.0000000180025095e-35 1.0000000180025095e-35 1.0000000180025095e-35 1.0000000180025095e-35 1.0000000180025095e-35 1.0000000180025095e-35 0.40199194952942435 1.0000000180025095e-35 -2.2663613420584698 1.0000000180025095e-35 1.0000000180025095e-35 1.0000000180025095e-35 1.0000000180025095e-35 1.0000000180025095e-35 1.0000000180025095e-35 1.0000000180025095e-35 1.0000000180025095e-35
decision_type=2 2 2 2 2 2 2 2 2 2 2 2 2 2 2 2 2 2 2 2 2 2 2 2 2 2 2 2 2 2
left_child=2 5 19 6 7 9 13 11 16 27 22 15 26 21 18 -4 25 -9 -8 -1 -11 -3 -6 -12 -18 -5 -7 29 -14 -2
right_child=1 3 4 8 10 12 14 17 -10 20 23 -13 28 -15 -16 -17 24 -19 -20 -21 -22 -23 -24 -25 -26 -27 -28 -29 -30 -31
leaf_value=0.066407886945568054 0.048451785934199069 0.039690705046740452 0.057836524332607074 -0.057470799420187797 -0.027570198760615394 0.060447222805755464 0.037669069092882687 -0.0062464484798151823 -0.0027721545965720264 -0.038140409625343867 0.011213167557228348 0.0045912591529165747 -0.0081109332741232838 0.013358865889487216 -0.021508722509219293 -0.011235425229957607 -0.054035099237137292 0.034705623781160315 -0.02636542376871653 0.020990574333808437 0.012443231129928201 -0.041616611374677738 0.012224006511473864 0.048937083764892891 -0.032329701533325469 -0.037456019209966745 0.016750098167092338 -0.014706384715693093 0.041007245152389508 -0.019732463541600354
leaf_weight=20938.452217817307 1015.8308956325054 173.63790990412235 11530.355908468366 28280.028013274074 2988.7721397429705 3008.3636732399464 2373.1893347501755 1782.9105733335018 1552.6435326635838 3086.5732945948839 1969.1466280221939 1113.3366509079933 1011.8501524031162 907.92223989963531 1005.4716880321503 363.00940203666687 3497.4607436060905 1496.012939542532 377.20288324356079 643.11416508257389 563.12808088958263 5931.7012083530426 868.66306148469448 1166.8126759827137 5334.8320609778166 2596.1896259188652 592.08685140311718 425.06568737328053 379.21596170961857 154.01938499510288
leaf_count=84212 4101 714 46285 119858 12203 12091 9590 7210 6263 12936 7906 4478 4146 3748 4161 1456 14829 6005 1564 2590 2304 24706 3484 4689 22253 10964 2411 1752 1525 637
internal_value=-8.65162e-05 -0.0342115 0.0472774 -0.0434169 0.0307813 0.012578 -0.0157791 0.0435275 -0.0506275 -0.0134955 0.00108915 0.0513511 0.0399596 -0.0324553 0.0153617 0.0557245 -0.0524981 0.0124624 0.0288551 0.0650597 -0.0303293 -0.0392736 -0.0186046 0.0253049 -0.0409504 -0.0557942 0.0532945 0.0250004 0.00537799 0.0394291
internal_weight=107127 62266.4 44860.6 52030.3 23279 10236.1 10769.1 16285.6 41261.2 5244.62 6993.39 13006.7 4991.52 7013.26 3755.86 11893.4 39708.5 3278.92 2750.39 21581.6 3649.7 6105.34 3857.44 3135.96 8832.29 30876.2 3600.45 1594.92 1391.07 1169.85
internal_count=441071 260553 180518 218650 93716 41903 44483 65434 174167 21730 28282 52219 20173 29168 15315 47741 167904 13215 11154 86802 15240 25420 15687 12595 37082 130822 14502 6490 5671 4738
is_linear=0
shrinkage=0.04


Tree=6
num_leaves=31
num_cat=0
split_feature=18 17 17 27 27 27 22 25 25 25 22 8 0 22 25 22 22 22 8 22 22 8 8 21 21 22 22 21 10 8
split_gain=100942 15422.5 7502.15 6038.75 5218.93 4497 2815.71 2791.57 2014.09 1701.78 1453.36 1167.97 1120.69 1068.07 1000.21 932.409 916.388 893.783 768.494 738 701.922 698.649 596.902 496.725 458.789 411.282 401.693 379.051 367.558 329.477
threshold=1.0000000180025095e-35 1.0000000180025095e-35 1.0000000180025095e-35 0.89613009966884738 0.34880261610405799 0.24232017439738782 1.0000000180025095e-35 1.0000000180025095e-35 1.0000000180025095e-35 1.0000000180025095e-35 1.0000000180025095e-35 1.0000000180025095e-35 1.0000000180025095e-35 1.0000000180025095e-35 1.0000000180025095e-35 1.0000000180025095e-35 0.19270933842449142 1.0000000180025095e-35 1.0000000180025095e-35 1.0000000180025095e-35 1.0000000180025095e-35 1.0000000180025095e-35 1.0000000180025095e-35 0.19270933842449142 1.0000000180025095e-35 1.0000000180025095e-35 1.0000000180025095e-35 0.29735064397695787 1.0000000180025095e-35 1.0000000180025095e-35
decision_type=2 2 2 2 2 2 2 2 2 2 2 2 2 2 2 2 2 2 2 2 2 2 2 2 2 2 2 2 2 2
left_child=2 5 19 7 6 9 8 12 11 17 14 -4 25 18 22 24 23 21 -9 27 -14 -2 -5 -6 28 -3 -11 -1 -7 -10
right_child=1 3 4 10 16 15 -8 13 29 26 -12 -13 20 -15 -16 -17 -18 -19 -20 -21 -22 -23 -24 -25 -26 -27 -28 -29 -30 -31
leaf_value=0.065180009072909953 -0.0023161426918905793 -0.049967508061302672 0.016312047162331249 0.0060436065362631042 0.05702243744770745 0.054964128678051873 -0.028401179887032415 0.0012298413417113191 0.04943845168572103 0.040865203962133306 -0.043858305343499375 -0.028654234857348651 -0.029378011499165996 -0.051477987012913423 0.042590461355854765 -0.014653003385298652 0.006564885849052674 -0.050292217262303034 -0.047057841704389008 0.030994696814668442 -0.055028322927824586 -0.047054118973445476 -0.043428316261283469 -0.0020094308276574209 -0.019898408718134756 -0.059425385173333595 -0.027184446952581036 0.018124640771548271 -0.027644513097289689 0.0032767990448875858
leaf_weight=20071.508732497692 2958.57438570261 21907.198423281312 6526.4041027277708 2406.4714239239693 8855.4595122933388 3495.0545193701982 2129.8358622640371 3032.1260234415531 3390.8717456012964 1061.5982775241137 972.83323645591736 1071.9012498557568 5955.6599510014057 1137.1878586709499 1116.2185080349445 390.30153173208237 657.91710442304611 1219.5119964182377 633.29681733250618 1121.4199748933315 2407.1772399097681 683.63924875855446 460.56100824475288 233.74932342767715 141.41328959167004 11432.217090934515 156.01669600605965 282.36087983846664 85.511147409677505 267.62409509718418
leaf_count=81197 12161 93171 26182 9747 35700 14073 8759 12499 13656 4278 4119 4367 25090 4852 4483 1635 2658 5221 2664 4505 10400 2872 1925 942 583 49616 651 1132 347 1073
internal_value=-6.6824e-05 -0.033228 0.0457626 -0.0421305 0.0299475 0.0117224 0.0137273 -0.0466032 0.0217073 -0.0101311 -0.000156708 0.00995393 -0.0499292 -0.0177009 0.0105582 0.0440022 0.0522058 -0.0207225 -0.00716585 0.0627882 -0.0367897 -0.0107664 -0.00196535 0.055504 0.0501645 -0.0532191 0.0320703 0.0645318 0.0529555 0.0460707
internal_weight=106262 61652.6 44609.1 51460.9 23133.8 10191.6 13386.6 46504.9 11256.8 6079.34 4956.08 7598.31 41702.3 4802.61 3983.25 4112.28 9747.13 4861.73 3665.42 21475.3 8362.84 3642.21 2867.03 9089.21 3721.98 33339.4 1217.61 20353.9 3580.57 3658.5
internal_count=440558 260387 180171 218566 93337 41821 54037 198292 45278 25183 20274 30549 178277 20015 16155 16638 39300 20254 15163 86834 35490 15033 11672 36642 15003 142787 4929 82329 14420 14729
is_linear=0
shrinkage=0.04


Tree=7
num_leaves=31
num_cat=0
split_feature=18 17 17 4 0 5 0 4 24 4 14 4 14 22 22 26 8 22 4 22 14 14 7 22 7 21 8 14 7 22
split_gain=93712.3 14478.5 7036.99 6076.24 5055.81 4064.23 3132.95 2878.62 2171.22 2115.12 1389.08 1339.96 1157.22 1085.15 984.397 930.058 795.462 739.869 713.903 683.954 623.871 615.355 571.022 559.758 543.887 502.756 477.498 399.065 387.065 379.606
threshold=1.0000000180025095e-35 1.0000000180025095e-35 1.0000000180025095e-35 -0.27817653656160762 1.0000000180025095e-35 0.25804213642286233 1.0000000180025095e-35 -0.27817653656160762 1.0000000180025095e-35 -0.27817653656160762 1.0000000180025095e-35 0.40199194952942435 1.0000000180025095e-35 -1.0000000180025095e-35 1.0000000180025095e-35 0.68319637778201592 1.0000000180025095e-35 0.19270933842449142 -2.2663613420584698 -1.0000000180025095e-35 1.0000000180025095e-35 1.0000000180025095e-35 1.0000000180025095e-35 -1.0000000180025095e-35 1.0000000180025095e-35 1.0000000180025095e-35 1.0000000180025095e-35 1.0000000180025095e-35 1.0000000180025095e-35 -1.0000000180025095e-35
decision_type=2 2 2 2 2 2 2 2 2 2 2 2 2 2 2 2 2 2 2 2 2 2 2 2 2 2 2 2 2 2
left_child=2 5 17 6 7 9 12 19 15 23 24 27 18 -8 25 22 -15 -1 -3 -4 -13 -11 -5 -2 -9 28 -21 -6 -7 -14
right_child=1 3 4 8 11 14 13 10 -10 21 -12 20 29 16 -16 -17 -18 -19 -20 26 -22 -23 -24 -25 -26 -27 -28 -29 -30 -31
leaf_value=0.062331681100037548 -0.012854715595803158 0.042283977909876751 0.0059769627979868655 -0.057116929731378809 0.046037441640731772 0.020462563397865622 -0.02027909299497143 -0.039789038967879324 -0.0013450942903024937 -0.033021725803930944 0.024010276898857669 0.0098273238337681264 -0.028555409426077163 0.03674578967796837 -0.01717816008960284 -0.024498919570819601 -0.024890975979399942 0.026318832355405292 -0.038936977473002496 0.050317121775963883 0.046768788944435327 0.0087834992624417768 -0.046958327419937052 0.038691145355555658 -0.0097909394753304298 -0.023374914302788374 -0.0015356386465266007 0.06287502957638974 0.055562648121545627 0.027655472359667935
leaf_weight=20347.652981773019 446.32041515409946 174.538938164711 944.01840908825397 15967.793626457453 4894.6152988672256 607.77507744729519 1007.6236984431744 1295.5302051007748 1532.8189831376076 3428.9121374189854 1726.8954494595528 1962.8860358595848 265.73547646403313 2381.7977796047926 421.51131112873554 2191.3916780501604 386.11757023632526 966.20534971356392 5809.2462141215801 2741.1832951158285 1164.3542139530182 671.72194685041904 20513.935867786407 1346.4774366617203 3791.9692166447639 153.28117194771767 316.61994148790836 4342.5583326369524 3136.8684509992599 660.34488849341869
leaf_count=82926 1840 719 3791 70201 19735 2463 4200 5324 6199 14500 6954 7895 1112 9624 1778 9093 1618 3879 24675 11019 4717 2732 88488 5439 15431 636 1269 17685 12645 2706
internal_value=-3.93873e-05 -0.0321932 0.0441161 -0.040915 0.0288526 0.0112667 -0.0140962 0.00887321 -0.0480399 -0.0103351 -0.00694188 0.0463197 -0.0300986 0.0151921 0.0407181 -0.0498902 0.0281182 0.0607057 -0.0365345 0.0357786 0.0236343 -0.0261713 -0.0514119 0.0258586 -0.0174615 0.0469929 0.0449543 0.0539828 0.0499006 0.0114592
internal_weight=105599 61104.2 44494.5 50891.3 23180.6 10212.9 10685.4 10816.2 40205.9 5893.43 6814.39 12364.4 6909.87 3775.54 4319.44 38673.1 2767.92 21313.9 5983.79 4001.82 3127.24 4100.63 36481.7 1792.8 5087.5 3897.92 3057.8 9237.17 3744.64 926.08
internal_count=441293 260668 180625 218635 93820 42033 44654 43788 173981 24511 27709 50032 29212 15442 17522 167782 11242 86805 25394 16079 12612 17232 158689 7279 20755 15744 12288 37420 15108 3818
is_linear=0
shrinkage=0.04


Tree=8
num_leaves=31
num_cat=0
split_feature=19 17 4 17 27 0 0 4 27 4 9 4 9 8 9 8 0 8 22 9 9 22 8 9 8 9 9 9 21 8
split_gain=83616.2 15667.8 6465.3 5956.14 4240.89 4010.77 3075.37 2838.29 2401.54 1845.36 1347.79 1202.76 1112.63 1093.15 981.45 886.411 792.091 748.135 722.811 709.086 644.461 613.43 578.928 553.758 562.115 523.23 512.821 484.776 424.799 406.594
threshold=1.0000000180025095e-35 1.0000000180025095e-35 -0.27817653656160762 1.0000000180025095e-35 0.24232017439738782 1.0000000180025095e-35 1.0000000180025095e-35 -0.27817653656160762 0.89613009966884738 -0.27817653656160762 1.0000000180025095e-35 0.40199194952942435 1.0000000180025095e-35 1.0000000180025095e-35 1.0000000180025095e-35 1.0000000180025095e-35 1.0000000180025095e-35 1.0000000180025095e-35 0.40199194952942435 1.0000000180025095e-35 1.0000000180025095e-35 0.40199194952942435 1.0000000180025095e-35 1.0000000180025095e-35 1.0000000180025095e-35 1.0000000180025095e-35 1.0000000180025095e-35 1.0000000180025095e-35 0.035747380095791696 1.0000000180025095e-35
decision_type=2 2 2 2 2 2 2 2 2 2 2 2 2 2 2 2 2 2 2 2 2 2 2 2 2 2 2 2 2 2
left_child=1 5 6 21 7 9 14 20 16 26 13 27 17 -9 15 -3 -4 -8 28 22 29 -2 -10 24 -11 -18 -1 -7 -6 -5
right_child=3 2 8 4 18 11 12 10 19 23 -12 -13 -14 -15 -16 -17 25 -19 -20 -21 -22 -23 -24 -25 -26 -27 -28 -29 -30 -31
leaf_value=0.036742574049005709 0.060268889440488638 -0.0044609273302659777 -0.051949842149883033 0.050351111504205244 0.053294059885186859 0.055749848838662477 0.036950588083445937 0.017408306876073813 0.0085966486323584765 -0.0032915853894523095 -0.026630039203785975 0.0076743910775582506 -0.018893861369295373 -0.031607656534834841 -0.045650093403892089 -0.046620763260353436 -0.028691045527616303 -0.022421001519066546 -0.00036410596871017657 -0.039737295256624422 0.010199618891301183 0.019336969658985841 -0.043357117172923502 -0.046284828538478026 -0.049936500124926592 -0.050363098545236122 -0.013410056823230801 0.017780637203706453 -9.9592661564928535e-05 0.0058487870423528281
leaf_weight=1274.9316059201956 19843.703225433826 3157.8717191815376 29347.764808341861 3348.044578909874 8709.235633701086 3359.1686303466558 2563.70246976614 4655.4935605973005 1860.6315381675959 1768.8647058606148 2305.432566896081 1504.3191375136375 1041.1107317656279 858.03620457649231 2808.6739887148142 1063.2753917276859 4523.0000927001238 387.90737673640251 445.50692129135132 1124.0013275891542 1032.2242436259985 609.68473182618618 415.52641744911671 1376.3724581450224 534.74982206523418 2975.1034567952156 434.84389394521713 647.57579502463341 245.09652428328991 365.72356423735619
leaf_count=5145 81610 13150 129797 13537 35501 13617 10351 18763 7548 7321 9502 6173 4351 3523 12153 4600 19345 1632 1802 4810 4152 2446 1760 5984 2290 13125 1793 2643 988 1467
internal_value=0.000224383 -0.0293177 -0.0385763 0.0435205 0.0290458 0.0142254 -0.0114275 0.0138348 -0.0460095 -0.0103061 -0.000980853 0.0382045 0.0165946 0.00975853 -0.0273436 -0.0151233 -0.0489777 0.0291231 0.0493606 -0.0138196 0.0382188 0.0590538 -0.00096207 -0.0262494 -0.0142042 -0.0373179 0.0239854 0.049643 0.0518333 0.0459824
internal_weight=104588 62169.4 51268.6 42418.2 21964.8 10900.8 11022.5 12565 40246 5389.76 7818.96 5511.06 3992.72 5513.53 7029.82 4221.15 36845.9 2951.61 9399.84 3400.16 4745.99 20453.4 2276.16 3679.99 2303.61 7498.1 1709.78 4006.74 8954.33 3713.77
internal_count=440879 267588 222622 173291 89235 44966 46237 50944 176385 22533 31788 22433 16334 22286 29903 17750 162267 11983 38291 14118 19156 84056 9308 15595 9611 32470 6938 16260 36489 15004
is_linear=0
shrinkage=0.04


Tree=9
num_leaves=31
num_cat=0
split_feature=19 27 27 4 4 4 14 9 9 14 14 9 14 24 10 22 4 26 14 9 9 0 14 9 24 9 14 10 9 10
split_gain=77949.4 14563.5 5711.26 5227.69 5068.28 3763.44 2469.69 2439.93 1834.6 1437.88 1260.32 1195.85 1145.18 1055.73 767.067 759.195 744.403 680.106 618.016 604.03 541.272 531.665 516.757 485.342 457.779 452.454 435.581 368.931 352.457 351.548
threshold=1.0000000180025095e-35 0.24232017439738782 0.24232017439738782 -0.27817653656160762 0.40199194952942435 0.40199194952942435 1.0000000180025095e-35 1.0000000180025095e-35 1.0000000180025095e-35 1.0000000180025095e-35 1.0000000180025095e-35 1.0000000180025095e-35 1.0000000180025095e-35 1.0000000180025095e-35 1.0000000180025095e-35 0.40199194952942435 -2.2663613420584698 0.3175811934607366 1.0000000180025095e-35 1.0000000180025095e-35 1.0000000180025095e-35 1.0000000180025095e-35 1.0000000180025095e-35 1.0000000180025095e-35 1.0000000180025095e-35 1.0000000180025095e-35 1.0000000180025095e-35 1.0000000180025095e-35 1.0000000180025095e-35 1.0000000180025095e-35
decision_type=2 2 2 2 2 2 2 2 2 2 2 2 2 2 2 2 2 2 2 2 2 2 2 2 2 2 2 2 2 2
left_child=1 3 5 6 7 8 11 12 14 21 20 16 17 25 18 26 -1 -3 -2 29 27 -5 -10 -8 -9 -6 -4 -7 -23 -11
right_child=2 4 15 9 13 10 23 24 22 19 -12 -13 -14 -15 -16 -17 -18 -19 -20 -21 -22 28 -24 -25 -26 -27 -28 -29 -30 -31
leaf_value=0.057530442798398064 0.038648751598657875 -0.0021148394559061621 0.050819858952579226 -0.051119178317580644 -0.021757304938686963 0.0020932913092474546 0.04097542096532851 -0.021254222399063494 -0.0018774346022643498 -0.0053259213470563376 0.029441677934358573 -0.042051568792161979 0.057362943297248281 0.018952558171694368 -0.016651069873409773 0.014944193786135667 -0.014137182809397991 0.033738192404313534 0.058057941785096247 -0.044138905165148581 -0.031780719887755569 -0.030429216020781157 0.03527033562409064 -0.0090737353671219226 0.029054874534116121 -0.048101380949324909 0.062490674016709012 -0.055915249968175651 -0.049766889674347684 -0.057653855434433215
leaf_weight=238.57514563202858 6119.1526650488377 1172.3281196951866 9262.8034923821688 27432.314652189612 2792.1314830332994 2796.1663171052933 1349.8719342499971 1717.8703833967447 1992.9372666031122 2159.543626755476 1693.9287814646959 3155.7766119539738 2649.9237919747829 769.08318835496902 308.51126912236214 699.22392694652081 4877.9145918786526 3035.8762586712837 4679.619656547904 1308.1570009291172 1384.1576492041349 3813.9298224002123 851.43872092664242 399.91432338953018 343.27920405566692 1676.8840470910072 12039.866856634617 182.14449755847454 2540.8882287591696 222.1929479688406
leaf_count=970 24848 4916 38111 123168 11744 11353 5482 7298 8094 9098 6901 13768 10835 3119 1249 2818 20440 12350 19357 5753 5769 16480 3472 1669 1392 7449 50159 734 11405 945
internal_value=3.03123e-07 -0.0286297 0.0420179 -0.0392421 0.006977 0.0265415 -0.0135724 0.0253129 0.037968 -0.0461039 0.000209574 -0.0227048 0.0367759 -0.0242391 0.0453057 0.0560826 -0.0107425 0.0237595 0.0470826 -0.0223519 -0.0111618 -0.0486942 0.0092848 0.0295434 -0.0128253 -0.031685 0.0574291 -0.0015421 -0.0381942 -0.0103182
internal_weight=103666 61656.5 42010 47499.1 14157.4 20008.1 10022.1 8919.28 13951.7 37477 6056.4 8272.27 6858.13 5238.1 11107.3 22001.9 5116.49 4208.2 10798.8 3689.89 4362.47 33787.1 2844.38 1749.79 2061.15 4469.02 21302.7 2978.31 6354.82 2381.74
internal_count=441146 268281 172865 209178 59103 81777 42329 36791 57020 166849 24757 35178 28101 22312 45454 91088 21410 17266 44205 15796 17856 151053 11566 7151 8690 19193 88270 12087 27885 10043
is_linear=0
shrinkage=0.04


Tree=10
num_leaves=31
num_cat=0
split_feature=18 27 0 25 25 25 9 22 8 7 10 8 22 8 22 9 8 10 10 6 9 22 21 8 10 22 10 25 21 22
split_gain=76159.9 11739.6 5903.17 3667.38 3636.27 3275.83 2055.76 1844.35 1662.52 1542.93 1444.56 1411.22 1363.83 1309.23 1278.37 1274.04 1147.37 981.364 862.546 783.491 603.116 602.106 524.98 454.081 454.07 405.486 354.458 325.259 300.884 202.025
threshold=1.0000000180025095e-35 0.24232017439738782 1.0000000180025095e-35 1.0000000180025095e-35 1.0000000180025095e-35 1.0000000180025095e-35 1.0000000180025095e-35 1.0000000180025095e-35 1.0000000180025095e-35 1.0000000180025095e-35 1.0000000180025095e-35 1.0000000180025095e-35 1.0000000180025095e-35 1.0000000180025095e-35 1.0000000180025095e-35 1.0000000180025095e-35 1.0000000180025095e-35 1.0000000180025095e-35 1.0000000180025095e-35 0.44960698371495067 1.0000000180025095e-35 0.19270933842449142 1.0000000180025095e-35 1.0000000180025095e-35 1.0000000180025095e-35 -0.64442110599524016 1.0000000180025095e-35 0.98858075354530339 0.24502999120072463 -0.64442110599524016
decision_type=2 2 2 2 2 2 2 2 2 2 2 2 2 2 2 2 2 2 2 2 2 2 2 2 2 2 2 2 2 2
left_child=2 4 5 6 9 7 8 11 10 -2 -3 17 13 -11 19 16 18 -1 -6 22 23 28 24 26 -4 -8 -5 -16 -7 -17
right_child=1 3 14 20 15 21 25 -9 -10 12 -12 -13 -14 -15 27 29 -18 -19 -20 -21 -22 -23 -24 -25 -26 -27 -28 -29 -30 -31
leaf_value=0.024859501899303464 -0.052191059403120993 0.019847020640537477 0.046763573324659156 0.052071745520787117 0.023837060698230945 0.04997122837714664 0.0002221055488835378 -0.028571492431702525 -0.039480104110253489 -0.023801127373531537 -0.053277299465151702 -0.026574551826418089 -0.051265472185323208 -0.050458821227980524 0.0052680157819508522 -2.6255335065546223e-05 -0.042421701796814981 -0.040464534038105036 -0.052622463899179482 0.058701450821482565 0.0026370611215803265 -0.00064127149938365921 -0.011267340117094064 -0.0094654604487065513 -0.0186412095553973 -0.041850610364927522 -0.031479966889429369 0.042390441121312038 -0.010254679063673174 -0.04192732921881686
leaf_weight=7523.7790457457304 17386.122432932258 4752.8774437308311 6901.2485358417034 2708.0202225297689 2612.0312725007534 5522.6808710247278 424.46610213816166 1796.4013891220093 1167.9400078952312 12513.813936710358 470.63883036375046 1101.0784901529551 6958.4477235525846 3861.5333420783281 1107.0626958459616 211.37156602740288 630.91868998110294 382.47925859689713 254.77175152301788 17641.232604518533 647.1216888576746 428.41945306956768 272.11416728794575 223.40866254270077 171.62027084827423 2677.2376958280802 80.619255468249321 569.50025390088558 134.39779084920883 1422.7792499512434
leaf_count=30510 79543 19510 28452 11101 10780 22891 1759 7553 5053 54273 1974 4533 32131 17235 4466 883 2717 1545 1087 74239 2688 1723 1097 919 696 11882 329 2302 540 6309
internal_value=6.54631e-06 -0.029607 0.0401257 0.00370572 -0.0391619 0.0216132 -0.0094099 0.00838398 0.00356153 -0.0431605 0.0132139 0.0157661 -0.0364221 -0.0301009 0.051846 -0.00742337 0.00620539 0.0216758 0.0169623 0.0541152 0.0376986 0.0450731 0.0430676 0.0452145 0.0451645 -0.0361019 0.0496043 0.0179664 0.0485326 -0.0365242
internal_weight=102556 59004.1 43552 13152.3 45851.8 16889.2 9493.16 10803.7 6391.46 40719.9 5223.52 9007.34 23333.8 16375.3 26662.8 5131.87 3497.72 7906.26 2866.8 24986.2 3659.17 6085.5 7344.98 3012.05 7072.87 3101.7 2788.64 1676.56 5657.08 1634.15
internal_count=440720 260173 180547 55215 204958 69295 40178 44141 26537 183182 21484 36588 103639 71508 111252 21776 14584 32055 11867 104484 15037 25154 30245 12349 29148 13641 11430 6768 23431 7192
is_linear=0
shrinkage=0.04


Tree=11
num_leaves=31
num_cat=0
split_feature=18 17 17 4 0 4 24 4 0 9 7 0 4 8 14 0 10 4 22 9 14 14 7 7 9 0 7 8 7 8
split_gain=70686.6 12305.5 6003.2 4951.11 4095.57 3249.58 2482.3 2228.74 1561.48 1540.37 1188.22 1172.16 1090.81 1051.71 1031.25 867.857 794.668 703.888 570.605 558.208 556.775 494.479 473.637 470.27 453.054 397.03 394.238 358.13 345.293 323.007
threshold=1.0000000180025095e-35 1.0000000180025095e-35 1.0000000180025095e-35 -0.64442110599524016 1.0000000180025095e-35 0.40199194952942435 1.0000000180025095e-35 -0.27817653656160762 1.0000000180025095e-35 1.0000000180025095e-35 1.0000000180025095e-35 1.0000000180025095e-35 0.40199194952942435 1.0000000180025095e-35 1.0000000180025095e-35 1.0000000180025095e-35 1.0000000180025095e-35 -2.2663613420584698 0.19270933842449142 1.0000000180025095e-35 1.0000000180025095e-35 1.0000000180025095e-35 1.0000000180025095e-35 1.0000000180025095e-35 1.0000000180025095e-35 1.0000000180025095e-35 1.0000000180025095e-35 1.0000000180025095e-35 1.0000000180025095e-35 1.0000000180025095e-35
decision_type=2 2 2 2 2 2 2 2 2 2 2 2 2 2 2 2 2 2 2 2 2 2 2 2 2 2 2 2 2 2
left_child=2 5 18 8 7 9 10 19 17 13 -5 -12 24 16 22 -7 -2 -3 -1 27 -19 -14 -9 -10 29 -11 -8 -4 -17 -6
right_child=1 3 4 6 12 15 26 14 23 25 11 -13 21 -15 -16 28 -18 20 -20 -21 -22 -23 -24 -25 -26 -27 -28 -29 -30 -31
leaf_value=0.056006968264020102 0.048991126061334107 0.046875229419977071 0.043652290294744302 -0.051917942005487133 0.053885868917296111 -0.034601783191080433 -0.028693753326841823 -0.037572850822679131 -0.0092940878793942357 -0.024998761906118428 -0.043202463234145831 -0.022477335420968639 0.0077229995157244678 -0.014639715854078146 0.019556615893856818 -0.027390702318741456 -0.033120075626312542 -0.030005869266296999 0.024070044997139491 0.003468570774953958 0.015687325778487814 0.040917654095897697 -0.0093184527837204736 0.033851242590611695 0.026930116462207488 0.017611285316362305 0.01350704893812644 -0.0019087375707295664 0.017850794150825761 0.019940691609311577
leaf_weight=19498.26229916513 4278.9184240102768 239.67452405393124 2679.8598845601082 17201.213039979339 6999.8134942799807 2185.2327969670296 466.50134912133217 1265.2194105535746 527.26415860652924 858.56453076004982 17544.13379137218 5837.3388984054327 1935.2183178365231 518.82349023222923 1698.7426762580872 362.15613941848278 193.93739183247089 2938.5587418526411 949.17370350658894 929.84739235043526 495.79814359545708 1139.4296035170555 3778.6688656359911 1701.1965425759554 1425.1835632920265 583.65649646520615 1418.991015419364 307.21828530728817 1015.3905847668648 487.44501873850822
leaf_count=82880 17550 983 10982 80293 29408 9634 1908 5274 2201 3732 79837 25444 7847 2186 6924 1525 800 12906 3829 3740 2042 4741 15486 6975 5857 2398 5775 1235 4188 1994
internal_value=-3.38869e-05 -0.028721 0.0388193 -0.0370699 0.0246247 0.0116748 -0.0418403 0.00658093 -0.00274037 0.0286377 -0.0439246 -0.0380342 0.0406607 0.0391493 -0.00736025 -0.0189552 0.0453979 -0.0187546 0.0545307 0.0305582 -0.0233962 0.020071 -0.016436 0.0236449 0.0477486 -0.00775351 0.00301761 0.038971 0.00590079 0.0516907
internal_weight=101461 58367.4 43094.1 48370.7 22646.6 9996.68 42468.2 10659.6 5902.49 6433.9 40582.7 23381.5 11987.1 4991.68 6742.63 3562.78 4472.86 3674.03 20447.4 3916.93 3434.36 3074.65 5043.89 2228.46 8912.44 1442.22 1885.49 2987.08 1377.55 7487.26
internal_count=440574 260377 180197 218364 93488 42013 193257 43641 25107 26666 185574 105281 49847 20536 27684 15347 18350 15931 86709 15957 14948 12588 20760 9176 37259 6130 7683 12217 5713 31402
is_linear=0
shrinkage=0.04


Tree=12
num_leaves=31
num_cat=0
split_feature=19 17 4 17 27 27 20 4 26 4 14 14 7 14 14 4 4 4 9 9 9 7 4 7 7 7 9 20 9 21
split_gain=62979.2 13110.5 5498.72 5217.64 3561.44 3367.35 2554.35 2319.96 1885.98 1879.5 1044.97 938.082 932.041 905.233 703.706 621.562 601.61 581.125 578.721 574.319 522.43 518.875 466.814 454.079 450.757 403.922 385.065 357.871 338.915 336.241
threshold=1.0000000180025095e-35 1.0000000180025095e-35 -0.27817653656160762 1.0000000180025095e-35 0.24232017439738782 0.34880261610405799 0.98858075354530339 -0.27817653656160762 0.68319637778201592 -0.27817653656160762 1.0000000180025095e-35 1.0000000180025095e-35 1.0000000180025095e-35 1.0000000180025095e-35 1.0000000180025095e-35 0.40199194952942435 -2.2663613420584698 0.40199194952942435 1.0000000180025095e-35 1.0000000180025095e-35 1.0000000180025095e-35 1.0000000180025095e-35 0.40199194952942435 1.0000000180025095e-35 1.0000000180025095e-35 1.0000000180025095e-35 1.0000000180025095e-35 0.98858075354530339 1.0000000180025095e-35 -1.0000000180025095e-35
decision_type=2 2 2 2 2 2 2 2 2 2 2 2 2 2 2 2 2 2 2 2 2 2 2 2 2 2 2 2 2 2
left_child=1 5 6 22 7 9 11 18 13 24 19 16 -8 23 25 -6 -3 -7 29 -9 -14 -10 -2 -4 -1 -11 -15 -24 -23 -5
right_child=3 2 8 4 15 17 12 10 21 14 -12 -13 20 26 -16 -17 -18 -19 -20 -21 -22 28 27 -25 -26 -27 -28 -29 -30 -31
leaf_value=-0.0086057154471335176 0.056133964707235764 0.040766194849781091 -0.052318573251571743 0.0034510090116116323 0.049468713134073819 0.04867058171241169 -0.018079963567421999 -0.0029097719653365401 -0.037199910067922705 -0.045664063008568838 0.021825637905683162 0.011995260091118894 0.035949501278962272 -0.015274764446122555 0.014991084253827312 0.02474149983335551 -0.032979575050077932 0.014862076443123609 0.0066016657109150209 -0.030097131507132672 -0.0041110133890763399 0.010438122099191203 0.023260146737485374 -0.042611122991177419 0.036440834058761522 -0.017386263822832988 -0.043047405302179723 0.049492286435011232 -0.025643969621929077 0.044421976922897601
leaf_weight=455.39877650141716 15812.853625044227 178.63113993406296 13921.541597366333 356.324831828475 6889.5409523993731 3349.6922590583563 975.64111609756947 3872.7649189978838 845.38957646489143 1277.6888513565063 2016.7047781646252 956.46636389195919 2299.7899407446384 2225.5861809402704 743.54143291711807 2150.3759859502316 5654.2303038984537 1081.3482070416212 1047.1187043488026 1826.8158182799816 671.68789981305599 1440.7877601087093 1310.6749828308821 17862.128404378891 1587.195090264082 2215.4841379225254 1249.4634308665991 2347.6580225378275 580.06070391833782 3262.5230537503958
leaf_count=1887 68315 730 67043 1436 29186 13909 4106 15705 3641 5758 8299 3952 9398 9565 3061 8876 25135 4481 4229 7697 2828 5878 5420 82583 6478 9626 5736 10030 2544 13542
internal_value=-6.8932e-05 -0.0263077 -0.0350926 0.0381532 0.0245223 0.0137673 -0.0098009 0.0105796 -0.0422129 -0.00507588 -0.00288693 -0.0246706 0.0157749 -0.0447493 -0.0202647 0.0436036 -0.0306881 0.040446 0.0328289 -0.0116425 0.0269023 -0.010987 0.0531398 -0.0468706 0.0264012 -0.0277798 -0.025308 0.0401386 4.34535e-05 0.0403982
internal_weight=100465 59571.8 48861.4 40893.4 21422.2 10710.3 10736.4 12382.3 38125 6279.31 7716.29 6789.33 3947.12 35258.7 4236.71 9039.92 5832.86 4431.04 4665.97 5699.58 2971.48 2866.24 19471.2 31783.7 2042.59 3493.17 3475.05 3658.33 2020.85 3618.85
internal_count=441074 268339 223139 172735 88970 45200 46149 50908 176990 26810 31701 29817 16332 164927 18445 38062 25865 18390 19207 23402 12226 12063 83765 149626 8365 15384 15301 15450 8422 14978
is_linear=0
shrinkage=0.04


Tree=13
num_leaves=31
num_cat=0
split_feature=18 27 27 4 4 4 14 14 9 9 7 7 7 4 24 9 7 9 9 6 4 4 6 23 7 9 24 9 23 6
split_gain=61525.7 10201.8 5316.7 4067.22 3756.36 3419.17 1989.57 1825.99 1797.44 1107.18 1034.74 1024.6 876.22 859.573 849.781 753.438 720.253 705.99 705.9 703.498 545.457 490.858 442.738 381.175 369.13 353.818 353.773 303.764 292.037 247.739
threshold=1.0000000180025095e-35 0.34880261610405799 0.24232017439738782 -0.85370371710017312 0.40199194952942435 -0.27817653656160762 1.0000000180025095e-35 1.0000000180025095e-35 1.0000000180025095e-35 1.0000000180025095e-35 1.0000000180025095e-35 1.0000000180025095e-35 1.0000000180025095e-35 0.40199194952942435 1.0000000180025095e-35 1.0000000180025095e-35 1.0000000180025095e-35 1.0000000180025095e-35 1.0000000180025095e-35 0.44960698371495067 0.45431260230565756 0.40199194952942435 1.0000000180025095e-35 -1.0000000180025095e-35 1.0000000180025095e-35 1.0000000180025095e-35 1.0000000180025095e-35 1.0000000180025095e-35 -1.0000000180025095e-35 1.0000000180025095e-35
decision_type=2 2 2 2 2 2 2 2 2 2 2 2 2 2 2 2 2 2 2 2 2 2 2 2 2 2 2 2 2 2
left_child=2 3 5 9 8 17 11 12 10 16 29 -7 -5 -14 24 -13 -2 28 20 21 -9 -4 -12 -18 -6 -8 -10 -26 -1 -3
right_child=1 4 19 7 14 6 25 18 26 -11 22 15 13 -15 -16 -17 23 -19 -20 -21 -22 -23 -24 -25 27 -27 -28 -29 -30 -31
leaf_value=-0.0059732806507382039 -0.01808088128252874 -0.018210379100064782 0.045177940765094772 -0.050399708343534182 -0.046404272908661989 -0.029148734031945234 0.03862369355983946 0.012308411809349785 -0.020262715488981332 -0.02812430895550206 0.025146025485219662 0.013219084475796658 -0.028093215858954305 -0.044764383431442061 0.017833357648268072 -0.01718326620127756 -0.039873649651029852 0.017264357145597532 -0.038379775758421761 0.054695565369011226 -0.022843992733285981 0.018959638429512243 0.049919950382658763 0.031543116335310345 -0.01146920385162842 0.0067370252537594611 0.027218030669875899 -0.03994050695192513 0.047710132414174294 0.018198989627479616
leaf_weight=164.96717767417431 760.00263255834579 644.92807750403881 4601.4372239559889 15306.491101384163 1470.7921774983406 1841.4396822452545 2946.9346471577883 1532.338497415185 1590.045264467597 1403.2398390769958 1935.6427728235722 4621.9281110316515 8643.3048723042011 11702.513717383146 679.47246381640434 1811.3873419165611 123.08678698539734 1642.8085629791021 1418.7399884015322 15746.913430422544 1301.685006082058 1533.6331345885992 2924.0497167855501 1974.6662077754736 1736.3492995202541 689.14856117963791 293.49634426832199 915.97094728052616 6886.6077207922935 548.82399749755859
leaf_count=677 3277 2750 19607 74552 6755 7684 12511 6422 6944 6283 7986 18941 39352 55032 2771 7581 522 6761 6506 68963 5609 6329 12191 8201 7328 2795 1193 4264 29312 2283
internal_value=5.55855e-05 -0.0271368 0.0364748 -0.0362319 0.00439662 0.021885 0.00795765 -0.040198 0.0212876 0.000914173 0.0318995 -0.00288283 -0.0431534 -0.0376908 -0.0235113 0.00465219 0.0151971 0.0409492 -0.0154002 0.0502052 -0.00384911 0.0386447 0.0400883 0.0272679 -0.0303381 0.0325977 -0.0128117 -0.0213583 0.0464509 -0.00146519
internal_weight=99392.8 56905.6 42487.2 44166.1 12739.6 20605.2 11910.8 39905.1 7936.99 4261 6053.44 8274.76 35652.3 20345.8 4802.58 6433.32 2857.76 8694.38 4252.76 21882 2834.02 6135.07 4859.69 2097.75 4123.11 3636.08 1883.54 2652.32 7051.57 1193.75
internal_count=441382 260221 181161 205756 54465 86262 49512 187473 33347 18283 25210 34206 168936 94384 21118 26522 12000 36750 18537 94899 12031 25936 20177 8723 18347 15306 8137 11592 29989 5033
is_linear=0
shrinkage=0.04


Tree=14
num_leaves=31
num_cat=0
split_feature=18 17 17 27 0 0 25 24 24 22 22 8 22 22 22 22 8 8 8 8 10 10 22 8 22 8 10 22 8 23
split_gain=57159.9 10507.4 5374.61 3990.49 3533.19 2728.09 2066.18 1514.48 1145.25 937.228 926.18 958.482 922.137 879.303 793.068 718.204 701.949 658.136 635.603 627.49 570.79 543.813 540.962 516.199 502.08 452.247 397.344 363.807 338.166 268.741
threshold=1.0000000180025095e-35 1.0000000180025095e-35 1.0000000180025095e-35 0.89613009966884738 1.0000000180025095e-35 1.0000000180025095e-35 1.0000000180025095e-35 -1.0000000180025095e-35 -1.0000000180025095e-35 1.0000000180025095e-35 1.0000000180025095e-35 1.0000000180025095e-35 1.0000000180025095e-35 1.0000000180025095e-35 1.0000000180025095e-35 1.0000000180025095e-35 1.0000000180025095e-35 1.0000000180025095e-35 1.0000000180025095e-35 1.0000000180025095e-35 1.0000000180025095e-35 1.0000000180025095e-35 1.0000000180025095e-35 1.0000000180025095e-35 1.0000000180025095e-35 1.0000000180025095e-35 1.0000000180025095e-35 0.14038868564825818 1.0000000180025095e-35 1.0000000180025095e-35
decision_type=2 2 2 2 2 2 2 2 2 2 2 2 2 2 2 2 2 2 2 2 2 2 2 2 2 2 2 2 2 2
left_child=2 5 22 6 7 8 10 27 -2 18 11 -3 16 23 17 19 20 -9 21 -8 -5 -6 28 26 25 -10 -7 -4 29 -1
right_child=1 3 4 12 9 13 15 14 24 -11 -12 -13 -14 -15 -16 -17 -18 -19 -20 -21 -22 -23 -24 -25 -26 -27 -28 -29 -30 -31
leaf_value=0.05375668293492409 0.028034793293409504 -0.032364102382268188 0.03323762302207682 0.019630760442171762 0.044567065603885174 0.044675136617254731 0.0029717425979302226 0.0071825392345171522 -0.0037144782724079458 0.00086781175061017267 -0.050630872018658957 -0.050105257011980292 -0.036351452215210522 -0.015576930295987447 -0.031394573776751894 -0.042552860532220883 -0.033984675270007994 -0.029970672792230105 0.0042147112527914079 -0.041751056208263013 -0.047625930353896832 -0.017966557526644469 0.023146690766388932 -0.0096297699066867238 -0.044340053705265836 -0.043423218017562208 -0.027917823853291904 -0.011877709085096021 0.02691537849365469 -0.0085245366091854322
leaf_weight=17587.031645029783 1020.0982161164284 18446.37840744853 2758.3710608184338 3158.7940945774317 9701.0675354450941 3868.8748945295811 2979.8615729957819 5101.7724718153477 2422.86217905581 1048.5293613225222 11982.623183369637 6656.0309637486935 892.17050819098949 539.21295341849327 1438.1811288744211 1019.1865426450968 529.58940994739532 891.83942957222462 721.06575579941273 598.51453444361687 210.95402590930462 225.21863380074501 1097.8109545409679 328.02950340509415 969.95453055202961 561.47233311831951 121.33824329078197 316.4930907189846 824.96924388408661 110.27140627801418
leaf_count=78218 4192 85890 11579 12942 41783 16121 12594 20683 10289 4252 60201 32259 4112 2336 6255 4860 2304 3712 2968 2663 874 931 4481 1367 4661 2563 497 1271 3557 467
internal_value=-9.65655e-05 -0.0264066 0.0353236 -0.0343536 0.0218363 0.0111568 -0.0383272 0.00499654 -0.00966131 0.0369553 -0.0414629 -0.0370773 0.000217111 0.032464 -0.00477455 -0.0130165 0.00861986 0.00163383 0.040507 -0.00455635 0.015356 0.0431399 0.0505767 0.0384739 -0.019409 -0.0112454 0.0424355 0.0285822 0.0521958 0.0533663
internal_weight=98128.6 56305.9 41822.6 46474.1 22202.5 9831.84 41682.6 10506.7 4974.39 11695.9 37085 25102.4 4791.51 4857.46 7431.79 4597.56 3899.34 5993.61 10647.4 3578.38 3369.75 9926.29 19620.1 4318.24 3954.29 2984.33 3990.21 3074.86 18522.3 17697.3
internal_count=440882 260725 180157 218699 93434 42026 198467 43500 21705 49934 178350 118149 20232 20321 30650 20117 16120 24395 45682 15257 13816 42714 86723 17985 17513 12852 16618 12850 82242 78685
is_linear=0
shrinkage=0.04


Tree=15
num_leaves=31
num_cat=0
split_feature=17 25 4 22 0 0 4 21 7 7 7 9 9 7 27 10 0 9 8 7 24 10 0 9 9 7 27 24 7 9
split_gain=34499.9 15890.8 7716.62 4145.97 3234.08 3116.52 2907.2 2410.24 1753.09 1611.42 1279.8 1201.08 1010.34 941.751 932.952 892.364 865.256 840.226 794.349 781.461 735.18 676.091 650.229 598.931 531.216 416.347 388.1 387.288 345.614 255.309
threshold=1.0000000180025095e-35 1.0000000180025095e-35 -0.27817653656160762 1.0000000180025095e-35 1.0000000180025095e-35 1.0000000180025095e-35 0.40199194952942435 1.0000000180025095e-35 1.0000000180025095e-35 1.0000000180025095e-35 1.0000000180025095e-35 1.0000000180025095e-35 1.0000000180025095e-35 1.0000000180025095e-35 0.34880261610405799 1.0000000180025095e-35 1.0000000180025095e-35 1.0000000180025095e-35 1.0000000180025095e-35 1.0000000180025095e-35 1.0000000180025095e-35 1.0000000180025095e-35 1.0000000180025095e-35 1.0000000180025095e-35 1.0000000180025095e-35 1.0000000180025095e-35 0.19388492287207654 -1.0000000180025095e-35 1.0000000180025095e-35 1.0000000180025095e-35
decision_type=2 2 2 2 2 2 2 2 2 2 2 2 2 2 2 2 2 2 2 2 2 2 2 2 2 2 2 2 2 2
left_child=3 2 5 7 19 10 11 8 16 -6 -2 18 -11 -7 25 22 27 -12 21 -4 28 -3 -10 -21 -15 -8 -13 -1 -5 -27
right_child=1 6 4 20 9 13 14 -9 15 12 17 26 -14 24 -16 -17 -18 -19 -20 23 -22 -23 -24 -25 -26 29 -28 -29 -30 -31
leaf_value=0.029006287746477413 -0.03822344352333152 0.047597919794852991 -0.049179924951578635 -0.040883821380222819 -0.038127779632485918 -0.0084060737285547409 -0.042735283506040202 -0.020224049382456338 0.038743682584588345 0.0033647411619899064 0.0073123085967636012 -0.0091146222014262656 -0.027633894677196166 0.039775933129535521 0.020684535055659262 -0.00945191451249194 0.035050498747004659 -0.025769898880765502 -0.0018615046830808856 -0.029450772145049479 0.040863766208981918 -0.022422763976421109 0.05370237005840716 -0.04472011686980517 0.0055589728255280926 0.00069128828914131839 0.028343686878841989 -0.017158325707255326 -0.0081563626498831338 -0.030237208405033709
leaf_weight=384.74428582191467 2586.2533148080111 6925.5294045507908 11884.644555822015 763.24265539646149 3681.7056947350502 1132.8907362818718 795.77768129110336 978.68188484013081 6915.0224879980087 5502.425186380744 3569.9316452592611 1116.446189314127 2417.5687583684921 3417.2884326726198 1499.3344988077879 425.80118197202682 1878.6337473392487 1866.5545973181725 618.33055652678013 10001.12510471046 378.74823205173016 225.12835076451302 14673.448920190334 7049.7427184432745 923.68120831251144 1416.7420145124197 726.36126771569252 1140.9442393779755 1584.681666135788 606.16597883403301
leaf_count=1667 11865 30134 60207 3546 17563 4877 3639 4322 29905 23720 15264 4847 11203 14431 6397 1813 8257 8370 2627 45850 1579 955 65876 34827 3946 6036 3102 4978 6975 2772
internal_value=1.58851e-05 -0.015593 -0.0254133 0.0364373 -0.0341345 0.000784103 0.022495 0.0412871 0.043659 -0.016282 -0.0150896 0.0347378 -0.00610902 0.0240419 -0.00476568 0.0477901 0.0169139 -0.00405933 0.0416206 -0.0412884 -0.0105039 0.0453793 0.048921 -0.0357752 0.0325099 -0.018316 0.00568669 -0.00545993 -0.0188594 -0.00862816
internal_weight=97087.6 67963.6 54033.8 29123.9 40537.2 13496.6 13929.8 26397.3 25418.6 11601.7 8022.74 9611.8 7919.99 5473.86 4318.02 22014.3 3404.32 5436.49 7768.99 28935.5 2726.67 7150.66 21588.5 17050.9 4340.97 2818.69 1842.81 1525.69 2347.92 2022.91
internal_count=441550 312632 252123 128918 193370 58753 60509 116818 112496 52486 35499 41665 34923 23254 18844 97594 14902 23634 33716 140884 12100 31089 95781 80677 18377 12447 7949 6645 10521 8808
is_linear=0
shrinkage=0.04


Tree=16
num_leaves=31
num_cat=0
split_feature=18 4 27 0 27 4 6 24 7 7 16 7 4 24 24 7 4 7 7 6 27 1 1 24 7 24 24 6 6 7
split_gain=51687.5 8823.05 4621.84 3536.35 3469.26 2823.64 1575.63 1349.85 1087.18 1029.2 950.525 899.104 774.245 730.172 689.62 629.138 628.164 592.268 557.604 462.202 433.883 407.733 372.372 338.578 280.612 270.939 268.41 254.848 228.339 225.708
threshold=1.0000000180025095e-35 -0.27817653656160762 0.24232017439738782 1.0000000180025095e-35 0.6426993106761375 -0.27817653656160762 0.44960698371495067 -1.0000000180025095e-35 1.0000000180025095e-35 1.0000000180025095e-35 1.0000000180025095e-35 1.0000000180025095e-35 -2.2663613420584698 1.0000000180025095e-35 1.0000000180025095e-35 1.0000000180025095e-35 0.40199194952942435 1.0000000180025095e-35 1.0000000180025095e-35 0.44960698371495067 0.27062497567228644 1.0000000180025095e-35 -0.077117690623009508 1.0000000180025095e-35 1.0000000180025095e-35 1.0000000180025095e-35 1.0000000180025095e-35 0.44960698371495067 1.0000000180025095e-35 1.0000000180025095e-35
decision_type=2 2 2 2 2 2 2 2 2 2 2 2 2 2 2 2 2 2 2 2 2 2 2 2 2 2 2 2 2 2
left_child=2 3 5 7 9 19 17 24 -6 -3 13 26 -9 -11 21 -14 27 -7 -8 29 28 -10 -19 -18 -2 -20 -5 -4 -13 -1
right_child=1 4 16 11 8 6 18 12 14 10 -12 20 15 -15 -16 -17 23 22 25 -21 -22 -23 -24 -25 -26 -27 -28 -29 -30 -31
leaf_value=0.0030731703856755783 -0.012421139898416606 -0.047719997008830548 0.042249961878261695 -0.014253759979849573 -0.033261913990946329 -0.030187144249139077 -0.0062189205320015819 0.044671481409809907 -0.018193516111231833 -0.036735060461316582 0.017598866385006011 0.0048976707569738775 -0.041665017525405031 0.0032317232164625043 0.032539523415290567 -0.015599048541717309 0.024158097907368559 -0.013757467187095709 0.022546692627406467 0.045520362187991693 0.043846938972857269 0.0096198532984543266 0.0094146947759878481 0.047505985645048841 0.031018412034734839 0.044989963615710893 0.030261022674640939 0.053603931935396434 0.033417444279857128 0.030935086011228179
leaf_weight=560.60611166059971 304.13616071641445 14522.366324827075 4439.4540836811066 966.15604768693447 1790.325424566865 1351.4215060919523 912.54167130589485 259.28412166237831 1774.2136809825897 19128.090645983815 557.91802181303501 937.60307092964649 2355.1037111580372 759.64980161190033 1013.2230980545282 4009.0833505243063 2586.8468057960272 1876.5071091353893 3692.614837795496 5070.3615911453962 2805.2493716478348 1598.7811756879091 2699.592290237546 1633.5293333828449 1050.8965692520142 1129.8169268369675 274.06323632597923 12260.274427950382 860.80995933711529 2762.8243627399206
leaf_count=2313 1268 75095 19501 4130 8186 5728 3862 1059 7749 92905 2391 3916 11112 3141 4255 17806 10991 7790 15650 22583 11853 6884 11200 7348 4322 5026 1140 56708 3559 11618
internal_value=-4.86208e-05 -0.0253967 0.033953 0.00225215 -0.0346844 0.0202252 0.0074866 -0.01506 -0.0070412 -0.0395654 -0.0337631 0.0258806 -0.0225005 -0.035208 0.00368701 -0.02527 0.047106 -0.00697315 0.0224249 0.0379094 0.0340165 -0.00501541 -9.20874e-05 0.0332406 0.0212586 0.0278459 -0.00433489 0.0505991 0.0186035 0.0262469
internal_weight=95943.3 54967 40976.4 13822.4 41144.6 20056.3 11662.5 7978.5 6176.54 34968 20445.7 5843.88 6623.47 19887.7 4386.22 6364.19 20920.1 5927.52 5734.97 8393.79 4603.66 3372.99 4576.1 4220.38 1355.03 4822.43 1240.22 16699.7 1798.41 3323.43
internal_count=441089 260771 180318 60165 200606 85770 49256 35567 27074 173532 98437 24598 29977 96046 18888 28918 94548 24718 24538 36514 19328 14633 18990 18339 5590 20676 5270 76209 7475 13931
is_linear=0
shrinkage=0.04


Tree=17
num_leaves=31
num_cat=0
split_feature=18 27 27 4 4 4 9 9 14 9 21 14 7 23 9 21 22 24 14 9 4 21 21 21 14 7 7 23 16 6
split_gain=48295.4 8315.61 4612.79 3646.59 3102.2 2802.71 1513.37 1421.02 1280.62 1129.8 871.475 814.812 809.744 784.614 733.891 792.158 685.267 655.957 607.873 520.335 463.385 443.929 440.684 407.836 362.427 341.865 338.215 307.708 298.976 270.678
threshold=1.0000000180025095e-35 0.24232017439738782 0.24232017439738782 -0.64442110599524016 0.40199194952942435 0.40199194952942435 1.0000000180025095e-35 1.0000000180025095e-35 1.0000000180025095e-35 1.0000000180025095e-35 -1.0000000180025095e-35 1.0000000180025095e-35 1.0000000180025095e-35 -1.0000000180025095e-35 1.0000000180025095e-35 1.0000000180025095e-35 0.19270933842449142 1.0000000180025095e-35 1.0000000180025095e-35 1.0000000180025095e-35 -0.64442110599524016 1.0000000180025095e-35 0.19270933842449142 -1.0000000180025095e-35 1.0000000180025095e-35 1.0000000180025095e-35 1.0000000180025095e-35 1.0000000180025095e-35 1.0000000180025095e-35 0.44960698371495067
decision_type=2 2 2 2 2 2 2 2 2 2 2 2 2 2 2 2 2 2 2 2 2 2 2 2 2 2 2 2 2 2
left_child=2 3 5 9 6 7 12 18 14 10 -2 25 -3 -12 15 -5 22 28 20 21 -1 -10 27 -14 -9 -7 -8 29 -6 -4
right_child=1 4 16 8 17 11 26 24 19 -11 13 -13 23 -15 -16 -17 -18 -19 -20 -21 -22 -23 -24 -25 -26 -27 -28 -29 -30 -31
leaf_value=0.041413834891557311 -0.030119870284864993 -0.00083637097973405356 0.041249186547387497 -0.030153337918771506 -0.030571142193814051 -0.031464138526442288 -0.037067261664429189 -0.0046512278023535837 0.00093194454560941537 -0.028226366497048523 -0.045179071053184333 0.020503985901405723 -0.0071073485783697274 0.027681938976047645 -0.047275908138443914 -0.049264999487076799 0.014860973379845516 0.014140896410148429 0.04720031906433117 -0.036910974284407136 0.019319757255384488 -0.043973318246617189 0.0047076311975462323 0.039088716443910543 0.02630056613729178 -0.0057788803470073995 -0.00076293564337717766 -0.012494935608211161 0.021181630870273822 0.052046218046628755
leaf_weight=2493.3628878295422 656.28616897761822 1190.8652197420597 5264.9914312809706 13447.743963435292 3842.5821288824081 1090.7617989778519 594.89787477254868 2064.151058241725 2237.0688705295324 1745.6626712828875 256.18446865677834 1690.4941224455833 326.42630136013031 2541.4805354475975 14289.891052573919 4701.9475689083338 1068.8785930871964 682.35384587943554 4471.2751834988594 1312.3033863455057 3921.2703533917665 413.02420303225517 373.02943317592144 4518.0661265552044 850.78793039917946 3420.4511687159538 1301.6892109066248 128.88468913733959 183.92699334025383 13857.04978197813
leaf_count=10777 2996 5121 23284 65169 17860 4688 2735 8579 9504 8096 1128 7192 1374 10619 75114 24379 4384 2811 20418 6314 16504 1915 1540 19208 3628 14282 5641 546 765 65257
internal_value=-3.88761e-05 -0.0247493 0.0328964 -0.0333816 0.00366194 0.0191917 0.0189256 0.0292258 -0.0378568 -0.00204458 0.0112096 -0.00314307 0.0287144 0.0209413 -0.0404794 -0.0351167 0.046136 -0.0220421 0.0358651 -0.0163622 0.0279333 -0.00613629 0.0478353 0.0359719 0.00441229 -0.0120173 -0.0122179 0.0486695 -0.0281838 0.049085
internal_weight=94937.8 54242.4 40695.4 41601.6 12640.8 20002.6 7931.94 13800.8 36402 5199.61 3453.95 6201.71 6035.36 2797.67 32439.6 18149.7 20692.8 4708.86 10885.9 3962.4 6414.63 2650.09 19624 4844.49 2914.94 4511.21 1896.59 19250.9 4026.51 19122
internal_count=441828 260749 181079 205234 55515 86068 34079 59906 182395 22839 14743 26162 25703 11747 164662 89548 95011 21436 47699 17733 27281 11419 90627 20582 12207 18970 8376 89087 18625 88541
is_linear=0
shrinkage=0.04


Tree=18
num_leaves=31
num_cat=0
split_feature=18 27 27 4 4 4 9 9 9 21 10 21 10 7 9 10 21 4 24 9 21 21 24 9 21 24 10 9 1 7
split_gain=44865 7944.41 4343.74 3410.01 2791.36 2584.51 1386.37 1370.08 1260.88 1301.83 1478.98 1153.93 1185.11 1083.46 762.396 753.591 719.428 647.679 580.098 571.882 543.493 407.734 368.791 334.259 345.761 278.907 275.077 270.522 258.255 227.455
threshold=1.0000000180025095e-35 0.34880261610405799 0.24232017439738782 -0.64442110599524016 0.40199194952942435 -0.27817653656160762 1.0000000180025095e-35 1.0000000180025095e-35 1.0000000180025095e-35 1.0000000180025095e-35 1.0000000180025095e-35 1.0000000180025095e-35 1.0000000180025095e-35 1.0000000180025095e-35 1.0000000180025095e-35 1.0000000180025095e-35 -1.0000000180025095e-35 0.40199194952942435 1.0000000180025095e-35 1.0000000180025095e-35 -1.0000000180025095e-35 -1.0000000180025095e-35 1.0000000180025095e-35 1.0000000180025095e-35 0.40199194952942435 1.0000000180025095e-35 1.0000000180025095e-35 1.0000000180025095e-35 -0.077117690623009508 1.0000000180025095e-35
decision_type=2 2 2 2 2 2 2 2 2 2 2 2 2 2 2 2 2 2 2 2 2 2 2 2 2 2 2 2 2 2
left_child=2 3 5 13 6 19 15 11 9 10 -5 12 -7 -2 20 16 -3 27 23 21 -15 -1 -19 24 -6 -8 -23 -4 -9 -21
right_child=1 4 17 8 18 7 25 28 -10 -11 -12 -13 -14 14 -16 -17 -18 22 -20 29 -22 26 -24 -25 -26 -27 -28 -29 -30 -31
leaf_value=0.0081922188330193959 -0.02936950227453031 -0.016563018777623388 0.050594620831790039 -0.019112035640282396 -0.0093962732569833948 0.023726893989259729 -0.018397521388794739 -0.029768012444421028 -0.045583860421378485 -0.04812435810990847 -0.052024994179296846 -0.026608890119284797 -0.046891752053650704 -0.02046419454290473 -0.018501582082385476 -0.037780296676967293 0.035587314473843307 0.021315882435799662 0.013641019344699626 -0.017110235696651162 0.029735870347680597 0.045533160731947575 0.046004932946544043 -0.041700579473668065 -0.044821693003330471 0.023478256802564403 -0.0078619495047704043 0.035007437663514523 -0.0063623550391260766 0.021545771430709619
leaf_weight=554.34071651101112 1630.2541241794825 458.01784233748913 14078.892622500658 12958.012218922377 1944.943560346961 7157.6235351115465 1536.6525129377842 1311.5064056664705 15263.914899259806 5012.695679962635 2626.2707525640726 953.75517003238201 396.98525419831276 407.32390275597572 1065.9583551138639 260.11812780797482 5178.539274007082 2557.0387841165066 678.2818751335144 294.32505616545677 2146.0754802078009 5842.630282625556 1571.0422920286655 1435.6296033710241 566.61797787249088 300.33188600838184 157.16064901649952 2098.3822368383408 1774.5721206814051 1322.3392553180456
leaf_count=2349 7548 1966 67019 61919 8407 30538 6905 5601 81488 26375 13045 4019 1630 1825 4877 1106 22146 11004 2796 1218 8896 26510 7291 7259 2721 1231 655 9515 7527 5574
internal_value=-2.25987e-05 -0.024003 0.0319756 -0.032456 0.00411607 0.0186199 0.0188132 0.00647217 -0.0368632 -0.030391 -0.0246735 0.0147516 0.0199874 -0.00234362 0.00985328 0.0282603 0.0313387 0.0449682 -0.0204509 0.035843 0.0217035 0.0410982 0.0307562 -0.0263191 -0.0174616 -0.011506 0.0441291 0.0485842 -0.0163412 0.0144771
internal_weight=93540.2 53469.6 40070.6 41110.5 12359.1 19765.2 7733.66 11594.4 35860.9 20597 15584.3 8508.36 7554.61 5249.61 3619.36 5896.68 5636.56 20305.4 4625.47 8170.8 2553.4 6554.13 4128.08 3947.19 2511.56 1836.98 5999.79 16177.3 3086.08 1616.66
internal_count=440960 260510 180450 205973 54537 85621 33354 49315 182827 101339 74964 36187 32168 23146 15598 25218 24112 94829 21183 36306 10721 29514 18295 18387 11128 8136 27165 76534 13128 6792
is_linear=0
shrinkage=0.04


Tree=19
num_leaves=31
num_cat=0
split_feature=18 17 17 4 0 4 0 4 0 9 22 8 9 8 9 8 7 27 10 9 8 9 8 22 10 24 21 0 7 25
split_gain=41734.3 8499.48 4590.42 3708.17 2838.46 2121.59 1598.27 1451.47 1407.69 1109.41 807.815 776.179 760.596 870.37 747.2 874.205 689.358 635.72 624.774 568.718 538.442 523.017 497.013 454.5 447.977 374.333 312.984 248.769 227.288 219.672
threshold=1.0000000180025095e-35 1.0000000180025095e-35 1.0000000180025095e-35 -0.27817653656160762 1.0000000180025095e-35 0.40199194952942435 1.0000000180025095e-35 -0.64442110599524016 1.0000000180025095e-35 1.0000000180025095e-35 0.19270933842449142 1.0000000180025095e-35 1.0000000180025095e-35 1.0000000180025095e-35 1.0000000180025095e-35 1.0000000180025095e-35 1.0000000180025095e-35 0.6426993106761375 1.0000000180025095e-35 1.0000000180025095e-35 1.0000000180025095e-35 1.0000000180025095e-35 1.0000000180025095e-35 1.0000000180025095e-35 1.0000000180025095e-35 -1.0000000180025095e-35 1.0000000180025095e-35 1.0000000180025095e-35 1.0000000180025095e-35 1.0000000180025095e-35
decision_type=2 2 2 2 2 2 2 2 2 2 2 2 2 2 2 2 2 2 2 2 2 2 2 2 2 2 2 2 2 2
left_child=2 5 23 6 7 9 16 -4 25 11 20 18 13 -9 15 -10 -3 28 -2 22 24 -18 -8 26 -6 -5 29 -11 -7 -1
right_child=1 3 4 8 10 17 19 12 14 27 -12 -13 -14 -15 -16 -17 21 -19 -20 -21 -22 -23 -24 -25 -26 -27 -28 -29 -30 -31
leaf_value=0.042880421038029283 0.042905490967579285 -0.039332024548675119 0.030365918921037897 -0.026659244755715194 0.03952201212078843 -0.040560794356239091 0.028033783085454626 0.01017183960709986 -0.0066445573318044925 -0.020738621815430052 -0.0034604166236212033 -0.012977071758159165 -0.023911036120358928 -0.032653107096956478 -0.039076897571923036 -0.043477913521799139 -0.0008728983114690039 0.016351652730244255 -0.031016215006104044 -0.014594792951232394 0.0020002524913475465 -0.030996290028618017 -0.021725090371394661 0.020716041739335868 -0.018584735340684475 -0.043878556157345837 0.0094487167723547715 0.013344408539784452 -0.015542522355391188 0.05227797151174618
leaf_weight=7349.409250035882 4056.8441976606846 2254.6488710492849 2415.8662905991077 2254.5245934128761 9241.0063765645027 907.01889999210835 2306.3002640157938 4607.9583969265223 4462.6539961993694 812.58426535129547 919.23691748082638 500.04508447647095 2379.8192867636681 903.987254306674 3275.0423469394445 1336.7010094970465 2571.8241598308086 795.54521769285202 188.13522750139236 966.64164856076241 707.36766451597214 1433.0230807065964 369.22791384160519 1100.9588443934917 214.53776481747627 22117.877507552505 344.02283973991871 585.36892004311085 1632.7967248260975 9316.87059853971
leaf_count=34486 17442 11034 10364 10932 42184 4503 9575 19178 20055 3732 3757 2186 10259 3834 16984 6591 11172 3347 801 4236 2971 6891 1599 4554 899 119894 1451 2445 7445 46080
internal_value=-0.000161116 -0.0234153 0.0309369 -0.0309172 0.0183828 0.0108924 -0.0094094 0.00327068 -0.037282 0.0248299 0.032431 0.0340485 -0.00503782 0.0031251 -0.0238115 -0.0151645 -0.0216616 -0.0147761 0.0395967 0.0116483 0.0356775 -0.0116769 0.0211392 0.0457543 0.0381945 -0.0422915 0.0473683 -0.00647024 -0.0245392 0.048148
internal_weight=92327.8 52826.8 39501 43348.5 21389.8 9478.34 9901.67 10307.6 33446.8 6142.98 11082.1 4745.02 7891.76 5511.95 9074.4 5799.36 6259.5 3335.36 4244.98 3642.17 10162.9 4004.85 2675.53 18111.3 9455.54 24372.4 17010.3 1397.95 2539.82 16666.3
internal_count=440881 260864 180017 218963 93446 41901 44507 43635 174456 26606 49811 20429 33271 23012 43630 26646 29097 15295 18243 15410 46054 18063 11174 86571 43083 130826 82017 6177 11948 80566
is_linear=0
shrinkage=0.04


Tree=20
num_leaves=31
num_cat=0
split_feature=19 17 17 4 0 0 0 7 4 4 4 4 4 7 7 14 22 9 9 22 7 14 9 7 14 0 9 7 8 14
split_gain=37535.3 8906.68 3985.61 3911.05 2439.06 2293.74 2162.8 1255.42 1214.14 1065.12 915.256 904.028 762.72 718.515 700.28 655.706 641.331 508.453 494.126 435.95 433.856 424.892 347.505 330.565 316.16 281.833 260.287 253.686 249.778 239.214
threshold=1.0000000180025095e-35 1.0000000180025095e-35 1.0000000180025095e-35 -0.80138306432393991 1.0000000180025095e-35 1.0000000180025095e-35 1.0000000180025095e-35 1.0000000180025095e-35 -0.64442110599524016 -0.27817653656160762 0.45431260230565756 -2.2663613420584698 0.40199194952942435 1.0000000180025095e-35 1.0000000180025095e-35 1.0000000180025095e-35 0.19270933842449142 1.0000000180025095e-35 1.0000000180025095e-35 0.19270933842449142 1.0000000180025095e-35 1.0000000180025095e-35 1.0000000180025095e-35 1.0000000180025095e-35 1.0000000180025095e-35 1.0000000180025095e-35 1.0000000180025095e-35 1.0000000180025095e-35 1.0000000180025095e-35 1.0000000180025095e-35
decision_type=2 2 2 2 2 2 2 2 2 2 2 2 2 2 2 2 2 2 2 2 2 2 2 2 2 2 2 2 2 2
left_child=1 6 19 11 8 15 9 -7 -4 26 -9 -3 22 -13 -10 23 20 -15 -16 25 -8 -11 -6 -5 -14 29 28 -17 -1 -2
right_child=2 3 4 5 12 7 16 10 14 21 -12 13 24 17 18 27 -18 -19 -20 -21 -22 -23 -24 -25 -26 -27 -28 -29 -30 -31
leaf_value=0.036198927580777876 0.029911239790262809 0.053802882156612428 0.029668183228084979 -0.047047461616906039 0.042427055830993661 -0.036985570964358179 0.0088239616855002641 0.0048562283647063994 -0.027012155498231945 -0.02591993177629311 -0.023408567825031756 -0.026643319671818738 0.0042620469836863861 0.019778185934850496 0.010103706165221571 -0.038519478126008949 -0.013445623219407694 -0.016543658897195616 -0.015795861356681793 0.017399567312290025 0.040884630468596569 0.011516899513851849 0.019673132192117006 -0.03768237584209564 0.032173890006320212 0.049911485328160261 -0.0070415965349317731 -0.012739873471587188 -0.017726496426820237 0.047736689065258853
leaf_weight=1063.9466408789158 2612.1057280898094 529.90778724849224 2287.1002238094807 10771.470806226134 6372.6742779612541 3741.4043330550194 824.69897271692753 3870.0125436037779 1601.8406725227833 2753.1446572840214 3475.1467293202877 1260.4417020976543 1820.8095030337572 2130.5434881746769 4182.8833046108484 906.99331541359425 476.00017613172531 862.63805286586285 1635.3515788912773 881.79045258462429 3805.8264963626862 585.54122240841389 1307.1761695891619 14210.892844840884 1005.7857014685869 11311.419062808156 422.19284719228745 1875.2803722470999 154.64824286103249 2307.2460471838713
leaf_count=4423 11788 2207 9899 61377 30044 18993 3527 17155 6885 13244 16419 5929 7550 9036 17458 4520 2146 3986 6976 3630 16731 2463 5701 74667 4532 56814 1821 8724 658 11283
internal_value=-9.44904e-05 -0.0215021 0.0307146 -0.029332 0.018681 -0.0335336 0.0123699 -0.0181408 0.00422157 -0.00638646 -0.00852326 0.00479213 0.032032 -0.00136953 -0.00363658 -0.0396756 0.030648 0.00930006 0.00281671 0.0449193 0.0351903 -0.0193468 0.0385695 -0.0417289 0.0142332 0.0464086 0.0199641 -0.0211978 0.0293109 0.0383116
internal_weight=91046.9 53720.7 37326.2 43634.7 20213.6 38851.2 10086 11086.6 9707.18 4979.47 7345.16 4783.53 10506.4 4253.62 7420.08 27764.6 5106.53 2993.18 5818.23 17112.6 4630.53 3338.69 7679.85 24982.4 2826.6 16230.8 1640.79 2782.27 1218.59 4919.35
internal_count=440586 268026 172560 223013 89045 201855 45013 52567 41218 22609 33574 21158 47827 18951 31319 149288 22404 13022 24434 83515 20258 15707 35745 136044 12082 79885 6902 13244 5081 23071
is_linear=0
shrinkage=0.04


Tree=21
num_leaves=31
num_cat=0
split_feature=18 17 17 4 27 0 22 4 0 8 23 4 7 7 22 7 1 7 0 21 24 1 22 4 24 4 8 24 4 7
split_gain=36838.6 7494.58 4213.52 3333.66 2484.84 1844.38 1394.51 1388.25 1299.69 1284.73 1242.04 868.974 714.829 647.136 636.675 605.308 564.907 519.394 462.977 440.553 421.158 414.885 399.698 394.06 344.698 339.436 300.048 292.67 267.61 196.097
threshold=1.0000000180025095e-35 1.0000000180025095e-35 1.0000000180025095e-35 -0.27817653656160762 0.095371827111348104 1.0000000180025095e-35 -1.0000000180025095e-35 -0.27817653656160762 1.0000000180025095e-35 1.0000000180025095e-35 -1.0000000180025095e-35 -0.64442110599524016 1.0000000180025095e-35 1.0000000180025095e-35 0.19270933842449142 1.0000000180025095e-35 -0.077117690623009508 1.0000000180025095e-35 1.0000000180025095e-35 1.0000000180025095e-35 -1.0000000180025095e-35 -0.077117690623009508 -1.0000000180025095e-35 0.40199194952942435 -1.0000000180025095e-35 0.45431260230565756 1.0000000180025095e-35 1.0000000180025095e-35 -2.2663613420584698 1.0000000180025095e-35
decision_type=2 2 2 2 2 2 2 2 2 2 2 2 2 2 2 2 2 2 2 2 2 2 2 2 2 2 2 2 2 2
left_child=2 5 18 6 7 11 28 22 20 10 -8 -2 -10 -9 19 -7 -14 -13 23 27 -5 -15 -4 -1 -19 -17 -24 -6 -3 -22
right_child=1 3 4 8 14 15 9 13 12 -11 -12 17 16 21 -16 25 -18 24 -20 -21 29 -23 26 -25 -26 -27 -28 -29 -30 -31
leaf_value=0.04025583707481932 0.026489275071479818 0.03330194773045482 0.0013885941635651646 -0.024019763896085095 0.031751044771136432 -0.00087956152417797018 -0.047660676263203805 -0.027121553720419675 -0.038180703448655859 -0.033457171772800331 0.017515782354440835 -0.037100102699492016 -0.027616225210272984 -0.01190762172733242 -0.0024612948688332932 0.042242841059022644 -0.0025660692371572884 0.022224536112495193 0.048357361854495677 -0.012330085337768162 -0.04683833977388744 0.009781571521461134 0.034407820447002586 0.015081634058991569 -0.013395866819137426 0.014051081839831043 -0.0043339606089883055 0.047405768588176293 -0.032059271633534829 -0.038959554151370472
leaf_weight=4188.7454961538315 958.41741938889027 99.568258583545685 1011.1428858041763 2222.0308606922626 5193.960546836257 925.61786352097988 515.84339931607246 1662.6381935924292 3090.8050962090492 1306.6786567270756 4603.473003745079 1250.5879190564156 2713.0821828097105 2345.73296405375 751.61534908413887 2776.9498189985752 3066.5540860295296 551.15004305541515 11993.987821042538 290.32981251180172 9246.9385996758938 3525.3733842521906 2912.2392474114895 1315.2443965226412 1987.6213342547417 914.63594497740269 358.06421107053757 3088.8663100004196 3217.5328559428453 11864.942287951708
leaf_count=20094 4013 417 4140 10981 23429 4000 2352 7196 16386 6229 19643 6249 12857 9876 3100 12328 14216 2294 61055 1197 54889 14836 13136 5727 9172 3871 1465 15369 15798 64814
internal_value=-8.10148e-05 -0.0222931 0.0294164 -0.0295155 0.0173924 0.0100561 -0.00900868 0.00520511 -0.0357173 0.00186786 0.0109082 -0.00744721 -0.0226631 -0.00513189 0.0328235 0.0280431 -0.0143388 -0.0160541 0.0439339 0.0359166 -0.040674 0.00111315 0.0233791 0.0342593 -0.00563443 0.0352864 0.0301659 0.0376141 -0.0300502 -0.0424207
internal_weight=89950.4 51312.4 38637.9 41947.4 21140 9364.98 9743.1 11815.2 32204.4 6426 5119.32 4747.78 8870.44 7533.74 9324.77 4617.2 5779.64 3789.36 17498 8573.16 23333.9 5871.11 4281.45 5503.99 2538.77 3691.59 3270.3 8282.83 3317.1 21111.9
internal_count=441129 260509 180620 218582 93744 41927 44439 50649 174143 28224 21995 21728 43459 31908 43095 20199 27073 17715 86876 39995 130684 24712 18741 25821 11466 16199 14601 38798 16215 119703
is_linear=0
shrinkage=0.04


Tree=22
num_leaves=31
num_cat=0
split_feature=18 17 17 27 0 14 14 0 14 7 9 14 22 9 8 7 7 9 8 22 7 9 7 8 14 9 0 22 22 22
split_gain=34380.3 7116.01 3992.08 3059.52 2469.29 1730.54 1577.12 1093.08 1073.49 945.401 815.005 744.343 682.616 624.919 593.275 580.246 519.659 473.77 482.1 454.32 435.805 419.469 410.914 363.015 301.9 297.579 278.543 257.808 245.035 242.375
threshold=1.0000000180025095e-35 1.0000000180025095e-35 1.0000000180025095e-35 0.89613009966884738 1.0000000180025095e-35 1.0000000180025095e-35 1.0000000180025095e-35 1.0000000180025095e-35 1.0000000180025095e-35 1.0000000180025095e-35 1.0000000180025095e-35 1.0000000180025095e-35 1.0000000180025095e-35 1.0000000180025095e-35 1.0000000180025095e-35 1.0000000180025095e-35 1.0000000180025095e-35 1.0000000180025095e-35 1.0000000180025095e-35 0.19270933842449142 1.0000000180025095e-35 1.0000000180025095e-35 1.0000000180025095e-35 1.0000000180025095e-35 1.0000000180025095e-35 1.0000000180025095e-35 1.0000000180025095e-35 0.29735064397695787 0.40199194952942435 0.40199194952942435
decision_type=2 2 2 2 2 2 2 2 2 2 2 2 2 2 2 2 2 2 2 2 2 2 2 2 2 2 2 2 2 2
left_child=2 5 19 6 8 7 9 20 15 -3 -11 17 16 14 -8 -4 -5 18 -6 24 -2 -17 -9 -18 26 -22 -1 -24 -7 -10
right_child=1 3 4 12 11 28 13 22 29 10 -12 -13 -14 -15 -16 21 23 -19 -20 -21 25 -23 27 -25 -26 -27 -28 -29 -30 -31
leaf_value=0.027914451017906034 -0.034789673874245725 -0.0438662936604272 -0.026298405822516028 -0.016388008905295962 0.031322199473171504 0.040203217176391998 0.0090383238632973286 -0.0099442342731287086 0.026593817413509836 -0.023132241368154078 -0.040018180578063646 0.042539124042104678 -0.031019075070954211 -0.032140270052999895 -0.036776972320728463 0.0077961554115741237 0.022919830983119654 0.00045967587999454554 -0.01018344130885911 0.015437576881247375 0.0039120842219287173 -0.015928780718019175 0.029971655282495759 -0.021758163765328832 0.049440481373135274 -0.025653717948700305 0.044292754036427476 -0.01490151520446917 -0.011230566619061268 -0.017052517878980589
leaf_weight=2648.3504182696342 1232.4713700860739 13294.635329395533 1634.6820307821035 948.8980129212141 4378.17903855443 2503.6476688683033 2402.304124340415 679.88815453648567 2703.4224556237459 11386.021722272038 7680.0346417278051 4564.2314698398113 818.60060413181782 1378.7902229726315 551.82969301939011 3987.6972228884697 2503.2104945778847 1368.9665044546127 496.34276959300041 917.26131670176983 1672.6942637264729 1695.0767694413662 2027.1282887011766 325.1711667329073 8944.1237863004208 801.937804043293 4640.8088658899069 224.8084682226181 155.45447424054146 216.78118668496609
leaf_count=12186 6250 78014 7109 4193 19904 11156 10329 2938 11994 56941 43348 22451 4143 6974 2652 16544 10440 5772 2080 3803 7267 7282 8613 1432 47207 3943 23643 1021 682 875
internal_value=-3.4844e-05 -0.0216629 0.028609 -0.0287815 0.0169289 0.00994685 -0.0326345 -0.000981021 0.00284808 -0.0356688 -0.0299428 0.0302596 0.0019831 -0.00995774 0.000432385 -0.00533612 0.00916679 0.0212559 0.0270898 0.0429324 -0.0154061 0.000711621 0.0172537 0.017754 0.0444808 -0.00570152 0.0383653 0.0254689 0.0371809 0.0233301
internal_weight=88783.5 50587.5 38195.9 41289.5 21045.4 9298.03 36693.6 6638.93 10237.7 32360.7 19066.1 10807.7 4595.88 4332.92 2954.13 7317.46 3777.28 6243.49 4874.52 17150.5 3707.1 5682.77 2931.82 2828.38 16233.3 2474.63 7289.16 2251.94 2659.1 2920.2
internal_count=441186 260336 180850 218466 94011 41870 198258 30032 43804 178303 100289 50207 20208 19955 12981 30935 16065 27756 21984 86839 17460 23826 12572 11872 83036 11210 35829 9634 11838 12869
is_linear=0
shrinkage=0.04


Tree=23
num_leaves=31
num_cat=0
split_feature=18 27 27 4 4 4 9 21 10 14 9 4 1 10 14 9 21 21 9 21 22 24 9 10 4 21 14 16 22 9
split_gain=32102.1 6504.81 3811.04 2854.49 2233.13 2029.94 1321.96 1331.97 1524.88 1069.67 1016.27 740.702 652.814 579.154 573.338 570.319 544.747 524.149 509.547 379.335 353.932 337.652 334.656 329.156 278.69 268.656 254.052 246.676 233.051 225.617
threshold=1.0000000180025095e-35 0.24232017439738782 0.095371827111348104 -0.85370371710017312 -0.27817653656160762 0.40199194952942435 1.0000000180025095e-35 1.0000000180025095e-35 1.0000000180025095e-35 1.0000000180025095e-35 1.0000000180025095e-35 0.40199194952942435 -0.077117690623009508 1.0000000180025095e-35 1.0000000180025095e-35 1.0000000180025095e-35 -1.0000000180025095e-35 1.0000000180025095e-35 1.0000000180025095e-35 -1.0000000180025095e-35 -1.0106656754288725 1.0000000180025095e-35 1.0000000180025095e-35 1.0000000180025095e-35 -2.2663613420584698 -1.0000000180025095e-35 1.0000000180025095e-35 1.0000000180025095e-35 0.40199194952942435 1.0000000180025095e-35
decision_type=2 2 2 2 2 2 2 2 2 2 2 2 2 2 2 2 2 2 2 2 2 2 2 2 2 2 2 2 2 2
left_child=2 3 5 12 18 10 7 8 -5 15 13 22 24 16 27 17 -1 -6 19 -3 -14 29 -4 -21 -2 -22 -12 -7 -11 -13
right_child=1 4 11 6 9 14 -8 -9 -10 28 26 21 20 -15 -16 -17 -18 -19 -20 23 25 -23 -24 -25 -26 -27 -28 -29 -30 -31
leaf_value=-0.0033487502713572333 0.036287670777447621 -0.0066415691095427082 0.04633280204588746 -0.01500330747368891 -0.00095476326733248977 -0.015002338606774255 -0.042276651666296232 -0.045348050705216733 -0.049306004257478282 0.023849459817610233 -0.0057019835029581082 0.023070628093925384 -0.007941145358984561 -0.023918663167961585 0.016117694950674808 -0.03417952682532345 0.034574115918372679 -0.039522903743357561 0.0012595141881617078 0.041267661632786064 -0.011827285424413355 0.040656163816164111 0.029082904998770243 -0.024161778711914779 -0.019514856485703971 0.034377838492724758 0.021822005053521273 0.02711047399219833 -0.019485097461961205 -0.0040845550197874097
leaf_weight=652.26502607762814 151.75648461282253 325.46331837773323 13533.61540825665 12806.051815137267 3185.2016727179289 3992.5054622888565 14045.508283421397 4494.1755283325911 2471.4266481548548 1581.3609586954117 1918.468855202198 2172.5076884031296 630.25339767336845 304.740358710289 1494.9798083156347 1979.043682590127 8396.9167736470699 680.11349694430828 946.58300532400608 3016.2319687157869 234.3296590000391 1474.1146567761898 2113.7102770656347 125.13374447822571 1698.9071810394526 1336.8726254105568 739.19326350092888 231.17222812771797 223.15674465894699 629.76055610179901
leaf_count=2821 631 1415 70748 64401 14057 17116 82922 26180 13376 6857 8112 9879 3071 1280 6615 10559 39648 3440 4092 13421 1102 7466 10129 527 7839 5650 3282 1009 999 2587
internal_value=8.87233e-05 -0.0209399 0.0279731 -0.0290872 0.00463978 0.0144773 -0.0328881 -0.0262097 -0.0205667 -0.00843351 0.023813 0.0399765 0.00263543 0.0300119 -0.00513535 -0.0167432 0.0318403 -0.00778323 0.027281 0.0343738 0.017338 0.0251738 0.0440126 0.0386271 -0.0148535 0.0274711 0.00198005 -0.0126681 0.0184514 0.0169716
internal_weight=87585.5 49931.6 37654 37869.3 12062.3 17730.2 33817.2 19771.7 15277.5 7648.88 12011.6 19923.7 4052.12 9353.92 5718.66 5844.36 9049.18 3865.32 4413.41 3466.83 2201.46 4276.38 15647.3 3141.37 1850.66 1571.2 2657.66 4223.68 1804.52 2802.27
internal_count=441231 260539 180692 205172 55367 79883 186879 103957 77777 35912 55143 100809 18293 43749 24740 28056 42469 17497 19455 15363 9823 19932 80877 13948 8470 6752 11394 18125 7856 12466
is_linear=0
shrinkage=0.04


Tree=24
num_leaves=31
num_cat=0
split_feature=18 27 27 4 4 4 14 7 9 7 9 21 9 21 7 6 14 9 4 14 1 21 7 1 7 10 9 9 21 10
split_gain=29886.2 6045.75 3727.58 2696.98 2059.44 2018.16 1170.43 1120.81 1041.76 919.123 847.368 950.297 758.244 656.136 632 598.225 588.619 511.212 482.757 443.436 415.872 373.482 304.494 290.494 271.249 259.909 245.492 232.055 238.239 229.23
threshold=1.0000000180025095e-35 0.24232017439738782 0.24232017439738782 -0.33049718933784084 0.40199194952942435 -0.27817653656160762 1.0000000180025095e-35 1.0000000180025095e-35 1.0000000180025095e-35 1.0000000180025095e-35 1.0000000180025095e-35 1.0000000180025095e-35 1.0000000180025095e-35 -1.0000000180025095e-35 1.0000000180025095e-35 1.0000000180025095e-35 1.0000000180025095e-35 1.0000000180025095e-35 -0.27817653656160762 1.0000000180025095e-35 -0.077117690623009508 -1.0000000180025095e-35 1.0000000180025095e-35 -0.077117690623009508 1.0000000180025095e-35 1.0000000180025095e-35 1.0000000180025095e-35 1.0000000180025095e-35 0.40199194952942435 1.0000000180025095e-35
decision_type=2 2 2 2 2 2 2 2 2 2 2 2 2 2 2 2 2 2 2 2 2 2 2 2 2 2 2 2 2 2
left_child=2 3 5 7 8 17 14 -2 15 -5 11 -11 13 -9 -7 23 18 21 -4 27 -16 -1 -20 -3 -10 -23 29 28 -6 -8
right_child=1 4 16 9 19 6 26 12 24 10 -12 -13 -14 -15 20 -17 -18 -19 22 -21 -22 25 -24 -25 -26 -27 -28 -29 -30 -31
leaf_value=0.003379392495349672 -0.029752168347286969 -0.0055304182299641758 0.041964753322367002 -0.04274975289633539 -0.0092855968372782191 -0.02565412958186216 0.031384592040244637 -0.024075118993059089 -0.032978030470510324 -0.014592196802587758 -0.039317265301731824 -0.043042327770621683 -0.020204314689182271 0.019886910292759734 -0.011117044006028236 0.03647373589820712 0.046549647996888988 0.010013448142460921 -0.0021759340869477953 0.0073519351278594734 0.0099188973097311204 0.040170743483091499 0.027252320203136639 0.021957528939685438 0.00061426308815673016 -0.011218808330575973 0.0023677532606939996 -0.037790164796526797 -0.040597428584255413 -0.03673114951107994
leaf_weight=525.99971559643745 2551.6781068444252 1054.6375616788864 4094.4297773241997 11873.779770776629 1753.7958846837282 1757.9511821866035 2548.7574032396078 653.01245386898518 550.91521236300468 8128.3137216120958 6784.4208211451769 2442.3522582501173 1650.6484251320362 3120.9369543641806 2509.3185296356678 3238.2568701505661 9763.3995238244534 1574.2815869599581 661.93239705264568 905.5045713186264 3736.1011008173227 5389.7184007912874 3715.8208446204662 1465.5407784581184 1247.4386762231588 160.20624381303787 682.55316558480263 1253.4620188176632 496.34740844368935 77.558068141341209
leaf_count=2289 12839 4595 21056 73149 7830 7711 12097 3061 2723 40290 40255 13802 8132 13192 10715 14719 52914 6810 3004 3890 15966 26699 17606 6314 5590 680 2826 7040 2619 327
internal_value=-0.000121886 -0.0205865 0.0269289 -0.0285399 0.00414429 0.0145058 0.00377062 -0.00791784 0.016816 -0.0341651 -0.0282812 -0.0211828 0.00237076 0.0122583 -0.00450418 0.0251105 0.0398396 0.0303669 0.0320839 -0.0175683 0.00146483 0.035628 0.0228053 0.0104663 -0.00973944 0.0386786 0.023762 -0.0240102 -0.0162672 0.0293071
internal_weight=86369.1 49171 37198 37205.1 11965.9 18962.4 11312.2 7976.28 7556.79 29228.9 17355.1 10570.7 5424.6 3773.95 8003.37 5758.44 18235.6 7650.21 8472.18 4409.11 6245.42 6075.92 4377.75 2520.18 1798.35 5549.92 3308.87 3503.61 2250.14 2626.32
internal_count=440740 260040 180700 204720 55320 86120 49642 37224 33941 167496 94347 54092 24385 16253 34392 25628 94580 36478 41666 21379 26681 29668 20610 10909 8313 27379 15250 17489 10449 12424
is_linear=0
shrinkage=0.04


Tree=25
num_leaves=31
num_cat=0
split_feature=19 17 17 4 0 4 0 0 4 9 7 4 8 4 1 27 7 7 7 14 14 0 14 4 23 1 1 14 27 7
split_gain=26811.2 7027.56 3588 3289.08 2052.27 1644.83 1406.41 1344.76 992.272 826.933 763.102 649.679 635.225 575.35 569.345 540.78 521.932 506.862 490.829 449.102 426.433 417.685 409.226 305.04 303.54 283.262 268.102 242.539 235.344 225.111
threshold=1.0000000180025095e-35 1.0000000180025095e-35 1.0000000180025095e-35 -0.27817653656160762 1.0000000180025095e-35 0.40199194952942435 1.0000000180025095e-35 1.0000000180025095e-35 -0.64442110599524016 1.0000000180025095e-35 1.0000000180025095e-35 -0.27817653656160762 1.0000000180025095e-35 -2.2663613420584698 -0.077117690623009508 0.89613009966884738 1.0000000180025095e-35 1.0000000180025095e-35 1.0000000180025095e-35 1.0000000180025095e-35 1.0000000180025095e-35 1.0000000180025095e-35 1.0000000180025095e-35 0.40199194952942435 -1.0000000180025095e-35 -0.077117690623009508 -0.31935711769684422 1.0000000180025095e-35 1.1495608886615574 1.0000000180025095e-35
decision_type=2 2 2 2 2 2 2 2 2 2 2 2 2 2 2 2 2 2 2 2 2 2 2 2 2 2 2 2 2 2
left_child=1 5 21 7 8 9 22 13 -4 12 -8 -6 24 -3 -12 27 -10 -9 -15 26 -18 23 29 -2 -1 -19 -13 -7 -11 -5
right_child=2 3 4 6 11 15 10 17 16 28 14 19 -14 18 -16 -17 20 25 -20 -21 -22 -23 -24 -25 -26 -27 -28 -29 -30 -31
leaf_value=-0.024759312763459544 0.037076161577210963 0.041136643081764193 0.025534173522659454 -0.044767463355526109 0.03939798639016185 -0.024400442244716682 -0.035490587695883806 -0.013045743127887375 -0.025521127670328179 -0.010160922734780703 -0.023979082883237024 -0.0068318750596029348 -0.011075971983428584 -0.035907054521196503 0.0011465894936257025 0.021895648122498061 -0.0062305171490891096 0.0054741886364061722 -0.011631240098553649 0.033590127214573842 0.01809123254394834 0.045619311985327211 -0.021544032074783556 0.01382887902476408 0.038093303420390141 0.03122567153010599 0.017419779546732739 0.0067578513400111872 0.033290520636928687 -0.036032668753726398
leaf_weight=123.31144867837429 3768.9455857127905 251.28103141486645 2208.3668799549341 8441.1984762847424 4472.0649272054434 2208.6098740100861 2955.7259955555201 918.96125251054764 1559.3366583436728 1201.2151502370834 2687.5936882644892 1062.2689143568277 501.54966473579407 2050.1681735664606 3108.30726313591 644.0637433975935 4133.7244154363871 1133.6609502434731 3813.2810117602348 2031.4942954480648 1594.0334806442261 10640.529453709722 2207.1722960919142 1198.0686356574297 4310.3886949270964 1725.5488014817238 2306.6660701483488 485.50724494457245 233.98462195694447 11246.092424347997
leaf_count=526 19313 1035 9933 55216 22882 11142 16725 4138 6858 5558 13191 4606 2255 10930 14745 2770 17336 4900 17875 10181 7060 59025 11321 5342 19722 7461 10106 2073 997 65665
internal_value=-2.5589e-05 -0.0187431 0.0268638 -0.0260631 0.0153568 0.0118198 -0.0325357 -0.006006 0.00207726 0.0237316 -0.0189655 0.0281216 0.0314964 -0.0175929 -0.010515 -0.0109137 -0.00504403 0.0127451 -0.0201427 0.0187558 0.000548095 0.0411337 -0.0379544 0.0314883 0.0363193 0.0210427 0.00977413 -0.0187833 -0.00298593 -0.0397882
internal_weight=85223.1 50247.6 34975.5 40539 19368 9708.63 30646.1 9892.9 9495.46 6370.45 8751.63 9872.49 4935.25 6114.73 5795.9 3338.18 7287.09 3778.17 5863.45 5400.43 5727.76 15607.5 21894.5 4967.01 4433.7 2859.21 3368.93 2694.12 1435.2 19687.3
internal_count=440887 268245 172642 223202 88962 45043 176863 46339 41187 29058 44661 47775 22503 29840 27936 15985 31254 16499 28805 24893 24396 83680 132202 24655 20248 12361 14712 13215 6555 120881
is_linear=0
shrinkage=0.04


Tree=26
num_leaves=31
num_cat=0
split_feature=6 0 4 4 4 7 7 4 9 9 0 9 8 7 7 8 6 1 27 7 4 6 1 23 23 5 7 9 8 9
split_gain=24771.5 7195.5 3001.11 2765.89 1974.63 1573.49 1499.66 1151.28 908.726 889.358 823.804 801.749 813.559 739.135 630.472 624.729 526.518 385.114 379.458 371.843 351.677 283.614 274.67 247.765 251.343 233.512 233.14 225.796 275.126 222.467
threshold=0.44960698371495067 1.0000000180025095e-35 0.40199194952942435 -0.80138306432393991 0.45431260230565756 1.0000000180025095e-35 1.0000000180025095e-35 0.45431260230565756 1.0000000180025095e-35 1.0000000180025095e-35 1.0000000180025095e-35 1.0000000180025095e-35 1.0000000180025095e-35 1.0000000180025095e-35 1.0000000180025095e-35 1.0000000180025095e-35 1.0000000180025095e-35 -0.077117690623009508 0.095371827111348104 1.0000000180025095e-35 -1.2199482865338054 1.0000000180025095e-35 -0.077117690623009508 1.0000000180025095e-35 -1.0000000180025095e-35 1.3351665020833996 1.0000000180025095e-35 1.0000000180025095e-35 1.0000000180025095e-35 1.0000000180025095e-35
decision_type=2 2 2 2 2 2 2 2 2 2 2 2 2 2 2 2 2 2 2 2 2 2 2 2 2 2 2 2 2 2
left_child=1 3 5 14 8 20 -5 9 15 -8 19 12 -7 -4 -1 23 25 -16 -10 -6 -3 -9 -13 24 -2 -15 -12 28 -21 -22
right_child=4 2 13 6 10 11 7 21 18 -11 26 22 -14 16 17 -17 -18 -19 -20 27 29 -23 -24 -25 -26 -27 -28 -29 -30 -31
leaf_value=-0.021152234918700212 0.0020653402364542235 0.020934345529435152 -0.0338448336819114 -0.040905204673700457 -0.030097376760312034 0.033407990033333716 -0.0045804641511339459 -0.037292109016521774 0.0052028909620004437 -0.029667800220532978 0.00070301550283756442 -0.014722641734603295 -0.0087249053235689839 -0.022663798276164517 -0.0031948200099267345 0.01175421428936262 0.0063135104611839648 0.024912441289283369 0.032288108001685946 0.018136147275700377 -0.0083230117749501769 -0.023079592496859872 0.013912152290463236 -0.017015650644995897 0.044221239012892717 0.012343519720472802 0.030146050804325909 -0.016611210999257258 -0.029534048404344083 -0.034537258695542777
leaf_weight=1146.3715126365423 230.06405632197857 461.38438287377357 2435.6198658794165 11974.042847856879 653.05096417665482 7085.3369019776583 6483.8834802508354 6705.6798291504383 1707.290227368474 3468.3119207769632 509.59959149360657 932.86689665913582 815.81315889954567 2641.4131265580654 1324.4314671605825 1081.1219503879547 2467.7259325832129 1888.6898323595524 1605.3944388180971 1432.7857397943735 1548.3031003028154 3431.3813740462065 1245.8494551628828 106.11408227682114 15920.228182807565 341.37094317376614 2768.6952601075172 612.01086147129536 219.27874311804771 776.93105775117874
leaf_count=5671 1091 2110 13525 74608 3250 33571 31149 39071 7806 19242 2417 4404 3676 13159 5982 5173 11178 8414 8128 6425 7421 17475 5710 481 86353 1504 13679 2847 1007 4112
